<?xml version="1.0" encoding="UTF-8" standalone="yes"?>
<PMML xmlns="http://www.dmg.org/PMML-4_4" xmlns:data="http://jpmml.org/jpmml-model/InlineTable" version="4.4">
	<Header>
		<Application name="SkLearn2PMML package" version="0.99.0"/>
		<Timestamp>2023-10-16T15:58:54Z</Timestamp>
	</Header>
	<DataDictionary>
		<DataField name="y" optype="categorical" dataType="integer">
			<Value value="0"/>
			<Value value="1"/>
		</DataField>
		<DataField name="x1" optype="continuous" dataType="double"/>
		<DataField name="x2" optype="continuous" dataType="double"/>
		<DataField name="x3" optype="continuous" dataType="double"/>
		<DataField name="x4" optype="continuous" dataType="double"/>
		<DataField name="x5" optype="continuous" dataType="double"/>
		<DataField name="x6" optype="continuous" dataType="double"/>
		<DataField name="x7" optype="continuous" dataType="double"/>
		<DataField name="x8" optype="continuous" dataType="double"/>
		<DataField name="x9" optype="continuous" dataType="double"/>
		<DataField name="x10" optype="continuous" dataType="double"/>
		<DataField name="x11" optype="continuous" dataType="double"/>
		<DataField name="x12" optype="continuous" dataType="double"/>
		<DataField name="x13" optype="continuous" dataType="double"/>
		<DataField name="x14" optype="continuous" dataType="double"/>
		<DataField name="x15" optype="continuous" dataType="double"/>
		<DataField name="x16" optype="continuous" dataType="double"/>
		<DataField name="x17" optype="continuous" dataType="double"/>
		<DataField name="x18" optype="continuous" dataType="double"/>
		<DataField name="x19" optype="continuous" dataType="double"/>
		<DataField name="x20" optype="continuous" dataType="double"/>
		<DataField name="x21" optype="continuous" dataType="double"/>
		<DataField name="x22" optype="continuous" dataType="double"/>
		<DataField name="x23" optype="continuous" dataType="double"/>
		<DataField name="x24" optype="continuous" dataType="double"/>
		<DataField name="x25" optype="continuous" dataType="double"/>
		<DataField name="x26" optype="continuous" dataType="double"/>
		<DataField name="x27" optype="continuous" dataType="double"/>
		<DataField name="x28" optype="continuous" dataType="double"/>
		<DataField name="x29" optype="continuous" dataType="double"/>
		<DataField name="x30" optype="continuous" dataType="double"/>
		<DataField name="x31" optype="continuous" dataType="double"/>
		<DataField name="x32" optype="continuous" dataType="double"/>
		<DataField name="x33" optype="continuous" dataType="double"/>
		<DataField name="x34" optype="continuous" dataType="double"/>
		<DataField name="x35" optype="continuous" dataType="double"/>
		<DataField name="x36" optype="continuous" dataType="double"/>
		<DataField name="x37" optype="continuous" dataType="double"/>
		<DataField name="x38" optype="continuous" dataType="double"/>
		<DataField name="x39" optype="continuous" dataType="double"/>
		<DataField name="x40" optype="continuous" dataType="double"/>
		<DataField name="x41" optype="continuous" dataType="double"/>
		<DataField name="x42" optype="continuous" dataType="double"/>
		<DataField name="x43" optype="continuous" dataType="double"/>
		<DataField name="x44" optype="continuous" dataType="double"/>
		<DataField name="x45" optype="continuous" dataType="double"/>
		<DataField name="x46" optype="continuous" dataType="double"/>
		<DataField name="x47" optype="continuous" dataType="double"/>
		<DataField name="x48" optype="continuous" dataType="double"/>
		<DataField name="x49" optype="continuous" dataType="double"/>
		<DataField name="x50" optype="continuous" dataType="double"/>
		<DataField name="x51" optype="continuous" dataType="double"/>
		<DataField name="x52" optype="continuous" dataType="double"/>
		<DataField name="x53" optype="continuous" dataType="double"/>
		<DataField name="x54" optype="continuous" dataType="double"/>
		<DataField name="x55" optype="continuous" dataType="double"/>
		<DataField name="x56" optype="continuous" dataType="double"/>
		<DataField name="x57" optype="continuous" dataType="double"/>
		<DataField name="x58" optype="continuous" dataType="double"/>
		<DataField name="x59" optype="continuous" dataType="double"/>
		<DataField name="x60" optype="continuous" dataType="double"/>
		<DataField name="x61" optype="continuous" dataType="double"/>
		<DataField name="x62" optype="continuous" dataType="double"/>
		<DataField name="x63" optype="continuous" dataType="double"/>
		<DataField name="x64" optype="continuous" dataType="double"/>
		<DataField name="x65" optype="continuous" dataType="double"/>
		<DataField name="x66" optype="continuous" dataType="double"/>
		<DataField name="x67" optype="continuous" dataType="double"/>
		<DataField name="x68" optype="continuous" dataType="double"/>
		<DataField name="x69" optype="continuous" dataType="double"/>
		<DataField name="x70" optype="continuous" dataType="double"/>
		<DataField name="x71" optype="continuous" dataType="double"/>
		<DataField name="x72" optype="continuous" dataType="double"/>
		<DataField name="x73" optype="continuous" dataType="double"/>
		<DataField name="x74" optype="continuous" dataType="double"/>
		<DataField name="x75" optype="continuous" dataType="double"/>
		<DataField name="x76" optype="continuous" dataType="double"/>
		<DataField name="x77" optype="continuous" dataType="double"/>
		<DataField name="x78" optype="continuous" dataType="double"/>
		<DataField name="x79" optype="continuous" dataType="double"/>
		<DataField name="x80" optype="continuous" dataType="double"/>
		<DataField name="x81" optype="continuous" dataType="double"/>
		<DataField name="x82" optype="continuous" dataType="double"/>
		<DataField name="x83" optype="continuous" dataType="double"/>
		<DataField name="x84" optype="continuous" dataType="double"/>
		<DataField name="x85" optype="continuous" dataType="double"/>
		<DataField name="x86" optype="continuous" dataType="double"/>
		<DataField name="x87" optype="continuous" dataType="double"/>
		<DataField name="x88" optype="continuous" dataType="double"/>
		<DataField name="x89" optype="continuous" dataType="double"/>
		<DataField name="x90" optype="continuous" dataType="double"/>
		<DataField name="x91" optype="continuous" dataType="double"/>
		<DataField name="x92" optype="continuous" dataType="double"/>
		<DataField name="x93" optype="continuous" dataType="double"/>
		<DataField name="x94" optype="continuous" dataType="double"/>
		<DataField name="x95" optype="continuous" dataType="double"/>
		<DataField name="x96" optype="continuous" dataType="double"/>
		<DataField name="x97" optype="continuous" dataType="double"/>
		<DataField name="x98" optype="continuous" dataType="double"/>
		<DataField name="x99" optype="continuous" dataType="double"/>
		<DataField name="x100" optype="continuous" dataType="double"/>
		<DataField name="x101" optype="continuous" dataType="double"/>
		<DataField name="x102" optype="continuous" dataType="double"/>
		<DataField name="x103" optype="continuous" dataType="double"/>
		<DataField name="x104" optype="continuous" dataType="double"/>
		<DataField name="x105" optype="continuous" dataType="double"/>
		<DataField name="x106" optype="continuous" dataType="double"/>
		<DataField name="x107" optype="continuous" dataType="double"/>
		<DataField name="x108" optype="continuous" dataType="double"/>
		<DataField name="x109" optype="continuous" dataType="double"/>
		<DataField name="x110" optype="continuous" dataType="double"/>
		<DataField name="x111" optype="continuous" dataType="double"/>
		<DataField name="x112" optype="continuous" dataType="double"/>
		<DataField name="x113" optype="continuous" dataType="double"/>
		<DataField name="x114" optype="continuous" dataType="double"/>
		<DataField name="x115" optype="continuous" dataType="double"/>
		<DataField name="x116" optype="continuous" dataType="double"/>
		<DataField name="x117" optype="continuous" dataType="double"/>
		<DataField name="x118" optype="continuous" dataType="double"/>
		<DataField name="x119" optype="continuous" dataType="double"/>
		<DataField name="x120" optype="continuous" dataType="double"/>
		<DataField name="x121" optype="continuous" dataType="double"/>
		<DataField name="x122" optype="continuous" dataType="double"/>
		<DataField name="x123" optype="continuous" dataType="double"/>
		<DataField name="x124" optype="continuous" dataType="double"/>
		<DataField name="x125" optype="continuous" dataType="double"/>
		<DataField name="x126" optype="continuous" dataType="double"/>
		<DataField name="x127" optype="continuous" dataType="double"/>
		<DataField name="x128" optype="continuous" dataType="double"/>
		<DataField name="x129" optype="continuous" dataType="double"/>
		<DataField name="x130" optype="continuous" dataType="double"/>
		<DataField name="x131" optype="continuous" dataType="double"/>
		<DataField name="x132" optype="continuous" dataType="double"/>
		<DataField name="x133" optype="continuous" dataType="double"/>
		<DataField name="x134" optype="continuous" dataType="double"/>
		<DataField name="x135" optype="continuous" dataType="double"/>
		<DataField name="x136" optype="continuous" dataType="double"/>
		<DataField name="x137" optype="continuous" dataType="double"/>
		<DataField name="x138" optype="continuous" dataType="double"/>
		<DataField name="x139" optype="continuous" dataType="double"/>
		<DataField name="x140" optype="continuous" dataType="double"/>
		<DataField name="x141" optype="continuous" dataType="double"/>
		<DataField name="x142" optype="continuous" dataType="double"/>
		<DataField name="x143" optype="continuous" dataType="double"/>
		<DataField name="x144" optype="continuous" dataType="double"/>
		<DataField name="x145" optype="continuous" dataType="double"/>
		<DataField name="x146" optype="continuous" dataType="double"/>
		<DataField name="x147" optype="continuous" dataType="double"/>
		<DataField name="x148" optype="continuous" dataType="double"/>
		<DataField name="x149" optype="continuous" dataType="double"/>
		<DataField name="x150" optype="continuous" dataType="double"/>
		<DataField name="x151" optype="continuous" dataType="double"/>
		<DataField name="x152" optype="continuous" dataType="double"/>
		<DataField name="x153" optype="continuous" dataType="double"/>
		<DataField name="x154" optype="continuous" dataType="double"/>
		<DataField name="x155" optype="continuous" dataType="double"/>
		<DataField name="x156" optype="continuous" dataType="double"/>
		<DataField name="x157" optype="continuous" dataType="double"/>
		<DataField name="x158" optype="continuous" dataType="double"/>
		<DataField name="x159" optype="continuous" dataType="double"/>
		<DataField name="x160" optype="continuous" dataType="double"/>
		<DataField name="x161" optype="continuous" dataType="double"/>
		<DataField name="x162" optype="continuous" dataType="double"/>
		<DataField name="x163" optype="continuous" dataType="double"/>
		<DataField name="x164" optype="continuous" dataType="double"/>
		<DataField name="x165" optype="continuous" dataType="double"/>
		<DataField name="x166" optype="continuous" dataType="double"/>
		<DataField name="x167" optype="continuous" dataType="double"/>
		<DataField name="x168" optype="continuous" dataType="double"/>
		<DataField name="x169" optype="continuous" dataType="double"/>
		<DataField name="x170" optype="continuous" dataType="double"/>
		<DataField name="x171" optype="continuous" dataType="double"/>
		<DataField name="x172" optype="continuous" dataType="double"/>
		<DataField name="x173" optype="continuous" dataType="double"/>
		<DataField name="x174" optype="continuous" dataType="double"/>
		<DataField name="x175" optype="continuous" dataType="double"/>
		<DataField name="x176" optype="continuous" dataType="double"/>
		<DataField name="x177" optype="continuous" dataType="double"/>
		<DataField name="x178" optype="continuous" dataType="double"/>
	</DataDictionary>
	<NeuralNetwork functionName="classification" algorithmName="sklearn.neural_network._multilayer_perceptron.MLPClassifier" activationFunction="tanh">
		<MiningSchema>
			<MiningField name="y" usageType="target"/>
			<MiningField name="x1"/>
			<MiningField name="x2"/>
			<MiningField name="x3"/>
			<MiningField name="x4"/>
			<MiningField name="x5"/>
			<MiningField name="x6"/>
			<MiningField name="x7"/>
			<MiningField name="x8"/>
			<MiningField name="x9"/>
			<MiningField name="x10"/>
			<MiningField name="x11"/>
			<MiningField name="x12"/>
			<MiningField name="x13"/>
			<MiningField name="x14"/>
			<MiningField name="x15"/>
			<MiningField name="x16"/>
			<MiningField name="x17"/>
			<MiningField name="x18"/>
			<MiningField name="x19"/>
			<MiningField name="x20"/>
			<MiningField name="x21"/>
			<MiningField name="x22"/>
			<MiningField name="x23"/>
			<MiningField name="x24"/>
			<MiningField name="x25"/>
			<MiningField name="x26"/>
			<MiningField name="x27"/>
			<MiningField name="x28"/>
			<MiningField name="x29"/>
			<MiningField name="x30"/>
			<MiningField name="x31"/>
			<MiningField name="x32"/>
			<MiningField name="x33"/>
			<MiningField name="x34"/>
			<MiningField name="x35"/>
			<MiningField name="x36"/>
			<MiningField name="x37"/>
			<MiningField name="x38"/>
			<MiningField name="x39"/>
			<MiningField name="x40"/>
			<MiningField name="x41"/>
			<MiningField name="x42"/>
			<MiningField name="x43"/>
			<MiningField name="x44"/>
			<MiningField name="x45"/>
			<MiningField name="x46"/>
			<MiningField name="x47"/>
			<MiningField name="x48"/>
			<MiningField name="x49"/>
			<MiningField name="x50"/>
			<MiningField name="x51"/>
			<MiningField name="x52"/>
			<MiningField name="x53"/>
			<MiningField name="x54"/>
			<MiningField name="x55"/>
			<MiningField name="x56"/>
			<MiningField name="x57"/>
			<MiningField name="x58"/>
			<MiningField name="x59"/>
			<MiningField name="x60"/>
			<MiningField name="x61"/>
			<MiningField name="x62"/>
			<MiningField name="x63"/>
			<MiningField name="x64"/>
			<MiningField name="x65"/>
			<MiningField name="x66"/>
			<MiningField name="x67"/>
			<MiningField name="x68"/>
			<MiningField name="x69"/>
			<MiningField name="x70"/>
			<MiningField name="x71"/>
			<MiningField name="x72"/>
			<MiningField name="x73"/>
			<MiningField name="x74"/>
			<MiningField name="x75"/>
			<MiningField name="x76"/>
			<MiningField name="x77"/>
			<MiningField name="x78"/>
			<MiningField name="x79"/>
			<MiningField name="x80"/>
			<MiningField name="x81"/>
			<MiningField name="x82"/>
			<MiningField name="x83"/>
			<MiningField name="x84"/>
			<MiningField name="x85"/>
			<MiningField name="x86"/>
			<MiningField name="x87"/>
			<MiningField name="x88"/>
			<MiningField name="x89"/>
			<MiningField name="x90"/>
			<MiningField name="x91"/>
			<MiningField name="x92"/>
			<MiningField name="x93"/>
			<MiningField name="x94"/>
			<MiningField name="x95"/>
			<MiningField name="x96"/>
			<MiningField name="x97"/>
			<MiningField name="x98"/>
			<MiningField name="x99"/>
			<MiningField name="x100"/>
			<MiningField name="x101"/>
			<MiningField name="x102"/>
			<MiningField name="x103"/>
			<MiningField name="x104"/>
			<MiningField name="x105"/>
			<MiningField name="x106"/>
			<MiningField name="x107"/>
			<MiningField name="x108"/>
			<MiningField name="x109"/>
			<MiningField name="x110"/>
			<MiningField name="x111"/>
			<MiningField name="x112"/>
			<MiningField name="x113"/>
			<MiningField name="x114"/>
			<MiningField name="x115"/>
			<MiningField name="x116"/>
			<MiningField name="x117"/>
			<MiningField name="x118"/>
			<MiningField name="x119"/>
			<MiningField name="x120"/>
			<MiningField name="x121"/>
			<MiningField name="x122"/>
			<MiningField name="x123"/>
			<MiningField name="x124"/>
			<MiningField name="x125"/>
			<MiningField name="x126"/>
			<MiningField name="x127"/>
			<MiningField name="x128"/>
			<MiningField name="x129"/>
			<MiningField name="x130"/>
			<MiningField name="x131"/>
			<MiningField name="x132"/>
			<MiningField name="x133"/>
			<MiningField name="x134"/>
			<MiningField name="x135"/>
			<MiningField name="x136"/>
			<MiningField name="x137"/>
			<MiningField name="x138"/>
			<MiningField name="x139"/>
			<MiningField name="x140"/>
			<MiningField name="x141"/>
			<MiningField name="x142"/>
			<MiningField name="x143"/>
			<MiningField name="x144"/>
			<MiningField name="x145"/>
			<MiningField name="x146"/>
			<MiningField name="x147"/>
			<MiningField name="x148"/>
			<MiningField name="x149"/>
			<MiningField name="x150"/>
			<MiningField name="x151"/>
			<MiningField name="x152"/>
			<MiningField name="x153"/>
			<MiningField name="x154"/>
			<MiningField name="x155"/>
			<MiningField name="x156"/>
			<MiningField name="x157"/>
			<MiningField name="x158"/>
			<MiningField name="x159"/>
			<MiningField name="x160"/>
			<MiningField name="x161"/>
			<MiningField name="x162"/>
			<MiningField name="x163"/>
			<MiningField name="x164"/>
			<MiningField name="x165"/>
			<MiningField name="x166"/>
			<MiningField name="x167"/>
			<MiningField name="x168"/>
			<MiningField name="x169"/>
			<MiningField name="x170"/>
			<MiningField name="x171"/>
			<MiningField name="x172"/>
			<MiningField name="x173"/>
			<MiningField name="x174"/>
			<MiningField name="x175"/>
			<MiningField name="x176"/>
			<MiningField name="x177"/>
			<MiningField name="x178"/>
		</MiningSchema>
		<Output>
			<OutputField name="probability(0)" optype="continuous" dataType="double" feature="probability" value="0"/>
			<OutputField name="probability(1)" optype="continuous" dataType="double" feature="probability" value="1"/>
		</Output>
		<NeuralInputs>
			<NeuralInput id="input/1">
				<DerivedField optype="continuous" dataType="double">
					<FieldRef field="x1"/>
				</DerivedField>
			</NeuralInput>
			<NeuralInput id="input/2">
				<DerivedField optype="continuous" dataType="double">
					<FieldRef field="x2"/>
				</DerivedField>
			</NeuralInput>
			<NeuralInput id="input/3">
				<DerivedField optype="continuous" dataType="double">
					<FieldRef field="x3"/>
				</DerivedField>
			</NeuralInput>
			<NeuralInput id="input/4">
				<DerivedField optype="continuous" dataType="double">
					<FieldRef field="x4"/>
				</DerivedField>
			</NeuralInput>
			<NeuralInput id="input/5">
				<DerivedField optype="continuous" dataType="double">
					<FieldRef field="x5"/>
				</DerivedField>
			</NeuralInput>
			<NeuralInput id="input/6">
				<DerivedField optype="continuous" dataType="double">
					<FieldRef field="x6"/>
				</DerivedField>
			</NeuralInput>
			<NeuralInput id="input/7">
				<DerivedField optype="continuous" dataType="double">
					<FieldRef field="x7"/>
				</DerivedField>
			</NeuralInput>
			<NeuralInput id="input/8">
				<DerivedField optype="continuous" dataType="double">
					<FieldRef field="x8"/>
				</DerivedField>
			</NeuralInput>
			<NeuralInput id="input/9">
				<DerivedField optype="continuous" dataType="double">
					<FieldRef field="x9"/>
				</DerivedField>
			</NeuralInput>
			<NeuralInput id="input/10">
				<DerivedField optype="continuous" dataType="double">
					<FieldRef field="x10"/>
				</DerivedField>
			</NeuralInput>
			<NeuralInput id="input/11">
				<DerivedField optype="continuous" dataType="double">
					<FieldRef field="x11"/>
				</DerivedField>
			</NeuralInput>
			<NeuralInput id="input/12">
				<DerivedField optype="continuous" dataType="double">
					<FieldRef field="x12"/>
				</DerivedField>
			</NeuralInput>
			<NeuralInput id="input/13">
				<DerivedField optype="continuous" dataType="double">
					<FieldRef field="x13"/>
				</DerivedField>
			</NeuralInput>
			<NeuralInput id="input/14">
				<DerivedField optype="continuous" dataType="double">
					<FieldRef field="x14"/>
				</DerivedField>
			</NeuralInput>
			<NeuralInput id="input/15">
				<DerivedField optype="continuous" dataType="double">
					<FieldRef field="x15"/>
				</DerivedField>
			</NeuralInput>
			<NeuralInput id="input/16">
				<DerivedField optype="continuous" dataType="double">
					<FieldRef field="x16"/>
				</DerivedField>
			</NeuralInput>
			<NeuralInput id="input/17">
				<DerivedField optype="continuous" dataType="double">
					<FieldRef field="x17"/>
				</DerivedField>
			</NeuralInput>
			<NeuralInput id="input/18">
				<DerivedField optype="continuous" dataType="double">
					<FieldRef field="x18"/>
				</DerivedField>
			</NeuralInput>
			<NeuralInput id="input/19">
				<DerivedField optype="continuous" dataType="double">
					<FieldRef field="x19"/>
				</DerivedField>
			</NeuralInput>
			<NeuralInput id="input/20">
				<DerivedField optype="continuous" dataType="double">
					<FieldRef field="x20"/>
				</DerivedField>
			</NeuralInput>
			<NeuralInput id="input/21">
				<DerivedField optype="continuous" dataType="double">
					<FieldRef field="x21"/>
				</DerivedField>
			</NeuralInput>
			<NeuralInput id="input/22">
				<DerivedField optype="continuous" dataType="double">
					<FieldRef field="x22"/>
				</DerivedField>
			</NeuralInput>
			<NeuralInput id="input/23">
				<DerivedField optype="continuous" dataType="double">
					<FieldRef field="x23"/>
				</DerivedField>
			</NeuralInput>
			<NeuralInput id="input/24">
				<DerivedField optype="continuous" dataType="double">
					<FieldRef field="x24"/>
				</DerivedField>
			</NeuralInput>
			<NeuralInput id="input/25">
				<DerivedField optype="continuous" dataType="double">
					<FieldRef field="x25"/>
				</DerivedField>
			</NeuralInput>
			<NeuralInput id="input/26">
				<DerivedField optype="continuous" dataType="double">
					<FieldRef field="x26"/>
				</DerivedField>
			</NeuralInput>
			<NeuralInput id="input/27">
				<DerivedField optype="continuous" dataType="double">
					<FieldRef field="x27"/>
				</DerivedField>
			</NeuralInput>
			<NeuralInput id="input/28">
				<DerivedField optype="continuous" dataType="double">
					<FieldRef field="x28"/>
				</DerivedField>
			</NeuralInput>
			<NeuralInput id="input/29">
				<DerivedField optype="continuous" dataType="double">
					<FieldRef field="x29"/>
				</DerivedField>
			</NeuralInput>
			<NeuralInput id="input/30">
				<DerivedField optype="continuous" dataType="double">
					<FieldRef field="x30"/>
				</DerivedField>
			</NeuralInput>
			<NeuralInput id="input/31">
				<DerivedField optype="continuous" dataType="double">
					<FieldRef field="x31"/>
				</DerivedField>
			</NeuralInput>
			<NeuralInput id="input/32">
				<DerivedField optype="continuous" dataType="double">
					<FieldRef field="x32"/>
				</DerivedField>
			</NeuralInput>
			<NeuralInput id="input/33">
				<DerivedField optype="continuous" dataType="double">
					<FieldRef field="x33"/>
				</DerivedField>
			</NeuralInput>
			<NeuralInput id="input/34">
				<DerivedField optype="continuous" dataType="double">
					<FieldRef field="x34"/>
				</DerivedField>
			</NeuralInput>
			<NeuralInput id="input/35">
				<DerivedField optype="continuous" dataType="double">
					<FieldRef field="x35"/>
				</DerivedField>
			</NeuralInput>
			<NeuralInput id="input/36">
				<DerivedField optype="continuous" dataType="double">
					<FieldRef field="x36"/>
				</DerivedField>
			</NeuralInput>
			<NeuralInput id="input/37">
				<DerivedField optype="continuous" dataType="double">
					<FieldRef field="x37"/>
				</DerivedField>
			</NeuralInput>
			<NeuralInput id="input/38">
				<DerivedField optype="continuous" dataType="double">
					<FieldRef field="x38"/>
				</DerivedField>
			</NeuralInput>
			<NeuralInput id="input/39">
				<DerivedField optype="continuous" dataType="double">
					<FieldRef field="x39"/>
				</DerivedField>
			</NeuralInput>
			<NeuralInput id="input/40">
				<DerivedField optype="continuous" dataType="double">
					<FieldRef field="x40"/>
				</DerivedField>
			</NeuralInput>
			<NeuralInput id="input/41">
				<DerivedField optype="continuous" dataType="double">
					<FieldRef field="x41"/>
				</DerivedField>
			</NeuralInput>
			<NeuralInput id="input/42">
				<DerivedField optype="continuous" dataType="double">
					<FieldRef field="x42"/>
				</DerivedField>
			</NeuralInput>
			<NeuralInput id="input/43">
				<DerivedField optype="continuous" dataType="double">
					<FieldRef field="x43"/>
				</DerivedField>
			</NeuralInput>
			<NeuralInput id="input/44">
				<DerivedField optype="continuous" dataType="double">
					<FieldRef field="x44"/>
				</DerivedField>
			</NeuralInput>
			<NeuralInput id="input/45">
				<DerivedField optype="continuous" dataType="double">
					<FieldRef field="x45"/>
				</DerivedField>
			</NeuralInput>
			<NeuralInput id="input/46">
				<DerivedField optype="continuous" dataType="double">
					<FieldRef field="x46"/>
				</DerivedField>
			</NeuralInput>
			<NeuralInput id="input/47">
				<DerivedField optype="continuous" dataType="double">
					<FieldRef field="x47"/>
				</DerivedField>
			</NeuralInput>
			<NeuralInput id="input/48">
				<DerivedField optype="continuous" dataType="double">
					<FieldRef field="x48"/>
				</DerivedField>
			</NeuralInput>
			<NeuralInput id="input/49">
				<DerivedField optype="continuous" dataType="double">
					<FieldRef field="x49"/>
				</DerivedField>
			</NeuralInput>
			<NeuralInput id="input/50">
				<DerivedField optype="continuous" dataType="double">
					<FieldRef field="x50"/>
				</DerivedField>
			</NeuralInput>
			<NeuralInput id="input/51">
				<DerivedField optype="continuous" dataType="double">
					<FieldRef field="x51"/>
				</DerivedField>
			</NeuralInput>
			<NeuralInput id="input/52">
				<DerivedField optype="continuous" dataType="double">
					<FieldRef field="x52"/>
				</DerivedField>
			</NeuralInput>
			<NeuralInput id="input/53">
				<DerivedField optype="continuous" dataType="double">
					<FieldRef field="x53"/>
				</DerivedField>
			</NeuralInput>
			<NeuralInput id="input/54">
				<DerivedField optype="continuous" dataType="double">
					<FieldRef field="x54"/>
				</DerivedField>
			</NeuralInput>
			<NeuralInput id="input/55">
				<DerivedField optype="continuous" dataType="double">
					<FieldRef field="x55"/>
				</DerivedField>
			</NeuralInput>
			<NeuralInput id="input/56">
				<DerivedField optype="continuous" dataType="double">
					<FieldRef field="x56"/>
				</DerivedField>
			</NeuralInput>
			<NeuralInput id="input/57">
				<DerivedField optype="continuous" dataType="double">
					<FieldRef field="x57"/>
				</DerivedField>
			</NeuralInput>
			<NeuralInput id="input/58">
				<DerivedField optype="continuous" dataType="double">
					<FieldRef field="x58"/>
				</DerivedField>
			</NeuralInput>
			<NeuralInput id="input/59">
				<DerivedField optype="continuous" dataType="double">
					<FieldRef field="x59"/>
				</DerivedField>
			</NeuralInput>
			<NeuralInput id="input/60">
				<DerivedField optype="continuous" dataType="double">
					<FieldRef field="x60"/>
				</DerivedField>
			</NeuralInput>
			<NeuralInput id="input/61">
				<DerivedField optype="continuous" dataType="double">
					<FieldRef field="x61"/>
				</DerivedField>
			</NeuralInput>
			<NeuralInput id="input/62">
				<DerivedField optype="continuous" dataType="double">
					<FieldRef field="x62"/>
				</DerivedField>
			</NeuralInput>
			<NeuralInput id="input/63">
				<DerivedField optype="continuous" dataType="double">
					<FieldRef field="x63"/>
				</DerivedField>
			</NeuralInput>
			<NeuralInput id="input/64">
				<DerivedField optype="continuous" dataType="double">
					<FieldRef field="x64"/>
				</DerivedField>
			</NeuralInput>
			<NeuralInput id="input/65">
				<DerivedField optype="continuous" dataType="double">
					<FieldRef field="x65"/>
				</DerivedField>
			</NeuralInput>
			<NeuralInput id="input/66">
				<DerivedField optype="continuous" dataType="double">
					<FieldRef field="x66"/>
				</DerivedField>
			</NeuralInput>
			<NeuralInput id="input/67">
				<DerivedField optype="continuous" dataType="double">
					<FieldRef field="x67"/>
				</DerivedField>
			</NeuralInput>
			<NeuralInput id="input/68">
				<DerivedField optype="continuous" dataType="double">
					<FieldRef field="x68"/>
				</DerivedField>
			</NeuralInput>
			<NeuralInput id="input/69">
				<DerivedField optype="continuous" dataType="double">
					<FieldRef field="x69"/>
				</DerivedField>
			</NeuralInput>
			<NeuralInput id="input/70">
				<DerivedField optype="continuous" dataType="double">
					<FieldRef field="x70"/>
				</DerivedField>
			</NeuralInput>
			<NeuralInput id="input/71">
				<DerivedField optype="continuous" dataType="double">
					<FieldRef field="x71"/>
				</DerivedField>
			</NeuralInput>
			<NeuralInput id="input/72">
				<DerivedField optype="continuous" dataType="double">
					<FieldRef field="x72"/>
				</DerivedField>
			</NeuralInput>
			<NeuralInput id="input/73">
				<DerivedField optype="continuous" dataType="double">
					<FieldRef field="x73"/>
				</DerivedField>
			</NeuralInput>
			<NeuralInput id="input/74">
				<DerivedField optype="continuous" dataType="double">
					<FieldRef field="x74"/>
				</DerivedField>
			</NeuralInput>
			<NeuralInput id="input/75">
				<DerivedField optype="continuous" dataType="double">
					<FieldRef field="x75"/>
				</DerivedField>
			</NeuralInput>
			<NeuralInput id="input/76">
				<DerivedField optype="continuous" dataType="double">
					<FieldRef field="x76"/>
				</DerivedField>
			</NeuralInput>
			<NeuralInput id="input/77">
				<DerivedField optype="continuous" dataType="double">
					<FieldRef field="x77"/>
				</DerivedField>
			</NeuralInput>
			<NeuralInput id="input/78">
				<DerivedField optype="continuous" dataType="double">
					<FieldRef field="x78"/>
				</DerivedField>
			</NeuralInput>
			<NeuralInput id="input/79">
				<DerivedField optype="continuous" dataType="double">
					<FieldRef field="x79"/>
				</DerivedField>
			</NeuralInput>
			<NeuralInput id="input/80">
				<DerivedField optype="continuous" dataType="double">
					<FieldRef field="x80"/>
				</DerivedField>
			</NeuralInput>
			<NeuralInput id="input/81">
				<DerivedField optype="continuous" dataType="double">
					<FieldRef field="x81"/>
				</DerivedField>
			</NeuralInput>
			<NeuralInput id="input/82">
				<DerivedField optype="continuous" dataType="double">
					<FieldRef field="x82"/>
				</DerivedField>
			</NeuralInput>
			<NeuralInput id="input/83">
				<DerivedField optype="continuous" dataType="double">
					<FieldRef field="x83"/>
				</DerivedField>
			</NeuralInput>
			<NeuralInput id="input/84">
				<DerivedField optype="continuous" dataType="double">
					<FieldRef field="x84"/>
				</DerivedField>
			</NeuralInput>
			<NeuralInput id="input/85">
				<DerivedField optype="continuous" dataType="double">
					<FieldRef field="x85"/>
				</DerivedField>
			</NeuralInput>
			<NeuralInput id="input/86">
				<DerivedField optype="continuous" dataType="double">
					<FieldRef field="x86"/>
				</DerivedField>
			</NeuralInput>
			<NeuralInput id="input/87">
				<DerivedField optype="continuous" dataType="double">
					<FieldRef field="x87"/>
				</DerivedField>
			</NeuralInput>
			<NeuralInput id="input/88">
				<DerivedField optype="continuous" dataType="double">
					<FieldRef field="x88"/>
				</DerivedField>
			</NeuralInput>
			<NeuralInput id="input/89">
				<DerivedField optype="continuous" dataType="double">
					<FieldRef field="x89"/>
				</DerivedField>
			</NeuralInput>
			<NeuralInput id="input/90">
				<DerivedField optype="continuous" dataType="double">
					<FieldRef field="x90"/>
				</DerivedField>
			</NeuralInput>
			<NeuralInput id="input/91">
				<DerivedField optype="continuous" dataType="double">
					<FieldRef field="x91"/>
				</DerivedField>
			</NeuralInput>
			<NeuralInput id="input/92">
				<DerivedField optype="continuous" dataType="double">
					<FieldRef field="x92"/>
				</DerivedField>
			</NeuralInput>
			<NeuralInput id="input/93">
				<DerivedField optype="continuous" dataType="double">
					<FieldRef field="x93"/>
				</DerivedField>
			</NeuralInput>
			<NeuralInput id="input/94">
				<DerivedField optype="continuous" dataType="double">
					<FieldRef field="x94"/>
				</DerivedField>
			</NeuralInput>
			<NeuralInput id="input/95">
				<DerivedField optype="continuous" dataType="double">
					<FieldRef field="x95"/>
				</DerivedField>
			</NeuralInput>
			<NeuralInput id="input/96">
				<DerivedField optype="continuous" dataType="double">
					<FieldRef field="x96"/>
				</DerivedField>
			</NeuralInput>
			<NeuralInput id="input/97">
				<DerivedField optype="continuous" dataType="double">
					<FieldRef field="x97"/>
				</DerivedField>
			</NeuralInput>
			<NeuralInput id="input/98">
				<DerivedField optype="continuous" dataType="double">
					<FieldRef field="x98"/>
				</DerivedField>
			</NeuralInput>
			<NeuralInput id="input/99">
				<DerivedField optype="continuous" dataType="double">
					<FieldRef field="x99"/>
				</DerivedField>
			</NeuralInput>
			<NeuralInput id="input/100">
				<DerivedField optype="continuous" dataType="double">
					<FieldRef field="x100"/>
				</DerivedField>
			</NeuralInput>
			<NeuralInput id="input/101">
				<DerivedField optype="continuous" dataType="double">
					<FieldRef field="x101"/>
				</DerivedField>
			</NeuralInput>
			<NeuralInput id="input/102">
				<DerivedField optype="continuous" dataType="double">
					<FieldRef field="x102"/>
				</DerivedField>
			</NeuralInput>
			<NeuralInput id="input/103">
				<DerivedField optype="continuous" dataType="double">
					<FieldRef field="x103"/>
				</DerivedField>
			</NeuralInput>
			<NeuralInput id="input/104">
				<DerivedField optype="continuous" dataType="double">
					<FieldRef field="x104"/>
				</DerivedField>
			</NeuralInput>
			<NeuralInput id="input/105">
				<DerivedField optype="continuous" dataType="double">
					<FieldRef field="x105"/>
				</DerivedField>
			</NeuralInput>
			<NeuralInput id="input/106">
				<DerivedField optype="continuous" dataType="double">
					<FieldRef field="x106"/>
				</DerivedField>
			</NeuralInput>
			<NeuralInput id="input/107">
				<DerivedField optype="continuous" dataType="double">
					<FieldRef field="x107"/>
				</DerivedField>
			</NeuralInput>
			<NeuralInput id="input/108">
				<DerivedField optype="continuous" dataType="double">
					<FieldRef field="x108"/>
				</DerivedField>
			</NeuralInput>
			<NeuralInput id="input/109">
				<DerivedField optype="continuous" dataType="double">
					<FieldRef field="x109"/>
				</DerivedField>
			</NeuralInput>
			<NeuralInput id="input/110">
				<DerivedField optype="continuous" dataType="double">
					<FieldRef field="x110"/>
				</DerivedField>
			</NeuralInput>
			<NeuralInput id="input/111">
				<DerivedField optype="continuous" dataType="double">
					<FieldRef field="x111"/>
				</DerivedField>
			</NeuralInput>
			<NeuralInput id="input/112">
				<DerivedField optype="continuous" dataType="double">
					<FieldRef field="x112"/>
				</DerivedField>
			</NeuralInput>
			<NeuralInput id="input/113">
				<DerivedField optype="continuous" dataType="double">
					<FieldRef field="x113"/>
				</DerivedField>
			</NeuralInput>
			<NeuralInput id="input/114">
				<DerivedField optype="continuous" dataType="double">
					<FieldRef field="x114"/>
				</DerivedField>
			</NeuralInput>
			<NeuralInput id="input/115">
				<DerivedField optype="continuous" dataType="double">
					<FieldRef field="x115"/>
				</DerivedField>
			</NeuralInput>
			<NeuralInput id="input/116">
				<DerivedField optype="continuous" dataType="double">
					<FieldRef field="x116"/>
				</DerivedField>
			</NeuralInput>
			<NeuralInput id="input/117">
				<DerivedField optype="continuous" dataType="double">
					<FieldRef field="x117"/>
				</DerivedField>
			</NeuralInput>
			<NeuralInput id="input/118">
				<DerivedField optype="continuous" dataType="double">
					<FieldRef field="x118"/>
				</DerivedField>
			</NeuralInput>
			<NeuralInput id="input/119">
				<DerivedField optype="continuous" dataType="double">
					<FieldRef field="x119"/>
				</DerivedField>
			</NeuralInput>
			<NeuralInput id="input/120">
				<DerivedField optype="continuous" dataType="double">
					<FieldRef field="x120"/>
				</DerivedField>
			</NeuralInput>
			<NeuralInput id="input/121">
				<DerivedField optype="continuous" dataType="double">
					<FieldRef field="x121"/>
				</DerivedField>
			</NeuralInput>
			<NeuralInput id="input/122">
				<DerivedField optype="continuous" dataType="double">
					<FieldRef field="x122"/>
				</DerivedField>
			</NeuralInput>
			<NeuralInput id="input/123">
				<DerivedField optype="continuous" dataType="double">
					<FieldRef field="x123"/>
				</DerivedField>
			</NeuralInput>
			<NeuralInput id="input/124">
				<DerivedField optype="continuous" dataType="double">
					<FieldRef field="x124"/>
				</DerivedField>
			</NeuralInput>
			<NeuralInput id="input/125">
				<DerivedField optype="continuous" dataType="double">
					<FieldRef field="x125"/>
				</DerivedField>
			</NeuralInput>
			<NeuralInput id="input/126">
				<DerivedField optype="continuous" dataType="double">
					<FieldRef field="x126"/>
				</DerivedField>
			</NeuralInput>
			<NeuralInput id="input/127">
				<DerivedField optype="continuous" dataType="double">
					<FieldRef field="x127"/>
				</DerivedField>
			</NeuralInput>
			<NeuralInput id="input/128">
				<DerivedField optype="continuous" dataType="double">
					<FieldRef field="x128"/>
				</DerivedField>
			</NeuralInput>
			<NeuralInput id="input/129">
				<DerivedField optype="continuous" dataType="double">
					<FieldRef field="x129"/>
				</DerivedField>
			</NeuralInput>
			<NeuralInput id="input/130">
				<DerivedField optype="continuous" dataType="double">
					<FieldRef field="x130"/>
				</DerivedField>
			</NeuralInput>
			<NeuralInput id="input/131">
				<DerivedField optype="continuous" dataType="double">
					<FieldRef field="x131"/>
				</DerivedField>
			</NeuralInput>
			<NeuralInput id="input/132">
				<DerivedField optype="continuous" dataType="double">
					<FieldRef field="x132"/>
				</DerivedField>
			</NeuralInput>
			<NeuralInput id="input/133">
				<DerivedField optype="continuous" dataType="double">
					<FieldRef field="x133"/>
				</DerivedField>
			</NeuralInput>
			<NeuralInput id="input/134">
				<DerivedField optype="continuous" dataType="double">
					<FieldRef field="x134"/>
				</DerivedField>
			</NeuralInput>
			<NeuralInput id="input/135">
				<DerivedField optype="continuous" dataType="double">
					<FieldRef field="x135"/>
				</DerivedField>
			</NeuralInput>
			<NeuralInput id="input/136">
				<DerivedField optype="continuous" dataType="double">
					<FieldRef field="x136"/>
				</DerivedField>
			</NeuralInput>
			<NeuralInput id="input/137">
				<DerivedField optype="continuous" dataType="double">
					<FieldRef field="x137"/>
				</DerivedField>
			</NeuralInput>
			<NeuralInput id="input/138">
				<DerivedField optype="continuous" dataType="double">
					<FieldRef field="x138"/>
				</DerivedField>
			</NeuralInput>
			<NeuralInput id="input/139">
				<DerivedField optype="continuous" dataType="double">
					<FieldRef field="x139"/>
				</DerivedField>
			</NeuralInput>
			<NeuralInput id="input/140">
				<DerivedField optype="continuous" dataType="double">
					<FieldRef field="x140"/>
				</DerivedField>
			</NeuralInput>
			<NeuralInput id="input/141">
				<DerivedField optype="continuous" dataType="double">
					<FieldRef field="x141"/>
				</DerivedField>
			</NeuralInput>
			<NeuralInput id="input/142">
				<DerivedField optype="continuous" dataType="double">
					<FieldRef field="x142"/>
				</DerivedField>
			</NeuralInput>
			<NeuralInput id="input/143">
				<DerivedField optype="continuous" dataType="double">
					<FieldRef field="x143"/>
				</DerivedField>
			</NeuralInput>
			<NeuralInput id="input/144">
				<DerivedField optype="continuous" dataType="double">
					<FieldRef field="x144"/>
				</DerivedField>
			</NeuralInput>
			<NeuralInput id="input/145">
				<DerivedField optype="continuous" dataType="double">
					<FieldRef field="x145"/>
				</DerivedField>
			</NeuralInput>
			<NeuralInput id="input/146">
				<DerivedField optype="continuous" dataType="double">
					<FieldRef field="x146"/>
				</DerivedField>
			</NeuralInput>
			<NeuralInput id="input/147">
				<DerivedField optype="continuous" dataType="double">
					<FieldRef field="x147"/>
				</DerivedField>
			</NeuralInput>
			<NeuralInput id="input/148">
				<DerivedField optype="continuous" dataType="double">
					<FieldRef field="x148"/>
				</DerivedField>
			</NeuralInput>
			<NeuralInput id="input/149">
				<DerivedField optype="continuous" dataType="double">
					<FieldRef field="x149"/>
				</DerivedField>
			</NeuralInput>
			<NeuralInput id="input/150">
				<DerivedField optype="continuous" dataType="double">
					<FieldRef field="x150"/>
				</DerivedField>
			</NeuralInput>
			<NeuralInput id="input/151">
				<DerivedField optype="continuous" dataType="double">
					<FieldRef field="x151"/>
				</DerivedField>
			</NeuralInput>
			<NeuralInput id="input/152">
				<DerivedField optype="continuous" dataType="double">
					<FieldRef field="x152"/>
				</DerivedField>
			</NeuralInput>
			<NeuralInput id="input/153">
				<DerivedField optype="continuous" dataType="double">
					<FieldRef field="x153"/>
				</DerivedField>
			</NeuralInput>
			<NeuralInput id="input/154">
				<DerivedField optype="continuous" dataType="double">
					<FieldRef field="x154"/>
				</DerivedField>
			</NeuralInput>
			<NeuralInput id="input/155">
				<DerivedField optype="continuous" dataType="double">
					<FieldRef field="x155"/>
				</DerivedField>
			</NeuralInput>
			<NeuralInput id="input/156">
				<DerivedField optype="continuous" dataType="double">
					<FieldRef field="x156"/>
				</DerivedField>
			</NeuralInput>
			<NeuralInput id="input/157">
				<DerivedField optype="continuous" dataType="double">
					<FieldRef field="x157"/>
				</DerivedField>
			</NeuralInput>
			<NeuralInput id="input/158">
				<DerivedField optype="continuous" dataType="double">
					<FieldRef field="x158"/>
				</DerivedField>
			</NeuralInput>
			<NeuralInput id="input/159">
				<DerivedField optype="continuous" dataType="double">
					<FieldRef field="x159"/>
				</DerivedField>
			</NeuralInput>
			<NeuralInput id="input/160">
				<DerivedField optype="continuous" dataType="double">
					<FieldRef field="x160"/>
				</DerivedField>
			</NeuralInput>
			<NeuralInput id="input/161">
				<DerivedField optype="continuous" dataType="double">
					<FieldRef field="x161"/>
				</DerivedField>
			</NeuralInput>
			<NeuralInput id="input/162">
				<DerivedField optype="continuous" dataType="double">
					<FieldRef field="x162"/>
				</DerivedField>
			</NeuralInput>
			<NeuralInput id="input/163">
				<DerivedField optype="continuous" dataType="double">
					<FieldRef field="x163"/>
				</DerivedField>
			</NeuralInput>
			<NeuralInput id="input/164">
				<DerivedField optype="continuous" dataType="double">
					<FieldRef field="x164"/>
				</DerivedField>
			</NeuralInput>
			<NeuralInput id="input/165">
				<DerivedField optype="continuous" dataType="double">
					<FieldRef field="x165"/>
				</DerivedField>
			</NeuralInput>
			<NeuralInput id="input/166">
				<DerivedField optype="continuous" dataType="double">
					<FieldRef field="x166"/>
				</DerivedField>
			</NeuralInput>
			<NeuralInput id="input/167">
				<DerivedField optype="continuous" dataType="double">
					<FieldRef field="x167"/>
				</DerivedField>
			</NeuralInput>
			<NeuralInput id="input/168">
				<DerivedField optype="continuous" dataType="double">
					<FieldRef field="x168"/>
				</DerivedField>
			</NeuralInput>
			<NeuralInput id="input/169">
				<DerivedField optype="continuous" dataType="double">
					<FieldRef field="x169"/>
				</DerivedField>
			</NeuralInput>
			<NeuralInput id="input/170">
				<DerivedField optype="continuous" dataType="double">
					<FieldRef field="x170"/>
				</DerivedField>
			</NeuralInput>
			<NeuralInput id="input/171">
				<DerivedField optype="continuous" dataType="double">
					<FieldRef field="x171"/>
				</DerivedField>
			</NeuralInput>
			<NeuralInput id="input/172">
				<DerivedField optype="continuous" dataType="double">
					<FieldRef field="x172"/>
				</DerivedField>
			</NeuralInput>
			<NeuralInput id="input/173">
				<DerivedField optype="continuous" dataType="double">
					<FieldRef field="x173"/>
				</DerivedField>
			</NeuralInput>
			<NeuralInput id="input/174">
				<DerivedField optype="continuous" dataType="double">
					<FieldRef field="x174"/>
				</DerivedField>
			</NeuralInput>
			<NeuralInput id="input/175">
				<DerivedField optype="continuous" dataType="double">
					<FieldRef field="x175"/>
				</DerivedField>
			</NeuralInput>
			<NeuralInput id="input/176">
				<DerivedField optype="continuous" dataType="double">
					<FieldRef field="x176"/>
				</DerivedField>
			</NeuralInput>
			<NeuralInput id="input/177">
				<DerivedField optype="continuous" dataType="double">
					<FieldRef field="x177"/>
				</DerivedField>
			</NeuralInput>
			<NeuralInput id="input/178">
				<DerivedField optype="continuous" dataType="double">
					<FieldRef field="x178"/>
				</DerivedField>
			</NeuralInput>
		</NeuralInputs>
		<NeuralLayer>
			<Neuron id="1/1" bias="0.08132989078714542">
				<Con from="input/1" weight="0.021691572455068298"/>
				<Con from="input/2" weight="0.07312925244023023"/>
				<Con from="input/3" weight="-0.08839227855723736"/>
				<Con from="input/4" weight="-0.07225939344492237"/>
				<Con from="input/5" weight="-0.001038692288060725"/>
				<Con from="input/6" weight="0.058331153126380535"/>
				<Con from="input/7" weight="0.13281570460673753"/>
				<Con from="input/8" weight="0.0028839063661196883"/>
				<Con from="input/9" weight="-0.050278684486799584"/>
				<Con from="input/10" weight="-0.0014895694721542311"/>
				<Con from="input/11" weight="-0.0571089827569825"/>
				<Con from="input/12" weight="0.07357295113270557"/>
				<Con from="input/13" weight="0.07181095162848265"/>
				<Con from="input/14" weight="0.11232200920623882"/>
				<Con from="input/15" weight="-0.042164090738134964"/>
				<Con from="input/16" weight="-0.06183216910431306"/>
				<Con from="input/17" weight="0.06857621049635147"/>
				<Con from="input/18" weight="0.056259429273725146"/>
				<Con from="input/19" weight="-0.06699390950060874"/>
				<Con from="input/20" weight="0.0555176580420198"/>
				<Con from="input/21" weight="0.1084572329660748"/>
				<Con from="input/22" weight="0.21431844636566502"/>
				<Con from="input/23" weight="0.14725485996378013"/>
				<Con from="input/24" weight="0.10511244733534593"/>
				<Con from="input/25" weight="0.0910566128960447"/>
				<Con from="input/26" weight="0.11731002092629407"/>
				<Con from="input/27" weight="0.09762438147473017"/>
				<Con from="input/28" weight="-0.0548428937888636"/>
				<Con from="input/29" weight="-0.011300313090751508"/>
				<Con from="input/30" weight="-0.08670450576005714"/>
				<Con from="input/31" weight="0.08510452508603421"/>
				<Con from="input/32" weight="-0.12155019976325604"/>
				<Con from="input/33" weight="0.034280564730458866"/>
				<Con from="input/34" weight="-0.19836560046207757"/>
				<Con from="input/35" weight="-0.0848444716721497"/>
				<Con from="input/36" weight="0.009099520234310623"/>
				<Con from="input/37" weight="0.09250683419241798"/>
				<Con from="input/38" weight="-0.10690395153262651"/>
				<Con from="input/39" weight="-0.08857714874636799"/>
				<Con from="input/40" weight="0.12349846318438441"/>
				<Con from="input/41" weight="0.15581774040976665"/>
				<Con from="input/42" weight="-0.007122407458002155"/>
				<Con from="input/43" weight="0.18443489856372858"/>
				<Con from="input/44" weight="0.17191677325988253"/>
				<Con from="input/45" weight="0.1017667675122866"/>
				<Con from="input/46" weight="0.17834655796740792"/>
				<Con from="input/47" weight="-0.05057694213487206"/>
				<Con from="input/48" weight="0.112337410839355"/>
				<Con from="input/49" weight="-0.1028160624445389"/>
				<Con from="input/50" weight="0.057367868732206895"/>
				<Con from="input/51" weight="-0.04502493986855865"/>
				<Con from="input/52" weight="-0.043501754732911374"/>
				<Con from="input/53" weight="0.02195435633585834"/>
				<Con from="input/54" weight="-0.018108963761751057"/>
				<Con from="input/55" weight="-0.10449454268763735"/>
				<Con from="input/56" weight="-0.012976017213230044"/>
				<Con from="input/57" weight="0.07351649423068335"/>
				<Con from="input/58" weight="-0.030750373251149807"/>
				<Con from="input/59" weight="-0.0651447474488659"/>
				<Con from="input/60" weight="-0.08512912593431192"/>
				<Con from="input/61" weight="-0.22803653715544095"/>
				<Con from="input/62" weight="0.027163493927321265"/>
				<Con from="input/63" weight="-0.002045152896020278"/>
				<Con from="input/64" weight="0.099204140039461"/>
				<Con from="input/65" weight="-0.03213092387443854"/>
				<Con from="input/66" weight="0.10106879633967301"/>
				<Con from="input/67" weight="-0.008156701717579597"/>
				<Con from="input/68" weight="0.23948446708918034"/>
				<Con from="input/69" weight="0.1982505645948195"/>
				<Con from="input/70" weight="0.1528940613779155"/>
				<Con from="input/71" weight="0.01753716528701728"/>
				<Con from="input/72" weight="0.032151896105001514"/>
				<Con from="input/73" weight="0.04942849100035788"/>
				<Con from="input/74" weight="0.1920173491139072"/>
				<Con from="input/75" weight="0.0616866429087678"/>
				<Con from="input/76" weight="0.08591027299446967"/>
				<Con from="input/77" weight="0.19466943787079458"/>
				<Con from="input/78" weight="0.16717449829680808"/>
				<Con from="input/79" weight="-0.08060293348421589"/>
				<Con from="input/80" weight="-0.07198809014673714"/>
				<Con from="input/81" weight="-0.07389553294424622"/>
				<Con from="input/82" weight="0.04465415068698863"/>
				<Con from="input/83" weight="0.022944856147877547"/>
				<Con from="input/84" weight="-0.11418189439762107"/>
				<Con from="input/85" weight="-0.05384913037794473"/>
				<Con from="input/86" weight="-0.018209866665627513"/>
				<Con from="input/87" weight="-0.09838176765304024"/>
				<Con from="input/88" weight="-0.15448617715409071"/>
				<Con from="input/89" weight="0.10690609925447021"/>
				<Con from="input/90" weight="-0.14024063143217166"/>
				<Con from="input/91" weight="0.10225722777302913"/>
				<Con from="input/92" weight="-0.05567272189854563"/>
				<Con from="input/93" weight="-0.04260902155369816"/>
				<Con from="input/94" weight="0.16815607203485244"/>
				<Con from="input/95" weight="0.19223572752104315"/>
				<Con from="input/96" weight="-0.020808166990705534"/>
				<Con from="input/97" weight="-0.09156527096307301"/>
				<Con from="input/98" weight="0.03957690503062699"/>
				<Con from="input/99" weight="0.03815693488715924"/>
				<Con from="input/100" weight="-0.062155264575665115"/>
				<Con from="input/101" weight="0.04348995286240707"/>
				<Con from="input/102" weight="-0.08022120097919831"/>
				<Con from="input/103" weight="0.05161855869851916"/>
				<Con from="input/104" weight="-0.10302754057086934"/>
				<Con from="input/105" weight="0.09783017495036353"/>
				<Con from="input/106" weight="0.15321051992890877"/>
				<Con from="input/107" weight="0.04167450249491707"/>
				<Con from="input/108" weight="0.19184451708491237"/>
				<Con from="input/109" weight="-0.022523618275469597"/>
				<Con from="input/110" weight="0.2108515968379444"/>
				<Con from="input/111" weight="0.05744524850921563"/>
				<Con from="input/112" weight="0.11538271812890055"/>
				<Con from="input/113" weight="0.09861536554802723"/>
				<Con from="input/114" weight="0.18526971960069058"/>
				<Con from="input/115" weight="0.09801278448529609"/>
				<Con from="input/116" weight="0.19597660322424393"/>
				<Con from="input/117" weight="-0.025839766687457896"/>
				<Con from="input/118" weight="-0.037963032451578706"/>
				<Con from="input/119" weight="-0.006036433408104347"/>
				<Con from="input/120" weight="0.09838999301547428"/>
				<Con from="input/121" weight="0.014224213094442058"/>
				<Con from="input/122" weight="0.0920947898853113"/>
				<Con from="input/123" weight="-0.09164323912892411"/>
				<Con from="input/124" weight="0.07140290739582868"/>
				<Con from="input/125" weight="0.03457303748804386"/>
				<Con from="input/126" weight="0.10925102430029289"/>
				<Con from="input/127" weight="0.1695620250097559"/>
				<Con from="input/128" weight="0.059865862191651874"/>
				<Con from="input/129" weight="0.02418256007259723"/>
				<Con from="input/130" weight="0.1582330021241467"/>
				<Con from="input/131" weight="-0.1293718299823493"/>
				<Con from="input/132" weight="-0.013448688383706171"/>
				<Con from="input/133" weight="-0.013966642221177945"/>
				<Con from="input/134" weight="0.042639258615635285"/>
				<Con from="input/135" weight="0.07511472747149062"/>
				<Con from="input/136" weight="0.14311232689609835"/>
				<Con from="input/137" weight="-0.021833599149454073"/>
				<Con from="input/138" weight="-0.08358553618866192"/>
				<Con from="input/139" weight="0.1871748069643541"/>
				<Con from="input/140" weight="-0.08003363571393905"/>
				<Con from="input/141" weight="0.08485807036073459"/>
				<Con from="input/142" weight="0.2631584454558011"/>
				<Con from="input/143" weight="0.26038665697996466"/>
				<Con from="input/144" weight="-0.04487665638507049"/>
				<Con from="input/145" weight="0.07064588670292436"/>
				<Con from="input/146" weight="-0.08328729893886977"/>
				<Con from="input/147" weight="-0.17348059426692447"/>
				<Con from="input/148" weight="-0.1507243161172803"/>
				<Con from="input/149" weight="-0.13698341836438438"/>
				<Con from="input/150" weight="0.06764216266138379"/>
				<Con from="input/151" weight="0.1368097348965151"/>
				<Con from="input/152" weight="0.08377304094745555"/>
				<Con from="input/153" weight="0.09198282992191055"/>
				<Con from="input/154" weight="0.05803428460733662"/>
				<Con from="input/155" weight="-0.1265378503315333"/>
				<Con from="input/156" weight="0.01111507759602775"/>
				<Con from="input/157" weight="0.1389420133700997"/>
				<Con from="input/158" weight="0.11094888233354026"/>
				<Con from="input/159" weight="-0.024637379925869358"/>
				<Con from="input/160" weight="-0.07247929852193707"/>
				<Con from="input/161" weight="0.0023005606831071734"/>
				<Con from="input/162" weight="0.084451460638737"/>
				<Con from="input/163" weight="-0.01298347037259133"/>
				<Con from="input/164" weight="0.12257906131608004"/>
				<Con from="input/165" weight="-0.06318471849182039"/>
				<Con from="input/166" weight="0.075226100766436"/>
				<Con from="input/167" weight="0.014928739607444279"/>
				<Con from="input/168" weight="-0.07164818894481564"/>
				<Con from="input/169" weight="-0.08830223746921662"/>
				<Con from="input/170" weight="0.17849917554603723"/>
				<Con from="input/171" weight="0.01844243064572751"/>
				<Con from="input/172" weight="-0.03325054067443882"/>
				<Con from="input/173" weight="-0.024996768112128257"/>
				<Con from="input/174" weight="-0.12640814316607943"/>
				<Con from="input/175" weight="-0.0655714266834608"/>
				<Con from="input/176" weight="0.1235032899292922"/>
				<Con from="input/177" weight="0.1020238820679695"/>
				<Con from="input/178" weight="-0.06724266561917203"/>
			</Neuron>
			<Neuron id="1/2" bias="-0.10948715747159994">
				<Con from="input/1" weight="-0.26265962464588044"/>
				<Con from="input/2" weight="-0.207161858277042"/>
				<Con from="input/3" weight="-0.04446792364785544"/>
				<Con from="input/4" weight="-0.18181161738972967"/>
				<Con from="input/5" weight="0.0783294372412353"/>
				<Con from="input/6" weight="-0.05635481970885046"/>
				<Con from="input/7" weight="-0.1357072703572997"/>
				<Con from="input/8" weight="-0.17386233195085718"/>
				<Con from="input/9" weight="-0.0023580023501207662"/>
				<Con from="input/10" weight="0.04982319639732952"/>
				<Con from="input/11" weight="-0.0530007364415763"/>
				<Con from="input/12" weight="0.1015917100896601"/>
				<Con from="input/13" weight="-0.05755419761011943"/>
				<Con from="input/14" weight="-0.07032219633695225"/>
				<Con from="input/15" weight="0.05919858360249569"/>
				<Con from="input/16" weight="-0.012756864288450567"/>
				<Con from="input/17" weight="0.05317981166635307"/>
				<Con from="input/18" weight="0.06357321808588529"/>
				<Con from="input/19" weight="-0.03994951842936829"/>
				<Con from="input/20" weight="0.005027265785111238"/>
				<Con from="input/21" weight="0.024097146675874037"/>
				<Con from="input/22" weight="0.1268490832430061"/>
				<Con from="input/23" weight="0.06874866205943671"/>
				<Con from="input/24" weight="-0.03139995103691859"/>
				<Con from="input/25" weight="0.02418479247087672"/>
				<Con from="input/26" weight="-0.15319498171506649"/>
				<Con from="input/27" weight="-0.020981546608659796"/>
				<Con from="input/28" weight="-0.16282506717647066"/>
				<Con from="input/29" weight="0.07903521008790734"/>
				<Con from="input/30" weight="-0.16763764237442613"/>
				<Con from="input/31" weight="0.03532576371821656"/>
				<Con from="input/32" weight="-0.12246742786330085"/>
				<Con from="input/33" weight="-0.062393383950552536"/>
				<Con from="input/34" weight="-0.17919515919022597"/>
				<Con from="input/35" weight="0.05522091026736226"/>
				<Con from="input/36" weight="-0.12875271728801838"/>
				<Con from="input/37" weight="-0.027803936294402292"/>
				<Con from="input/38" weight="-1.8303523166187896E-4"/>
				<Con from="input/39" weight="0.1062505657814433"/>
				<Con from="input/40" weight="-0.04099217786730447"/>
				<Con from="input/41" weight="0.014026484404859058"/>
				<Con from="input/42" weight="-0.06494835700274233"/>
				<Con from="input/43" weight="-0.0540689581511436"/>
				<Con from="input/44" weight="0.13949286048746254"/>
				<Con from="input/45" weight="-0.1119621724568538"/>
				<Con from="input/46" weight="-0.08513677522505184"/>
				<Con from="input/47" weight="0.03223252385799169"/>
				<Con from="input/48" weight="0.061769183628371166"/>
				<Con from="input/49" weight="0.10699581373480403"/>
				<Con from="input/50" weight="-0.14237384751917712"/>
				<Con from="input/51" weight="-0.04746126675034021"/>
				<Con from="input/52" weight="0.03420441460239016"/>
				<Con from="input/53" weight="-0.11759317168153238"/>
				<Con from="input/54" weight="0.009082942938548463"/>
				<Con from="input/55" weight="0.09208287768943152"/>
				<Con from="input/56" weight="-0.028748104583954447"/>
				<Con from="input/57" weight="-0.08505301465971161"/>
				<Con from="input/58" weight="-0.14282266262191434"/>
				<Con from="input/59" weight="-0.009141361182769531"/>
				<Con from="input/60" weight="-0.21333772594078312"/>
				<Con from="input/61" weight="-0.23073469417708137"/>
				<Con from="input/62" weight="-0.19925581155513664"/>
				<Con from="input/63" weight="-0.21953337472877915"/>
				<Con from="input/64" weight="0.12462673647433448"/>
				<Con from="input/65" weight="-0.02983747797028224"/>
				<Con from="input/66" weight="0.15965553703730231"/>
				<Con from="input/67" weight="0.04284303536878114"/>
				<Con from="input/68" weight="-0.12934954546581345"/>
				<Con from="input/69" weight="-0.09808876338328168"/>
				<Con from="input/70" weight="0.08958449229150608"/>
				<Con from="input/71" weight="0.02476185467774042"/>
				<Con from="input/72" weight="-0.12963025045643484"/>
				<Con from="input/73" weight="-0.01990918421748216"/>
				<Con from="input/74" weight="-0.06577769819160338"/>
				<Con from="input/75" weight="0.12769274436667574"/>
				<Con from="input/76" weight="-0.023464860226188933"/>
				<Con from="input/77" weight="-0.01586780848662494"/>
				<Con from="input/78" weight="0.04748076188755401"/>
				<Con from="input/79" weight="-0.22251521897077126"/>
				<Con from="input/80" weight="0.012122195672988157"/>
				<Con from="input/81" weight="-0.1370073617779061"/>
				<Con from="input/82" weight="0.07677798291682016"/>
				<Con from="input/83" weight="0.0324472299301746"/>
				<Con from="input/84" weight="0.0027960220364567643"/>
				<Con from="input/85" weight="0.2004125912030109"/>
				<Con from="input/86" weight="0.07483653919884539"/>
				<Con from="input/87" weight="-0.07182944582425893"/>
				<Con from="input/88" weight="-0.05586710370113203"/>
				<Con from="input/89" weight="-0.006721933408492488"/>
				<Con from="input/90" weight="-0.0680580164753385"/>
				<Con from="input/91" weight="0.06547573169458978"/>
				<Con from="input/92" weight="-0.14050650959805563"/>
				<Con from="input/93" weight="-0.07757889084771358"/>
				<Con from="input/94" weight="-0.05848648557617652"/>
				<Con from="input/95" weight="-0.06374485163786275"/>
				<Con from="input/96" weight="0.04079694117717475"/>
				<Con from="input/97" weight="-0.16352539790055795"/>
				<Con from="input/98" weight="-0.07803362936539937"/>
				<Con from="input/99" weight="-0.028595991699512137"/>
				<Con from="input/100" weight="-0.06415567546011314"/>
				<Con from="input/101" weight="0.04378147244500653"/>
				<Con from="input/102" weight="0.1165783942291402"/>
				<Con from="input/103" weight="-0.01024632052541973"/>
				<Con from="input/104" weight="-0.17326926389583988"/>
				<Con from="input/105" weight="0.007794468098320539"/>
				<Con from="input/106" weight="-0.05759531389235693"/>
				<Con from="input/107" weight="-0.006334301555286284"/>
				<Con from="input/108" weight="0.10247514933589709"/>
				<Con from="input/109" weight="0.007731809322936364"/>
				<Con from="input/110" weight="-0.04270039450732034"/>
				<Con from="input/111" weight="0.16276781431862336"/>
				<Con from="input/112" weight="0.01661389524667586"/>
				<Con from="input/113" weight="0.0991189872050933"/>
				<Con from="input/114" weight="0.0337553313495775"/>
				<Con from="input/115" weight="-0.09973633839295078"/>
				<Con from="input/116" weight="0.08942845055491074"/>
				<Con from="input/117" weight="-0.04060767809162113"/>
				<Con from="input/118" weight="-0.0497993509981431"/>
				<Con from="input/119" weight="-0.02752425456709476"/>
				<Con from="input/120" weight="-0.09717686119516383"/>
				<Con from="input/121" weight="0.0012886115708750385"/>
				<Con from="input/122" weight="0.18608322873335864"/>
				<Con from="input/123" weight="0.07465827389259357"/>
				<Con from="input/124" weight="-0.05427573127083309"/>
				<Con from="input/125" weight="-0.11443180426517911"/>
				<Con from="input/126" weight="-0.11634949188917486"/>
				<Con from="input/127" weight="-0.1750935388556481"/>
				<Con from="input/128" weight="-0.007973850812127816"/>
				<Con from="input/129" weight="0.07890547086714558"/>
				<Con from="input/130" weight="-0.1289205597944171"/>
				<Con from="input/131" weight="0.07062420707450483"/>
				<Con from="input/132" weight="-0.015298124941107584"/>
				<Con from="input/133" weight="0.033661852655987194"/>
				<Con from="input/134" weight="0.06883747471925213"/>
				<Con from="input/135" weight="0.011644239597204615"/>
				<Con from="input/136" weight="-0.002973975521454968"/>
				<Con from="input/137" weight="0.00798820941109732"/>
				<Con from="input/138" weight="0.1501746772877173"/>
				<Con from="input/139" weight="0.1541180901694415"/>
				<Con from="input/140" weight="0.15081773268030194"/>
				<Con from="input/141" weight="0.0783231382460774"/>
				<Con from="input/142" weight="-0.007121398544929266"/>
				<Con from="input/143" weight="0.04608068050543018"/>
				<Con from="input/144" weight="0.10044009207177929"/>
				<Con from="input/145" weight="0.14496267149828215"/>
				<Con from="input/146" weight="-0.05962528444045062"/>
				<Con from="input/147" weight="0.13604532651299384"/>
				<Con from="input/148" weight="0.16708733136241025"/>
				<Con from="input/149" weight="-0.09966189488482168"/>
				<Con from="input/150" weight="-0.057071025704284455"/>
				<Con from="input/151" weight="0.01900291344117112"/>
				<Con from="input/152" weight="-0.023860181380844264"/>
				<Con from="input/153" weight="-0.07382698194421401"/>
				<Con from="input/154" weight="0.10067063005676556"/>
				<Con from="input/155" weight="0.10750346500100491"/>
				<Con from="input/156" weight="0.01795055014444652"/>
				<Con from="input/157" weight="-0.07024560265355818"/>
				<Con from="input/158" weight="-0.05667635771271993"/>
				<Con from="input/159" weight="0.07226005804674132"/>
				<Con from="input/160" weight="0.03651752868756992"/>
				<Con from="input/161" weight="0.01027995324463723"/>
				<Con from="input/162" weight="-0.045994673795940084"/>
				<Con from="input/163" weight="-0.023735118672373"/>
				<Con from="input/164" weight="0.11708862400205435"/>
				<Con from="input/165" weight="0.039287464483706395"/>
				<Con from="input/166" weight="0.0620601780091162"/>
				<Con from="input/167" weight="0.08232162515904523"/>
				<Con from="input/168" weight="0.1837519670259886"/>
				<Con from="input/169" weight="0.10694888426549738"/>
				<Con from="input/170" weight="0.1436558284305458"/>
				<Con from="input/171" weight="-0.012466954485719738"/>
				<Con from="input/172" weight="0.12664127324456126"/>
				<Con from="input/173" weight="0.005765566066525346"/>
				<Con from="input/174" weight="0.1109940413300151"/>
				<Con from="input/175" weight="0.13741825927486465"/>
				<Con from="input/176" weight="-0.034936805991839695"/>
				<Con from="input/177" weight="0.14537063847729498"/>
				<Con from="input/178" weight="0.09015019269404266"/>
			</Neuron>
			<Neuron id="1/3" bias="-0.02058314868516142">
				<Con from="input/1" weight="0.024218117684190545"/>
				<Con from="input/2" weight="-0.027153161355481084"/>
				<Con from="input/3" weight="0.03855325690577969"/>
				<Con from="input/4" weight="0.021241324050647693"/>
				<Con from="input/5" weight="0.05194601753541789"/>
				<Con from="input/6" weight="-0.004832291772805689"/>
				<Con from="input/7" weight="-0.15507321161307272"/>
				<Con from="input/8" weight="-0.050826172475491524"/>
				<Con from="input/9" weight="0.02438284462106643"/>
				<Con from="input/10" weight="-0.08554964863118916"/>
				<Con from="input/11" weight="0.1285319769577544"/>
				<Con from="input/12" weight="0.07286123017703035"/>
				<Con from="input/13" weight="-0.018060491557232418"/>
				<Con from="input/14" weight="0.09101333521190076"/>
				<Con from="input/15" weight="-0.06571264176915657"/>
				<Con from="input/16" weight="-0.03377827507386844"/>
				<Con from="input/17" weight="0.030144245277442108"/>
				<Con from="input/18" weight="0.07370101430421734"/>
				<Con from="input/19" weight="-0.02520595853233694"/>
				<Con from="input/20" weight="0.08902204570546425"/>
				<Con from="input/21" weight="-0.09999514490606269"/>
				<Con from="input/22" weight="0.0011459961084869545"/>
				<Con from="input/23" weight="-0.06134101561745352"/>
				<Con from="input/24" weight="-0.09437726925455213"/>
				<Con from="input/25" weight="-0.1302195521308613"/>
				<Con from="input/26" weight="-0.025595319402415495"/>
				<Con from="input/27" weight="0.02572783839512562"/>
				<Con from="input/28" weight="8.766338646728727E-4"/>
				<Con from="input/29" weight="-0.13226617851621555"/>
				<Con from="input/30" weight="0.04527938794207995"/>
				<Con from="input/31" weight="-0.143036863681409"/>
				<Con from="input/32" weight="-0.1533114584491271"/>
				<Con from="input/33" weight="-0.16827756091952653"/>
				<Con from="input/34" weight="-0.03549707101804746"/>
				<Con from="input/35" weight="-0.04192313330948474"/>
				<Con from="input/36" weight="0.016091666159774812"/>
				<Con from="input/37" weight="-0.11406021329004327"/>
				<Con from="input/38" weight="-0.08592174103242271"/>
				<Con from="input/39" weight="-0.008840868832107"/>
				<Con from="input/40" weight="0.008105450004892812"/>
				<Con from="input/41" weight="-0.02884712994921433"/>
				<Con from="input/42" weight="-0.09319772518156541"/>
				<Con from="input/43" weight="0.06764058842860529"/>
				<Con from="input/44" weight="0.07663549033636888"/>
				<Con from="input/45" weight="0.12702875760585253"/>
				<Con from="input/46" weight="0.12476234760148176"/>
				<Con from="input/47" weight="0.02089775998447658"/>
				<Con from="input/48" weight="0.10294344661875858"/>
				<Con from="input/49" weight="0.04849220606798028"/>
				<Con from="input/50" weight="-0.11652457617011662"/>
				<Con from="input/51" weight="0.12609538345725493"/>
				<Con from="input/52" weight="0.02743188657928999"/>
				<Con from="input/53" weight="0.09501902307501786"/>
				<Con from="input/54" weight="-0.08642411637292158"/>
				<Con from="input/55" weight="0.1427421991011439"/>
				<Con from="input/56" weight="0.08156659905767558"/>
				<Con from="input/57" weight="0.16930398224132479"/>
				<Con from="input/58" weight="0.18164715736870385"/>
				<Con from="input/59" weight="0.1290403356173454"/>
				<Con from="input/60" weight="0.04857782033335555"/>
				<Con from="input/61" weight="-0.07661763278747917"/>
				<Con from="input/62" weight="-0.19648714026459785"/>
				<Con from="input/63" weight="0.07867312503888037"/>
				<Con from="input/64" weight="-0.09420596187947425"/>
				<Con from="input/65" weight="-0.0035343307727461783"/>
				<Con from="input/66" weight="-0.09749427601233931"/>
				<Con from="input/67" weight="0.11749068954378118"/>
				<Con from="input/68" weight="-0.061256986058967657"/>
				<Con from="input/69" weight="0.16427199922253685"/>
				<Con from="input/70" weight="-0.05785166715971415"/>
				<Con from="input/71" weight="0.06855677110492393"/>
				<Con from="input/72" weight="0.1156253156445255"/>
				<Con from="input/73" weight="-0.009138696636559591"/>
				<Con from="input/74" weight="0.12546943274893252"/>
				<Con from="input/75" weight="0.17663096697497438"/>
				<Con from="input/76" weight="0.13536352360849221"/>
				<Con from="input/77" weight="0.06055108373151383"/>
				<Con from="input/78" weight="0.18898800798816834"/>
				<Con from="input/79" weight="0.1727895569489931"/>
				<Con from="input/80" weight="-0.03153351133654432"/>
				<Con from="input/81" weight="-0.05529760784023604"/>
				<Con from="input/82" weight="-0.07797347892347728"/>
				<Con from="input/83" weight="-0.08859703681303811"/>
				<Con from="input/84" weight="0.055669272013559354"/>
				<Con from="input/85" weight="-0.11333201841619157"/>
				<Con from="input/86" weight="0.05050826535806715"/>
				<Con from="input/87" weight="0.03917097720912383"/>
				<Con from="input/88" weight="0.010763521058745422"/>
				<Con from="input/89" weight="0.05862151492044704"/>
				<Con from="input/90" weight="-0.06402003331076042"/>
				<Con from="input/91" weight="0.0760666668458838"/>
				<Con from="input/92" weight="-0.049119350713786446"/>
				<Con from="input/93" weight="-0.15080569786829348"/>
				<Con from="input/94" weight="-0.2072477404778128"/>
				<Con from="input/95" weight="0.008850335243519704"/>
				<Con from="input/96" weight="-0.13495311849217886"/>
				<Con from="input/97" weight="-0.05225205959044518"/>
				<Con from="input/98" weight="0.12558617937567143"/>
				<Con from="input/99" weight="0.06379375892999985"/>
				<Con from="input/100" weight="-0.024864668301218595"/>
				<Con from="input/101" weight="0.08067540504532329"/>
				<Con from="input/102" weight="0.1015924494069188"/>
				<Con from="input/103" weight="-0.1242884482196591"/>
				<Con from="input/104" weight="-0.05406522832155688"/>
				<Con from="input/105" weight="-0.16684309708787454"/>
				<Con from="input/106" weight="-0.22223442220379444"/>
				<Con from="input/107" weight="0.02561824824186678"/>
				<Con from="input/108" weight="-0.0013425511485828953"/>
				<Con from="input/109" weight="0.06915754598454148"/>
				<Con from="input/110" weight="-0.03726331692861526"/>
				<Con from="input/111" weight="0.08033442779254484"/>
				<Con from="input/112" weight="-0.11578802740957594"/>
				<Con from="input/113" weight="-0.18404024411251807"/>
				<Con from="input/114" weight="0.06506090499032782"/>
				<Con from="input/115" weight="-0.06985463856287019"/>
				<Con from="input/116" weight="0.036493570695096955"/>
				<Con from="input/117" weight="-0.09970580135420551"/>
				<Con from="input/118" weight="0.06788327284530404"/>
				<Con from="input/119" weight="-0.023545822916577013"/>
				<Con from="input/120" weight="-0.028695147178781907"/>
				<Con from="input/121" weight="-0.024358795624859982"/>
				<Con from="input/122" weight="0.1377261683101439"/>
				<Con from="input/123" weight="0.0878083106149529"/>
				<Con from="input/124" weight="-0.09709182595608822"/>
				<Con from="input/125" weight="-0.14933045171661766"/>
				<Con from="input/126" weight="-0.1664656313657485"/>
				<Con from="input/127" weight="0.011084812334398043"/>
				<Con from="input/128" weight="-0.10282385477572525"/>
				<Con from="input/129" weight="-0.0977891265359746"/>
				<Con from="input/130" weight="-0.0964811956624472"/>
				<Con from="input/131" weight="-0.03249857931101579"/>
				<Con from="input/132" weight="-0.007893648089927796"/>
				<Con from="input/133" weight="-0.0954385843103292"/>
				<Con from="input/134" weight="0.039473106250862526"/>
				<Con from="input/135" weight="0.05140413205062932"/>
				<Con from="input/136" weight="-0.05333432310117248"/>
				<Con from="input/137" weight="-0.020454267969430045"/>
				<Con from="input/138" weight="0.009299847997677975"/>
				<Con from="input/139" weight="-0.10353573357173014"/>
				<Con from="input/140" weight="0.007600439051033236"/>
				<Con from="input/141" weight="0.10030102623886683"/>
				<Con from="input/142" weight="0.058573543190252327"/>
				<Con from="input/143" weight="-0.14699070796898658"/>
				<Con from="input/144" weight="-0.20169182512637263"/>
				<Con from="input/145" weight="-0.014045122659712356"/>
				<Con from="input/146" weight="-0.21907364345554012"/>
				<Con from="input/147" weight="-0.05377551806790831"/>
				<Con from="input/148" weight="-0.228788515443667"/>
				<Con from="input/149" weight="-5.356073630557699E-4"/>
				<Con from="input/150" weight="-0.0856290658852212"/>
				<Con from="input/151" weight="-0.09899804650215047"/>
				<Con from="input/152" weight="0.14431490156456975"/>
				<Con from="input/153" weight="-0.1188770475618636"/>
				<Con from="input/154" weight="0.09619889871652428"/>
				<Con from="input/155" weight="0.1894248713115999"/>
				<Con from="input/156" weight="0.22613422399322627"/>
				<Con from="input/157" weight="0.1321133600024703"/>
				<Con from="input/158" weight="0.03644643382099541"/>
				<Con from="input/159" weight="-0.05891963057936224"/>
				<Con from="input/160" weight="0.10301857903578834"/>
				<Con from="input/161" weight="0.0278852066125528"/>
				<Con from="input/162" weight="0.10906459021804225"/>
				<Con from="input/163" weight="-0.03029737247609515"/>
				<Con from="input/164" weight="-0.043221929595222086"/>
				<Con from="input/165" weight="-0.14044842438827795"/>
				<Con from="input/166" weight="0.13225172500002758"/>
				<Con from="input/167" weight="-0.12428996719855548"/>
				<Con from="input/168" weight="0.002825154752701404"/>
				<Con from="input/169" weight="0.06643399427418738"/>
				<Con from="input/170" weight="0.19718172482889737"/>
				<Con from="input/171" weight="-0.03899646706777892"/>
				<Con from="input/172" weight="0.08431699318860317"/>
				<Con from="input/173" weight="-0.029047274010686956"/>
				<Con from="input/174" weight="0.030740504571060798"/>
				<Con from="input/175" weight="-0.013237009072583435"/>
				<Con from="input/176" weight="0.13395438777689492"/>
				<Con from="input/177" weight="0.15861798876962893"/>
				<Con from="input/178" weight="0.05126653096521322"/>
			</Neuron>
			<Neuron id="1/4" bias="0.07532921467088062">
				<Con from="input/1" weight="0.14959057788859112"/>
				<Con from="input/2" weight="0.15234655654803406"/>
				<Con from="input/3" weight="-0.10744986191201616"/>
				<Con from="input/4" weight="0.12149420859297166"/>
				<Con from="input/5" weight="0.08474210540893468"/>
				<Con from="input/6" weight="-0.013389740096574267"/>
				<Con from="input/7" weight="-0.1090181128574684"/>
				<Con from="input/8" weight="0.16116277166571963"/>
				<Con from="input/9" weight="0.15227925681738042"/>
				<Con from="input/10" weight="0.14046670696119185"/>
				<Con from="input/11" weight="-0.05370618399945593"/>
				<Con from="input/12" weight="0.10663693505176393"/>
				<Con from="input/13" weight="-0.01928169525083382"/>
				<Con from="input/14" weight="0.09083224056105331"/>
				<Con from="input/15" weight="0.08618549145736373"/>
				<Con from="input/16" weight="0.08071422469380304"/>
				<Con from="input/17" weight="0.12832174531745147"/>
				<Con from="input/18" weight="-0.06065488513755286"/>
				<Con from="input/19" weight="0.11189506433535235"/>
				<Con from="input/20" weight="0.05070418362862026"/>
				<Con from="input/21" weight="0.05267296219769653"/>
				<Con from="input/22" weight="-0.09404032351147854"/>
				<Con from="input/23" weight="0.060503571780450245"/>
				<Con from="input/24" weight="-0.13378942964226595"/>
				<Con from="input/25" weight="-0.06662893330169492"/>
				<Con from="input/26" weight="-0.025596052180563978"/>
				<Con from="input/27" weight="0.011262913164916358"/>
				<Con from="input/28" weight="-0.22588835243650576"/>
				<Con from="input/29" weight="-0.09330642895550827"/>
				<Con from="input/30" weight="-0.07343322593160001"/>
				<Con from="input/31" weight="-0.11264760926757769"/>
				<Con from="input/32" weight="-0.07557751876209326"/>
				<Con from="input/33" weight="-0.13831436598104288"/>
				<Con from="input/34" weight="0.02711872986473225"/>
				<Con from="input/35" weight="-0.13780135676506491"/>
				<Con from="input/36" weight="-0.005233093563955652"/>
				<Con from="input/37" weight="-0.04271066242785306"/>
				<Con from="input/38" weight="-0.16340592394618672"/>
				<Con from="input/39" weight="3.1297139462456696E-4"/>
				<Con from="input/40" weight="-0.10779521962720971"/>
				<Con from="input/41" weight="-0.11724516314380613"/>
				<Con from="input/42" weight="-0.13006186880713522"/>
				<Con from="input/43" weight="-0.12298479674683023"/>
				<Con from="input/44" weight="0.04652599487837188"/>
				<Con from="input/45" weight="0.10754911475630126"/>
				<Con from="input/46" weight="0.10626726238498115"/>
				<Con from="input/47" weight="0.07384847925431426"/>
				<Con from="input/48" weight="-0.04266973697854778"/>
				<Con from="input/49" weight="-0.08332431079482487"/>
				<Con from="input/50" weight="0.059295334538430035"/>
				<Con from="input/51" weight="0.11132133846676756"/>
				<Con from="input/52" weight="-0.07697651816312048"/>
				<Con from="input/53" weight="-0.09993263364528375"/>
				<Con from="input/54" weight="-0.13867842640901568"/>
				<Con from="input/55" weight="-0.038762154130641484"/>
				<Con from="input/56" weight="-0.144784039477209"/>
				<Con from="input/57" weight="0.0171774095495576"/>
				<Con from="input/58" weight="-0.1188490576989909"/>
				<Con from="input/59" weight="0.03097813480016312"/>
				<Con from="input/60" weight="-0.1544548289618025"/>
				<Con from="input/61" weight="-0.1036992520508263"/>
				<Con from="input/62" weight="0.07941419031204763"/>
				<Con from="input/63" weight="0.007191324468628307"/>
				<Con from="input/64" weight="-0.13049003294642522"/>
				<Con from="input/65" weight="0.0987213840753274"/>
				<Con from="input/66" weight="-0.1496683771803484"/>
				<Con from="input/67" weight="-0.19164086497262706"/>
				<Con from="input/68" weight="0.0972342080432906"/>
				<Con from="input/69" weight="-0.0722661092934003"/>
				<Con from="input/70" weight="-0.08368054606174809"/>
				<Con from="input/71" weight="-0.06101449872991689"/>
				<Con from="input/72" weight="0.010019502556727202"/>
				<Con from="input/73" weight="0.16071957470923126"/>
				<Con from="input/74" weight="0.09275479803470135"/>
				<Con from="input/75" weight="-0.11558429147184905"/>
				<Con from="input/76" weight="-0.057058229466737"/>
				<Con from="input/77" weight="0.03234716704644369"/>
				<Con from="input/78" weight="-0.052612762377728196"/>
				<Con from="input/79" weight="0.029599315326451447"/>
				<Con from="input/80" weight="-0.06758543969801202"/>
				<Con from="input/81" weight="0.13804283551666022"/>
				<Con from="input/82" weight="0.12507832501310284"/>
				<Con from="input/83" weight="-0.0614669034757477"/>
				<Con from="input/84" weight="-0.12421037247206956"/>
				<Con from="input/85" weight="-0.14724300470466228"/>
				<Con from="input/86" weight="0.10871350812540717"/>
				<Con from="input/87" weight="0.04357173838021241"/>
				<Con from="input/88" weight="-0.052902722703777535"/>
				<Con from="input/89" weight="0.009827759646551658"/>
				<Con from="input/90" weight="0.007947124365850378"/>
				<Con from="input/91" weight="-0.03768566522205622"/>
				<Con from="input/92" weight="0.12281141814113007"/>
				<Con from="input/93" weight="0.10986036485876381"/>
				<Con from="input/94" weight="-0.08508947260541247"/>
				<Con from="input/95" weight="-0.13345185205190982"/>
				<Con from="input/96" weight="0.06987683437637902"/>
				<Con from="input/97" weight="-0.14024893062866464"/>
				<Con from="input/98" weight="-0.02107640123376501"/>
				<Con from="input/99" weight="0.08536222851748565"/>
				<Con from="input/100" weight="0.08824423640318943"/>
				<Con from="input/101" weight="-0.10883439667578547"/>
				<Con from="input/102" weight="-0.15758476082163245"/>
				<Con from="input/103" weight="0.08411181810571702"/>
				<Con from="input/104" weight="-0.07503442427176694"/>
				<Con from="input/105" weight="0.11917374345665352"/>
				<Con from="input/106" weight="0.11724691739756347"/>
				<Con from="input/107" weight="-0.18582482208352744"/>
				<Con from="input/108" weight="-0.18162671096389274"/>
				<Con from="input/109" weight="-0.013057967072924986"/>
				<Con from="input/110" weight="-0.1152711763609183"/>
				<Con from="input/111" weight="0.0011944105080302833"/>
				<Con from="input/112" weight="-0.05898129014570123"/>
				<Con from="input/113" weight="-0.0922089546185396"/>
				<Con from="input/114" weight="-0.1415158586525633"/>
				<Con from="input/115" weight="-0.018754629213477713"/>
				<Con from="input/116" weight="-0.04086388553464995"/>
				<Con from="input/117" weight="-0.010509108258954862"/>
				<Con from="input/118" weight="-0.016116005480663744"/>
				<Con from="input/119" weight="-0.04416191623221421"/>
				<Con from="input/120" weight="0.04259191227612042"/>
				<Con from="input/121" weight="0.033125611250417346"/>
				<Con from="input/122" weight="-0.06702807878838121"/>
				<Con from="input/123" weight="-0.1058324445350768"/>
				<Con from="input/124" weight="-0.11707257165097087"/>
				<Con from="input/125" weight="0.05926831443438271"/>
				<Con from="input/126" weight="0.004063447502868504"/>
				<Con from="input/127" weight="0.10126871464316739"/>
				<Con from="input/128" weight="-0.1520957460123287"/>
				<Con from="input/129" weight="-0.15135284791042555"/>
				<Con from="input/130" weight="-0.12233908813051778"/>
				<Con from="input/131" weight="0.0460157415081431"/>
				<Con from="input/132" weight="0.031166018706419003"/>
				<Con from="input/133" weight="-0.16783931251474982"/>
				<Con from="input/134" weight="-0.07328852761510574"/>
				<Con from="input/135" weight="0.06561530312303686"/>
				<Con from="input/136" weight="0.09636928068703106"/>
				<Con from="input/137" weight="0.007153509764126076"/>
				<Con from="input/138" weight="0.06802615822989404"/>
				<Con from="input/139" weight="0.023945483462516598"/>
				<Con from="input/140" weight="0.09384599524341433"/>
				<Con from="input/141" weight="-0.12329300176366108"/>
				<Con from="input/142" weight="-0.08637280752563598"/>
				<Con from="input/143" weight="0.16069449679427752"/>
				<Con from="input/144" weight="0.22041246056015046"/>
				<Con from="input/145" weight="0.034472744471633086"/>
				<Con from="input/146" weight="0.14441343497042244"/>
				<Con from="input/147" weight="0.12491005747714838"/>
				<Con from="input/148" weight="0.21082463446295754"/>
				<Con from="input/149" weight="0.1464013947058078"/>
				<Con from="input/150" weight="-0.16750459683005664"/>
				<Con from="input/151" weight="-0.1833083863488475"/>
				<Con from="input/152" weight="0.08432079576492395"/>
				<Con from="input/153" weight="-0.0013768997380616697"/>
				<Con from="input/154" weight="-0.005565027719932492"/>
				<Con from="input/155" weight="-0.12466134546593725"/>
				<Con from="input/156" weight="-0.06701407623812071"/>
				<Con from="input/157" weight="-0.06179051200451991"/>
				<Con from="input/158" weight="-0.049006657405007974"/>
				<Con from="input/159" weight="-0.07903450485421552"/>
				<Con from="input/160" weight="-0.06424274369937198"/>
				<Con from="input/161" weight="-0.1313267030458042"/>
				<Con from="input/162" weight="0.03591562586799303"/>
				<Con from="input/163" weight="-0.107595887925051"/>
				<Con from="input/164" weight="-0.11981355415109451"/>
				<Con from="input/165" weight="-0.0989107550995401"/>
				<Con from="input/166" weight="-0.07637764474519412"/>
				<Con from="input/167" weight="0.051110859303626285"/>
				<Con from="input/168" weight="0.00585166365648515"/>
				<Con from="input/169" weight="0.08778598096449203"/>
				<Con from="input/170" weight="0.03888008935068175"/>
				<Con from="input/171" weight="0.17038243502470485"/>
				<Con from="input/172" weight="0.060824911322071816"/>
				<Con from="input/173" weight="-0.036829642565301385"/>
				<Con from="input/174" weight="0.0022876271207728704"/>
				<Con from="input/175" weight="0.21596764060821647"/>
				<Con from="input/176" weight="-0.06302890680819621"/>
				<Con from="input/177" weight="-0.09098814276372301"/>
				<Con from="input/178" weight="-0.04775158850302354"/>
			</Neuron>
			<Neuron id="1/5" bias="-0.07790201704341579">
				<Con from="input/1" weight="0.10363968535831936"/>
				<Con from="input/2" weight="-0.067046388620657"/>
				<Con from="input/3" weight="-0.136413781854889"/>
				<Con from="input/4" weight="-0.11423820871404794"/>
				<Con from="input/5" weight="0.021302164414689923"/>
				<Con from="input/6" weight="0.056805267360760275"/>
				<Con from="input/7" weight="-0.06349587361729285"/>
				<Con from="input/8" weight="0.17015746889171826"/>
				<Con from="input/9" weight="-0.06922819947187617"/>
				<Con from="input/10" weight="-0.0806611209199529"/>
				<Con from="input/11" weight="-0.07545391111295237"/>
				<Con from="input/12" weight="0.08750515667087516"/>
				<Con from="input/13" weight="0.0847549475120759"/>
				<Con from="input/14" weight="0.09878064346722376"/>
				<Con from="input/15" weight="-0.11909220871898603"/>
				<Con from="input/16" weight="-0.011009124115248908"/>
				<Con from="input/17" weight="0.1575225296897372"/>
				<Con from="input/18" weight="0.019034288072357314"/>
				<Con from="input/19" weight="0.09397425338169559"/>
				<Con from="input/20" weight="-0.0931400168134744"/>
				<Con from="input/21" weight="0.0992560455823974"/>
				<Con from="input/22" weight="0.12310417028752499"/>
				<Con from="input/23" weight="0.011866224659350435"/>
				<Con from="input/24" weight="0.16082390389809043"/>
				<Con from="input/25" weight="0.07657597444049806"/>
				<Con from="input/26" weight="-0.04525322954614554"/>
				<Con from="input/27" weight="0.024525983855854177"/>
				<Con from="input/28" weight="0.06979136200274023"/>
				<Con from="input/29" weight="0.08625463032242253"/>
				<Con from="input/30" weight="-0.007463534705912753"/>
				<Con from="input/31" weight="-0.15675162287733774"/>
				<Con from="input/32" weight="0.06497035521737193"/>
				<Con from="input/33" weight="-0.01893514478361271"/>
				<Con from="input/34" weight="0.05756520331557216"/>
				<Con from="input/35" weight="0.0998620743903487"/>
				<Con from="input/36" weight="0.0765998323125375"/>
				<Con from="input/37" weight="0.1516539610306339"/>
				<Con from="input/38" weight="0.10192050049711032"/>
				<Con from="input/39" weight="-0.11437538346055577"/>
				<Con from="input/40" weight="-0.15810901424499524"/>
				<Con from="input/41" weight="-0.018265460551164705"/>
				<Con from="input/42" weight="0.003070609041778616"/>
				<Con from="input/43" weight="0.085636685617995"/>
				<Con from="input/44" weight="0.15507612050861536"/>
				<Con from="input/45" weight="0.10989283348306433"/>
				<Con from="input/46" weight="0.1720409062015603"/>
				<Con from="input/47" weight="-0.07166544107089828"/>
				<Con from="input/48" weight="0.09000790743381507"/>
				<Con from="input/49" weight="0.11074711409369342"/>
				<Con from="input/50" weight="0.07196874619957634"/>
				<Con from="input/51" weight="0.03574382448206335"/>
				<Con from="input/52" weight="0.1091260822907952"/>
				<Con from="input/53" weight="0.0023749762630826056"/>
				<Con from="input/54" weight="0.16906317342527832"/>
				<Con from="input/55" weight="-0.0475875747882206"/>
				<Con from="input/56" weight="-0.16271312279837036"/>
				<Con from="input/57" weight="0.08492704739791238"/>
				<Con from="input/58" weight="0.022781578311341533"/>
				<Con from="input/59" weight="0.1763586109250732"/>
				<Con from="input/60" weight="0.027559633098826967"/>
				<Con from="input/61" weight="0.16906599205055772"/>
				<Con from="input/62" weight="0.13484808879838775"/>
				<Con from="input/63" weight="-0.010509743967887026"/>
				<Con from="input/64" weight="-0.02701381871379385"/>
				<Con from="input/65" weight="-0.10438635614233027"/>
				<Con from="input/66" weight="-0.06393210868057157"/>
				<Con from="input/67" weight="-0.1206306533267534"/>
				<Con from="input/68" weight="-0.004173156871348653"/>
				<Con from="input/69" weight="-0.15642075615103948"/>
				<Con from="input/70" weight="-0.03974465236130304"/>
				<Con from="input/71" weight="-0.05454093352214954"/>
				<Con from="input/72" weight="-0.1210826102252155"/>
				<Con from="input/73" weight="-0.14722859945758468"/>
				<Con from="input/74" weight="0.015459405561450833"/>
				<Con from="input/75" weight="0.022251194362242273"/>
				<Con from="input/76" weight="0.05168298751712635"/>
				<Con from="input/77" weight="0.05514176554587275"/>
				<Con from="input/78" weight="0.022864730268722492"/>
				<Con from="input/79" weight="0.13981968723775107"/>
				<Con from="input/80" weight="-0.029659352926479813"/>
				<Con from="input/81" weight="0.009191716151813528"/>
				<Con from="input/82" weight="0.08923472285428326"/>
				<Con from="input/83" weight="0.11356336146495184"/>
				<Con from="input/84" weight="-0.028670707382311336"/>
				<Con from="input/85" weight="0.10765256118304208"/>
				<Con from="input/86" weight="-0.09241052668755849"/>
				<Con from="input/87" weight="-0.057635775495596786"/>
				<Con from="input/88" weight="-0.11885336273579339"/>
				<Con from="input/89" weight="0.1586963244216484"/>
				<Con from="input/90" weight="0.07643443820787896"/>
				<Con from="input/91" weight="-0.04198168272771798"/>
				<Con from="input/92" weight="-0.08129488359732065"/>
				<Con from="input/93" weight="0.14380641657431148"/>
				<Con from="input/94" weight="0.11319593644320072"/>
				<Con from="input/95" weight="0.12879854276183872"/>
				<Con from="input/96" weight="-0.022065037017425935"/>
				<Con from="input/97" weight="0.017701372558211585"/>
				<Con from="input/98" weight="0.15837917632613926"/>
				<Con from="input/99" weight="0.07693283129979406"/>
				<Con from="input/100" weight="-0.11670992319026802"/>
				<Con from="input/101" weight="-0.053590263716239706"/>
				<Con from="input/102" weight="0.021658873243142616"/>
				<Con from="input/103" weight="0.09144922198748053"/>
				<Con from="input/104" weight="-0.06787869071847044"/>
				<Con from="input/105" weight="0.08565072174818629"/>
				<Con from="input/106" weight="0.11790169918316872"/>
				<Con from="input/107" weight="0.05774124064300509"/>
				<Con from="input/108" weight="0.12241947543074734"/>
				<Con from="input/109" weight="-0.06631190744968612"/>
				<Con from="input/110" weight="0.02308549559351657"/>
				<Con from="input/111" weight="0.2129969717141591"/>
				<Con from="input/112" weight="0.21697723019275306"/>
				<Con from="input/113" weight="0.172997428819871"/>
				<Con from="input/114" weight="0.1014761145600246"/>
				<Con from="input/115" weight="0.06328606587907772"/>
				<Con from="input/116" weight="-0.09250325186003386"/>
				<Con from="input/117" weight="-0.02238019427629577"/>
				<Con from="input/118" weight="-0.044657380255618113"/>
				<Con from="input/119" weight="-0.06769387389584669"/>
				<Con from="input/120" weight="0.008191839107319247"/>
				<Con from="input/121" weight="-0.003450401085130433"/>
				<Con from="input/122" weight="0.028836992186661067"/>
				<Con from="input/123" weight="-0.04535342038131046"/>
				<Con from="input/124" weight="-0.07769118355305252"/>
				<Con from="input/125" weight="-0.04751120291080241"/>
				<Con from="input/126" weight="-0.014522330961831646"/>
				<Con from="input/127" weight="-0.09005310583339188"/>
				<Con from="input/128" weight="-0.01611379095792281"/>
				<Con from="input/129" weight="0.011014861016918294"/>
				<Con from="input/130" weight="0.020858107766270652"/>
				<Con from="input/131" weight="-0.07248420745180989"/>
				<Con from="input/132" weight="0.048879467856610334"/>
				<Con from="input/133" weight="0.12481355559490337"/>
				<Con from="input/134" weight="0.03202886457792002"/>
				<Con from="input/135" weight="0.20980142824576573"/>
				<Con from="input/136" weight="0.1652013992445758"/>
				<Con from="input/137" weight="0.019194953927799022"/>
				<Con from="input/138" weight="0.154013215163676"/>
				<Con from="input/139" weight="-0.01679209455804444"/>
				<Con from="input/140" weight="0.1259325469574749"/>
				<Con from="input/141" weight="-0.06196970806746627"/>
				<Con from="input/142" weight="-0.06319150662690783"/>
				<Con from="input/143" weight="0.12358195926744223"/>
				<Con from="input/144" weight="0.04390285472267513"/>
				<Con from="input/145" weight="0.03545962847091622"/>
				<Con from="input/146" weight="0.0059001942413145336"/>
				<Con from="input/147" weight="-0.028511767284261573"/>
				<Con from="input/148" weight="0.17102100924313657"/>
				<Con from="input/149" weight="0.10726062054862508"/>
				<Con from="input/150" weight="0.11607434882532472"/>
				<Con from="input/151" weight="0.002057535138619804"/>
				<Con from="input/152" weight="-0.005861845316553264"/>
				<Con from="input/153" weight="0.14600111679173658"/>
				<Con from="input/154" weight="0.13303801672277388"/>
				<Con from="input/155" weight="-0.07139122243711117"/>
				<Con from="input/156" weight="0.16815514232224188"/>
				<Con from="input/157" weight="0.14617327375856068"/>
				<Con from="input/158" weight="-0.06735404044694829"/>
				<Con from="input/159" weight="0.10946471759422556"/>
				<Con from="input/160" weight="-0.03636311725662948"/>
				<Con from="input/161" weight="-0.051010635717701286"/>
				<Con from="input/162" weight="-0.1184855472353424"/>
				<Con from="input/163" weight="0.059359618208575396"/>
				<Con from="input/164" weight="-0.06864977340695222"/>
				<Con from="input/165" weight="0.13633262109993802"/>
				<Con from="input/166" weight="0.014172104122381561"/>
				<Con from="input/167" weight="0.04871912016524562"/>
				<Con from="input/168" weight="0.10881821597694509"/>
				<Con from="input/169" weight="0.004444635059529286"/>
				<Con from="input/170" weight="0.0970171438811991"/>
				<Con from="input/171" weight="-0.04066449316357734"/>
				<Con from="input/172" weight="0.10159214294239369"/>
				<Con from="input/173" weight="0.21591113306515072"/>
				<Con from="input/174" weight="0.21454338565657496"/>
				<Con from="input/175" weight="0.10373076195646251"/>
				<Con from="input/176" weight="0.1473227085969751"/>
				<Con from="input/177" weight="-0.15026299593561282"/>
				<Con from="input/178" weight="0.014052850036530628"/>
			</Neuron>
			<Neuron id="1/6" bias="0.048240025065822374">
				<Con from="input/1" weight="-0.17754862372499386"/>
				<Con from="input/2" weight="0.05071971970625337"/>
				<Con from="input/3" weight="-0.13390666498422724"/>
				<Con from="input/4" weight="-0.17936572218157998"/>
				<Con from="input/5" weight="0.10421345189679064"/>
				<Con from="input/6" weight="0.08090547055083253"/>
				<Con from="input/7" weight="0.04521997909619773"/>
				<Con from="input/8" weight="0.1150380139531092"/>
				<Con from="input/9" weight="-0.013893289908608933"/>
				<Con from="input/10" weight="0.09226252644838548"/>
				<Con from="input/11" weight="-0.1267684230929096"/>
				<Con from="input/12" weight="-0.005829611788332485"/>
				<Con from="input/13" weight="-0.13188459365825764"/>
				<Con from="input/14" weight="-0.07849640781701371"/>
				<Con from="input/15" weight="0.004358205109586547"/>
				<Con from="input/16" weight="-0.03465287649339814"/>
				<Con from="input/17" weight="-0.008690012602439536"/>
				<Con from="input/18" weight="-0.016921359789312744"/>
				<Con from="input/19" weight="0.05276063016653941"/>
				<Con from="input/20" weight="-0.016355882908264584"/>
				<Con from="input/21" weight="-0.06879881190868883"/>
				<Con from="input/22" weight="0.11684052777923326"/>
				<Con from="input/23" weight="-0.01197534510795678"/>
				<Con from="input/24" weight="-0.023348675522087154"/>
				<Con from="input/25" weight="-0.187114992434529"/>
				<Con from="input/26" weight="-0.18059335389171385"/>
				<Con from="input/27" weight="-0.1543678959703077"/>
				<Con from="input/28" weight="0.002562514000257036"/>
				<Con from="input/29" weight="0.08041627788324707"/>
				<Con from="input/30" weight="0.10143835329195561"/>
				<Con from="input/31" weight="-0.04890383881774762"/>
				<Con from="input/32" weight="0.1120228761861346"/>
				<Con from="input/33" weight="0.0573014242743076"/>
				<Con from="input/34" weight="0.09639022863583593"/>
				<Con from="input/35" weight="-0.10568818339561699"/>
				<Con from="input/36" weight="-0.1300640747668138"/>
				<Con from="input/37" weight="-0.10519909790325813"/>
				<Con from="input/38" weight="-0.05074060299113226"/>
				<Con from="input/39" weight="-0.05159678588211549"/>
				<Con from="input/40" weight="0.09257587139603866"/>
				<Con from="input/41" weight="-0.03984138265349232"/>
				<Con from="input/42" weight="-0.016564273371460773"/>
				<Con from="input/43" weight="0.08670720006561174"/>
				<Con from="input/44" weight="0.007648315274234937"/>
				<Con from="input/45" weight="-0.1446115138673444"/>
				<Con from="input/46" weight="0.0878471706559192"/>
				<Con from="input/47" weight="0.163512151468399"/>
				<Con from="input/48" weight="-0.055668616836419015"/>
				<Con from="input/49" weight="-0.024553423739308536"/>
				<Con from="input/50" weight="-0.0021825341871056086"/>
				<Con from="input/51" weight="-0.10699748988702676"/>
				<Con from="input/52" weight="0.16152955876409691"/>
				<Con from="input/53" weight="0.03711975156711859"/>
				<Con from="input/54" weight="0.04313956503457837"/>
				<Con from="input/55" weight="0.09470585148694205"/>
				<Con from="input/56" weight="-0.034352054776485445"/>
				<Con from="input/57" weight="0.05893524092008879"/>
				<Con from="input/58" weight="0.016796657373707048"/>
				<Con from="input/59" weight="-0.023558221622992346"/>
				<Con from="input/60" weight="0.12879413872774195"/>
				<Con from="input/61" weight="0.10529130655302836"/>
				<Con from="input/62" weight="-0.05252323212892099"/>
				<Con from="input/63" weight="0.12660656139513082"/>
