<?xml version="1.0" encoding="UTF-8" standalone="yes"?>
<PMML xmlns="http://www.dmg.org/PMML-4_4" xmlns:data="http://jpmml.org/jpmml-model/InlineTable" version="4.4">
	<Header>
		<Application name="SkLearn2PMML package" version="0.99.0"/>
		<Timestamp>2023-10-09T10:17:39Z</Timestamp>
	</Header>
	<DataDictionary>
		<DataField name="y" optype="categorical" dataType="integer">
			<Value value="0"/>
			<Value value="1"/>
		</DataField>
		<DataField name="x1" optype="continuous" dataType="double"/>
		<DataField name="x2" optype="continuous" dataType="double"/>
		<DataField name="x3" optype="continuous" dataType="double"/>
		<DataField name="x4" optype="continuous" dataType="double"/>
		<DataField name="x5" optype="continuous" dataType="double"/>
		<DataField name="x6" optype="continuous" dataType="double"/>
		<DataField name="x7" optype="continuous" dataType="double"/>
		<DataField name="x8" optype="continuous" dataType="double"/>
		<DataField name="x9" optype="continuous" dataType="double"/>
		<DataField name="x10" optype="continuous" dataType="double"/>
		<DataField name="x11" optype="continuous" dataType="double"/>
		<DataField name="x12" optype="continuous" dataType="double"/>
		<DataField name="x13" optype="continuous" dataType="double"/>
		<DataField name="x14" optype="continuous" dataType="double"/>
		<DataField name="x15" optype="continuous" dataType="double"/>
		<DataField name="x16" optype="continuous" dataType="double"/>
		<DataField name="x17" optype="continuous" dataType="double"/>
		<DataField name="x18" optype="continuous" dataType="double"/>
		<DataField name="x19" optype="continuous" dataType="double"/>
		<DataField name="x20" optype="continuous" dataType="double"/>
		<DataField name="x21" optype="continuous" dataType="double"/>
		<DataField name="x22" optype="continuous" dataType="double"/>
		<DataField name="x23" optype="continuous" dataType="double"/>
		<DataField name="x24" optype="continuous" dataType="double"/>
		<DataField name="x25" optype="continuous" dataType="double"/>
		<DataField name="x26" optype="continuous" dataType="double"/>
		<DataField name="x27" optype="continuous" dataType="double"/>
		<DataField name="x28" optype="continuous" dataType="double"/>
		<DataField name="x29" optype="continuous" dataType="double"/>
		<DataField name="x30" optype="continuous" dataType="double"/>
		<DataField name="x31" optype="continuous" dataType="double"/>
		<DataField name="x32" optype="continuous" dataType="double"/>
		<DataField name="x33" optype="continuous" dataType="double"/>
		<DataField name="x34" optype="continuous" dataType="double"/>
		<DataField name="x35" optype="continuous" dataType="double"/>
		<DataField name="x36" optype="continuous" dataType="double"/>
		<DataField name="x37" optype="continuous" dataType="double"/>
		<DataField name="x38" optype="continuous" dataType="double"/>
		<DataField name="x39" optype="continuous" dataType="double"/>
		<DataField name="x40" optype="continuous" dataType="double"/>
		<DataField name="x41" optype="continuous" dataType="double"/>
		<DataField name="x42" optype="continuous" dataType="double"/>
		<DataField name="x43" optype="continuous" dataType="double"/>
		<DataField name="x44" optype="continuous" dataType="double"/>
		<DataField name="x45" optype="continuous" dataType="double"/>
		<DataField name="x46" optype="continuous" dataType="double"/>
		<DataField name="x47" optype="continuous" dataType="double"/>
		<DataField name="x48" optype="continuous" dataType="double"/>
		<DataField name="x49" optype="continuous" dataType="double"/>
		<DataField name="x50" optype="continuous" dataType="double"/>
		<DataField name="x51" optype="continuous" dataType="double"/>
		<DataField name="x52" optype="continuous" dataType="double"/>
		<DataField name="x53" optype="continuous" dataType="double"/>
		<DataField name="x54" optype="continuous" dataType="double"/>
		<DataField name="x55" optype="continuous" dataType="double"/>
		<DataField name="x56" optype="continuous" dataType="double"/>
		<DataField name="x57" optype="continuous" dataType="double"/>
		<DataField name="x58" optype="continuous" dataType="double"/>
		<DataField name="x59" optype="continuous" dataType="double"/>
		<DataField name="x60" optype="continuous" dataType="double"/>
		<DataField name="x61" optype="continuous" dataType="double"/>
		<DataField name="x62" optype="continuous" dataType="double"/>
		<DataField name="x63" optype="continuous" dataType="double"/>
		<DataField name="x64" optype="continuous" dataType="double"/>
		<DataField name="x65" optype="continuous" dataType="double"/>
		<DataField name="x66" optype="continuous" dataType="double"/>
		<DataField name="x67" optype="continuous" dataType="double"/>
		<DataField name="x68" optype="continuous" dataType="double"/>
		<DataField name="x69" optype="continuous" dataType="double"/>
		<DataField name="x70" optype="continuous" dataType="double"/>
		<DataField name="x71" optype="continuous" dataType="double"/>
		<DataField name="x72" optype="continuous" dataType="double"/>
		<DataField name="x73" optype="continuous" dataType="double"/>
		<DataField name="x74" optype="continuous" dataType="double"/>
		<DataField name="x75" optype="continuous" dataType="double"/>
		<DataField name="x76" optype="continuous" dataType="double"/>
		<DataField name="x77" optype="continuous" dataType="double"/>
		<DataField name="x78" optype="continuous" dataType="double"/>
		<DataField name="x79" optype="continuous" dataType="double"/>
		<DataField name="x80" optype="continuous" dataType="double"/>
		<DataField name="x81" optype="continuous" dataType="double"/>
		<DataField name="x82" optype="continuous" dataType="double"/>
		<DataField name="x83" optype="continuous" dataType="double"/>
		<DataField name="x84" optype="continuous" dataType="double"/>
		<DataField name="x85" optype="continuous" dataType="double"/>
		<DataField name="x86" optype="continuous" dataType="double"/>
		<DataField name="x87" optype="continuous" dataType="double"/>
		<DataField name="x88" optype="continuous" dataType="double"/>
		<DataField name="x89" optype="continuous" dataType="double"/>
		<DataField name="x90" optype="continuous" dataType="double"/>
		<DataField name="x91" optype="continuous" dataType="double"/>
		<DataField name="x92" optype="continuous" dataType="double"/>
		<DataField name="x93" optype="continuous" dataType="double"/>
		<DataField name="x94" optype="continuous" dataType="double"/>
		<DataField name="x95" optype="continuous" dataType="double"/>
		<DataField name="x96" optype="continuous" dataType="double"/>
		<DataField name="x97" optype="continuous" dataType="double"/>
		<DataField name="x98" optype="continuous" dataType="double"/>
		<DataField name="x99" optype="continuous" dataType="double"/>
		<DataField name="x100" optype="continuous" dataType="double"/>
		<DataField name="x101" optype="continuous" dataType="double"/>
		<DataField name="x102" optype="continuous" dataType="double"/>
		<DataField name="x103" optype="continuous" dataType="double"/>
		<DataField name="x104" optype="continuous" dataType="double"/>
		<DataField name="x105" optype="continuous" dataType="double"/>
		<DataField name="x106" optype="continuous" dataType="double"/>
		<DataField name="x107" optype="continuous" dataType="double"/>
		<DataField name="x108" optype="continuous" dataType="double"/>
		<DataField name="x109" optype="continuous" dataType="double"/>
		<DataField name="x110" optype="continuous" dataType="double"/>
		<DataField name="x111" optype="continuous" dataType="double"/>
		<DataField name="x112" optype="continuous" dataType="double"/>
		<DataField name="x113" optype="continuous" dataType="double"/>
		<DataField name="x114" optype="continuous" dataType="double"/>
		<DataField name="x115" optype="continuous" dataType="double"/>
		<DataField name="x116" optype="continuous" dataType="double"/>
		<DataField name="x117" optype="continuous" dataType="double"/>
		<DataField name="x118" optype="continuous" dataType="double"/>
		<DataField name="x119" optype="continuous" dataType="double"/>
		<DataField name="x120" optype="continuous" dataType="double"/>
		<DataField name="x121" optype="continuous" dataType="double"/>
		<DataField name="x122" optype="continuous" dataType="double"/>
		<DataField name="x123" optype="continuous" dataType="double"/>
		<DataField name="x124" optype="continuous" dataType="double"/>
		<DataField name="x125" optype="continuous" dataType="double"/>
		<DataField name="x126" optype="continuous" dataType="double"/>
		<DataField name="x127" optype="continuous" dataType="double"/>
		<DataField name="x128" optype="continuous" dataType="double"/>
		<DataField name="x129" optype="continuous" dataType="double"/>
		<DataField name="x130" optype="continuous" dataType="double"/>
		<DataField name="x131" optype="continuous" dataType="double"/>
		<DataField name="x132" optype="continuous" dataType="double"/>
		<DataField name="x133" optype="continuous" dataType="double"/>
		<DataField name="x134" optype="continuous" dataType="double"/>
		<DataField name="x135" optype="continuous" dataType="double"/>
		<DataField name="x136" optype="continuous" dataType="double"/>
		<DataField name="x137" optype="continuous" dataType="double"/>
		<DataField name="x138" optype="continuous" dataType="double"/>
		<DataField name="x139" optype="continuous" dataType="double"/>
		<DataField name="x140" optype="continuous" dataType="double"/>
		<DataField name="x141" optype="continuous" dataType="double"/>
		<DataField name="x142" optype="continuous" dataType="double"/>
		<DataField name="x143" optype="continuous" dataType="double"/>
		<DataField name="x144" optype="continuous" dataType="double"/>
		<DataField name="x145" optype="continuous" dataType="double"/>
		<DataField name="x146" optype="continuous" dataType="double"/>
		<DataField name="x147" optype="continuous" dataType="double"/>
		<DataField name="x148" optype="continuous" dataType="double"/>
		<DataField name="x149" optype="continuous" dataType="double"/>
		<DataField name="x150" optype="continuous" dataType="double"/>
		<DataField name="x151" optype="continuous" dataType="double"/>
		<DataField name="x152" optype="continuous" dataType="double"/>
		<DataField name="x153" optype="continuous" dataType="double"/>
		<DataField name="x154" optype="continuous" dataType="double"/>
		<DataField name="x155" optype="continuous" dataType="double"/>
		<DataField name="x156" optype="continuous" dataType="double"/>
		<DataField name="x157" optype="continuous" dataType="double"/>
		<DataField name="x158" optype="continuous" dataType="double"/>
		<DataField name="x159" optype="continuous" dataType="double"/>
		<DataField name="x160" optype="continuous" dataType="double"/>
		<DataField name="x161" optype="continuous" dataType="double"/>
		<DataField name="x162" optype="continuous" dataType="double"/>
		<DataField name="x163" optype="continuous" dataType="double"/>
		<DataField name="x164" optype="continuous" dataType="double"/>
		<DataField name="x165" optype="continuous" dataType="double"/>
		<DataField name="x166" optype="continuous" dataType="double"/>
		<DataField name="x167" optype="continuous" dataType="double"/>
		<DataField name="x168" optype="continuous" dataType="double"/>
		<DataField name="x169" optype="continuous" dataType="double"/>
		<DataField name="x170" optype="continuous" dataType="double"/>
		<DataField name="x171" optype="continuous" dataType="double"/>
		<DataField name="x172" optype="continuous" dataType="double"/>
		<DataField name="x173" optype="continuous" dataType="double"/>
		<DataField name="x174" optype="continuous" dataType="double"/>
		<DataField name="x175" optype="continuous" dataType="double"/>
		<DataField name="x176" optype="continuous" dataType="double"/>
		<DataField name="x177" optype="continuous" dataType="double"/>
		<DataField name="x178" optype="continuous" dataType="double"/>
	</DataDictionary>
	<NeuralNetwork functionName="classification" algorithmName="sklearn.neural_network._multilayer_perceptron.MLPClassifier" activationFunction="tanh">
		<MiningSchema>
			<MiningField name="y" usageType="target"/>
			<MiningField name="x1"/>
			<MiningField name="x2"/>
			<MiningField name="x3"/>
			<MiningField name="x4"/>
			<MiningField name="x5"/>
			<MiningField name="x6"/>
			<MiningField name="x7"/>
			<MiningField name="x8"/>
			<MiningField name="x9"/>
			<MiningField name="x10"/>
			<MiningField name="x11"/>
			<MiningField name="x12"/>
			<MiningField name="x13"/>
			<MiningField name="x14"/>
			<MiningField name="x15"/>
			<MiningField name="x16"/>
			<MiningField name="x17"/>
			<MiningField name="x18"/>
			<MiningField name="x19"/>
			<MiningField name="x20"/>
			<MiningField name="x21"/>
			<MiningField name="x22"/>
			<MiningField name="x23"/>
			<MiningField name="x24"/>
			<MiningField name="x25"/>
			<MiningField name="x26"/>
			<MiningField name="x27"/>
			<MiningField name="x28"/>
			<MiningField name="x29"/>
			<MiningField name="x30"/>
			<MiningField name="x31"/>
			<MiningField name="x32"/>
			<MiningField name="x33"/>
			<MiningField name="x34"/>
			<MiningField name="x35"/>
			<MiningField name="x36"/>
			<MiningField name="x37"/>
			<MiningField name="x38"/>
			<MiningField name="x39"/>
			<MiningField name="x40"/>
			<MiningField name="x41"/>
			<MiningField name="x42"/>
			<MiningField name="x43"/>
			<MiningField name="x44"/>
			<MiningField name="x45"/>
			<MiningField name="x46"/>
			<MiningField name="x47"/>
			<MiningField name="x48"/>
			<MiningField name="x49"/>
			<MiningField name="x50"/>
			<MiningField name="x51"/>
			<MiningField name="x52"/>
			<MiningField name="x53"/>
			<MiningField name="x54"/>
			<MiningField name="x55"/>
			<MiningField name="x56"/>
			<MiningField name="x57"/>
			<MiningField name="x58"/>
			<MiningField name="x59"/>
			<MiningField name="x60"/>
			<MiningField name="x61"/>
			<MiningField name="x62"/>
			<MiningField name="x63"/>
			<MiningField name="x64"/>
			<MiningField name="x65"/>
			<MiningField name="x66"/>
			<MiningField name="x67"/>
			<MiningField name="x68"/>
			<MiningField name="x69"/>
			<MiningField name="x70"/>
			<MiningField name="x71"/>
			<MiningField name="x72"/>
			<MiningField name="x73"/>
			<MiningField name="x74"/>
			<MiningField name="x75"/>
			<MiningField name="x76"/>
			<MiningField name="x77"/>
			<MiningField name="x78"/>
			<MiningField name="x79"/>
			<MiningField name="x80"/>
			<MiningField name="x81"/>
			<MiningField name="x82"/>
			<MiningField name="x83"/>
			<MiningField name="x84"/>
			<MiningField name="x85"/>
			<MiningField name="x86"/>
			<MiningField name="x87"/>
			<MiningField name="x88"/>
			<MiningField name="x89"/>
			<MiningField name="x90"/>
			<MiningField name="x91"/>
			<MiningField name="x92"/>
			<MiningField name="x93"/>
			<MiningField name="x94"/>
			<MiningField name="x95"/>
			<MiningField name="x96"/>
			<MiningField name="x97"/>
			<MiningField name="x98"/>
			<MiningField name="x99"/>
			<MiningField name="x100"/>
			<MiningField name="x101"/>
			<MiningField name="x102"/>
			<MiningField name="x103"/>
			<MiningField name="x104"/>
			<MiningField name="x105"/>
			<MiningField name="x106"/>
			<MiningField name="x107"/>
			<MiningField name="x108"/>
			<MiningField name="x109"/>
			<MiningField name="x110"/>
			<MiningField name="x111"/>
			<MiningField name="x112"/>
			<MiningField name="x113"/>
			<MiningField name="x114"/>
			<MiningField name="x115"/>
			<MiningField name="x116"/>
			<MiningField name="x117"/>
			<MiningField name="x118"/>
			<MiningField name="x119"/>
			<MiningField name="x120"/>
			<MiningField name="x121"/>
			<MiningField name="x122"/>
			<MiningField name="x123"/>
			<MiningField name="x124"/>
			<MiningField name="x125"/>
			<MiningField name="x126"/>
			<MiningField name="x127"/>
			<MiningField name="x128"/>
			<MiningField name="x129"/>
			<MiningField name="x130"/>
			<MiningField name="x131"/>
			<MiningField name="x132"/>
			<MiningField name="x133"/>
			<MiningField name="x134"/>
			<MiningField name="x135"/>
			<MiningField name="x136"/>
			<MiningField name="x137"/>
			<MiningField name="x138"/>
			<MiningField name="x139"/>
			<MiningField name="x140"/>
			<MiningField name="x141"/>
			<MiningField name="x142"/>
			<MiningField name="x143"/>
			<MiningField name="x144"/>
			<MiningField name="x145"/>
			<MiningField name="x146"/>
			<MiningField name="x147"/>
			<MiningField name="x148"/>
			<MiningField name="x149"/>
			<MiningField name="x150"/>
			<MiningField name="x151"/>
			<MiningField name="x152"/>
			<MiningField name="x153"/>
			<MiningField name="x154"/>
			<MiningField name="x155"/>
			<MiningField name="x156"/>
			<MiningField name="x157"/>
			<MiningField name="x158"/>
			<MiningField name="x159"/>
			<MiningField name="x160"/>
			<MiningField name="x161"/>
			<MiningField name="x162"/>
			<MiningField name="x163"/>
			<MiningField name="x164"/>
			<MiningField name="x165"/>
			<MiningField name="x166"/>
			<MiningField name="x167"/>
			<MiningField name="x168"/>
			<MiningField name="x169"/>
			<MiningField name="x170"/>
			<MiningField name="x171"/>
			<MiningField name="x172"/>
			<MiningField name="x173"/>
			<MiningField name="x174"/>
			<MiningField name="x175"/>
			<MiningField name="x176"/>
			<MiningField name="x177"/>
			<MiningField name="x178"/>
		</MiningSchema>
		<Output>
			<OutputField name="probability(0)" optype="continuous" dataType="double" feature="probability" value="0"/>
			<OutputField name="probability(1)" optype="continuous" dataType="double" feature="probability" value="1"/>
		</Output>
		<NeuralInputs>
			<NeuralInput id="input/1">
				<DerivedField optype="continuous" dataType="double">
					<FieldRef field="x1"/>
				</DerivedField>
			</NeuralInput>
			<NeuralInput id="input/2">
				<DerivedField optype="continuous" dataType="double">
					<FieldRef field="x2"/>
				</DerivedField>
			</NeuralInput>
			<NeuralInput id="input/3">
				<DerivedField optype="continuous" dataType="double">
					<FieldRef field="x3"/>
				</DerivedField>
			</NeuralInput>
			<NeuralInput id="input/4">
				<DerivedField optype="continuous" dataType="double">
					<FieldRef field="x4"/>
				</DerivedField>
			</NeuralInput>
			<NeuralInput id="input/5">
				<DerivedField optype="continuous" dataType="double">
					<FieldRef field="x5"/>
				</DerivedField>
			</NeuralInput>
			<NeuralInput id="input/6">
				<DerivedField optype="continuous" dataType="double">
					<FieldRef field="x6"/>
				</DerivedField>
			</NeuralInput>
			<NeuralInput id="input/7">
				<DerivedField optype="continuous" dataType="double">
					<FieldRef field="x7"/>
				</DerivedField>
			</NeuralInput>
			<NeuralInput id="input/8">
				<DerivedField optype="continuous" dataType="double">
					<FieldRef field="x8"/>
				</DerivedField>
			</NeuralInput>
			<NeuralInput id="input/9">
				<DerivedField optype="continuous" dataType="double">
					<FieldRef field="x9"/>
				</DerivedField>
			</NeuralInput>
			<NeuralInput id="input/10">
				<DerivedField optype="continuous" dataType="double">
					<FieldRef field="x10"/>
				</DerivedField>
			</NeuralInput>
			<NeuralInput id="input/11">
				<DerivedField optype="continuous" dataType="double">
					<FieldRef field="x11"/>
				</DerivedField>
			</NeuralInput>
			<NeuralInput id="input/12">
				<DerivedField optype="continuous" dataType="double">
					<FieldRef field="x12"/>
				</DerivedField>
			</NeuralInput>
			<NeuralInput id="input/13">
				<DerivedField optype="continuous" dataType="double">
					<FieldRef field="x13"/>
				</DerivedField>
			</NeuralInput>
			<NeuralInput id="input/14">
				<DerivedField optype="continuous" dataType="double">
					<FieldRef field="x14"/>
				</DerivedField>
			</NeuralInput>
			<NeuralInput id="input/15">
				<DerivedField optype="continuous" dataType="double">
					<FieldRef field="x15"/>
				</DerivedField>
			</NeuralInput>
			<NeuralInput id="input/16">
				<DerivedField optype="continuous" dataType="double">
					<FieldRef field="x16"/>
				</DerivedField>
			</NeuralInput>
			<NeuralInput id="input/17">
				<DerivedField optype="continuous" dataType="double">
					<FieldRef field="x17"/>
				</DerivedField>
			</NeuralInput>
			<NeuralInput id="input/18">
				<DerivedField optype="continuous" dataType="double">
					<FieldRef field="x18"/>
				</DerivedField>
			</NeuralInput>
			<NeuralInput id="input/19">
				<DerivedField optype="continuous" dataType="double">
					<FieldRef field="x19"/>
				</DerivedField>
			</NeuralInput>
			<NeuralInput id="input/20">
				<DerivedField optype="continuous" dataType="double">
					<FieldRef field="x20"/>
				</DerivedField>
			</NeuralInput>
			<NeuralInput id="input/21">
				<DerivedField optype="continuous" dataType="double">
					<FieldRef field="x21"/>
				</DerivedField>
			</NeuralInput>
			<NeuralInput id="input/22">
				<DerivedField optype="continuous" dataType="double">
					<FieldRef field="x22"/>
				</DerivedField>
			</NeuralInput>
			<NeuralInput id="input/23">
				<DerivedField optype="continuous" dataType="double">
					<FieldRef field="x23"/>
				</DerivedField>
			</NeuralInput>
			<NeuralInput id="input/24">
				<DerivedField optype="continuous" dataType="double">
					<FieldRef field="x24"/>
				</DerivedField>
			</NeuralInput>
			<NeuralInput id="input/25">
				<DerivedField optype="continuous" dataType="double">
					<FieldRef field="x25"/>
				</DerivedField>
			</NeuralInput>
			<NeuralInput id="input/26">
				<DerivedField optype="continuous" dataType="double">
					<FieldRef field="x26"/>
				</DerivedField>
			</NeuralInput>
			<NeuralInput id="input/27">
				<DerivedField optype="continuous" dataType="double">
					<FieldRef field="x27"/>
				</DerivedField>
			</NeuralInput>
			<NeuralInput id="input/28">
				<DerivedField optype="continuous" dataType="double">
					<FieldRef field="x28"/>
				</DerivedField>
			</NeuralInput>
			<NeuralInput id="input/29">
				<DerivedField optype="continuous" dataType="double">
					<FieldRef field="x29"/>
				</DerivedField>
			</NeuralInput>
			<NeuralInput id="input/30">
				<DerivedField optype="continuous" dataType="double">
					<FieldRef field="x30"/>
				</DerivedField>
			</NeuralInput>
			<NeuralInput id="input/31">
				<DerivedField optype="continuous" dataType="double">
					<FieldRef field="x31"/>
				</DerivedField>
			</NeuralInput>
			<NeuralInput id="input/32">
				<DerivedField optype="continuous" dataType="double">
					<FieldRef field="x32"/>
				</DerivedField>
			</NeuralInput>
			<NeuralInput id="input/33">
				<DerivedField optype="continuous" dataType="double">
					<FieldRef field="x33"/>
				</DerivedField>
			</NeuralInput>
			<NeuralInput id="input/34">
				<DerivedField optype="continuous" dataType="double">
					<FieldRef field="x34"/>
				</DerivedField>
			</NeuralInput>
			<NeuralInput id="input/35">
				<DerivedField optype="continuous" dataType="double">
					<FieldRef field="x35"/>
				</DerivedField>
			</NeuralInput>
			<NeuralInput id="input/36">
				<DerivedField optype="continuous" dataType="double">
					<FieldRef field="x36"/>
				</DerivedField>
			</NeuralInput>
			<NeuralInput id="input/37">
				<DerivedField optype="continuous" dataType="double">
					<FieldRef field="x37"/>
				</DerivedField>
			</NeuralInput>
			<NeuralInput id="input/38">
				<DerivedField optype="continuous" dataType="double">
					<FieldRef field="x38"/>
				</DerivedField>
			</NeuralInput>
			<NeuralInput id="input/39">
				<DerivedField optype="continuous" dataType="double">
					<FieldRef field="x39"/>
				</DerivedField>
			</NeuralInput>
			<NeuralInput id="input/40">
				<DerivedField optype="continuous" dataType="double">
					<FieldRef field="x40"/>
				</DerivedField>
			</NeuralInput>
			<NeuralInput id="input/41">
				<DerivedField optype="continuous" dataType="double">
					<FieldRef field="x41"/>
				</DerivedField>
			</NeuralInput>
			<NeuralInput id="input/42">
				<DerivedField optype="continuous" dataType="double">
					<FieldRef field="x42"/>
				</DerivedField>
			</NeuralInput>
			<NeuralInput id="input/43">
				<DerivedField optype="continuous" dataType="double">
					<FieldRef field="x43"/>
				</DerivedField>
			</NeuralInput>
			<NeuralInput id="input/44">
				<DerivedField optype="continuous" dataType="double">
					<FieldRef field="x44"/>
				</DerivedField>
			</NeuralInput>
			<NeuralInput id="input/45">
				<DerivedField optype="continuous" dataType="double">
					<FieldRef field="x45"/>
				</DerivedField>
			</NeuralInput>
			<NeuralInput id="input/46">
				<DerivedField optype="continuous" dataType="double">
					<FieldRef field="x46"/>
				</DerivedField>
			</NeuralInput>
			<NeuralInput id="input/47">
				<DerivedField optype="continuous" dataType="double">
					<FieldRef field="x47"/>
				</DerivedField>
			</NeuralInput>
			<NeuralInput id="input/48">
				<DerivedField optype="continuous" dataType="double">
					<FieldRef field="x48"/>
				</DerivedField>
			</NeuralInput>
			<NeuralInput id="input/49">
				<DerivedField optype="continuous" dataType="double">
					<FieldRef field="x49"/>
				</DerivedField>
			</NeuralInput>
			<NeuralInput id="input/50">
				<DerivedField optype="continuous" dataType="double">
					<FieldRef field="x50"/>
				</DerivedField>
			</NeuralInput>
			<NeuralInput id="input/51">
				<DerivedField optype="continuous" dataType="double">
					<FieldRef field="x51"/>
				</DerivedField>
			</NeuralInput>
			<NeuralInput id="input/52">
				<DerivedField optype="continuous" dataType="double">
					<FieldRef field="x52"/>
				</DerivedField>
			</NeuralInput>
			<NeuralInput id="input/53">
				<DerivedField optype="continuous" dataType="double">
					<FieldRef field="x53"/>
				</DerivedField>
			</NeuralInput>
			<NeuralInput id="input/54">
				<DerivedField optype="continuous" dataType="double">
					<FieldRef field="x54"/>
				</DerivedField>
			</NeuralInput>
			<NeuralInput id="input/55">
				<DerivedField optype="continuous" dataType="double">
					<FieldRef field="x55"/>
				</DerivedField>
			</NeuralInput>
			<NeuralInput id="input/56">
				<DerivedField optype="continuous" dataType="double">
					<FieldRef field="x56"/>
				</DerivedField>
			</NeuralInput>
			<NeuralInput id="input/57">
				<DerivedField optype="continuous" dataType="double">
					<FieldRef field="x57"/>
				</DerivedField>
			</NeuralInput>
			<NeuralInput id="input/58">
				<DerivedField optype="continuous" dataType="double">
					<FieldRef field="x58"/>
				</DerivedField>
			</NeuralInput>
			<NeuralInput id="input/59">
				<DerivedField optype="continuous" dataType="double">
					<FieldRef field="x59"/>
				</DerivedField>
			</NeuralInput>
			<NeuralInput id="input/60">
				<DerivedField optype="continuous" dataType="double">
					<FieldRef field="x60"/>
				</DerivedField>
			</NeuralInput>
			<NeuralInput id="input/61">
				<DerivedField optype="continuous" dataType="double">
					<FieldRef field="x61"/>
				</DerivedField>
			</NeuralInput>
			<NeuralInput id="input/62">
				<DerivedField optype="continuous" dataType="double">
					<FieldRef field="x62"/>
				</DerivedField>
			</NeuralInput>
			<NeuralInput id="input/63">
				<DerivedField optype="continuous" dataType="double">
					<FieldRef field="x63"/>
				</DerivedField>
			</NeuralInput>
			<NeuralInput id="input/64">
				<DerivedField optype="continuous" dataType="double">
					<FieldRef field="x64"/>
				</DerivedField>
			</NeuralInput>
			<NeuralInput id="input/65">
				<DerivedField optype="continuous" dataType="double">
					<FieldRef field="x65"/>
				</DerivedField>
			</NeuralInput>
			<NeuralInput id="input/66">
				<DerivedField optype="continuous" dataType="double">
					<FieldRef field="x66"/>
				</DerivedField>
			</NeuralInput>
			<NeuralInput id="input/67">
				<DerivedField optype="continuous" dataType="double">
					<FieldRef field="x67"/>
				</DerivedField>
			</NeuralInput>
			<NeuralInput id="input/68">
				<DerivedField optype="continuous" dataType="double">
					<FieldRef field="x68"/>
				</DerivedField>
			</NeuralInput>
			<NeuralInput id="input/69">
				<DerivedField optype="continuous" dataType="double">
					<FieldRef field="x69"/>
				</DerivedField>
			</NeuralInput>
			<NeuralInput id="input/70">
				<DerivedField optype="continuous" dataType="double">
					<FieldRef field="x70"/>
				</DerivedField>
			</NeuralInput>
			<NeuralInput id="input/71">
				<DerivedField optype="continuous" dataType="double">
					<FieldRef field="x71"/>
				</DerivedField>
			</NeuralInput>
			<NeuralInput id="input/72">
				<DerivedField optype="continuous" dataType="double">
					<FieldRef field="x72"/>
				</DerivedField>
			</NeuralInput>
			<NeuralInput id="input/73">
				<DerivedField optype="continuous" dataType="double">
					<FieldRef field="x73"/>
				</DerivedField>
			</NeuralInput>
			<NeuralInput id="input/74">
				<DerivedField optype="continuous" dataType="double">
					<FieldRef field="x74"/>
				</DerivedField>
			</NeuralInput>
			<NeuralInput id="input/75">
				<DerivedField optype="continuous" dataType="double">
					<FieldRef field="x75"/>
				</DerivedField>
			</NeuralInput>
			<NeuralInput id="input/76">
				<DerivedField optype="continuous" dataType="double">
					<FieldRef field="x76"/>
				</DerivedField>
			</NeuralInput>
			<NeuralInput id="input/77">
				<DerivedField optype="continuous" dataType="double">
					<FieldRef field="x77"/>
				</DerivedField>
			</NeuralInput>
			<NeuralInput id="input/78">
				<DerivedField optype="continuous" dataType="double">
					<FieldRef field="x78"/>
				</DerivedField>
			</NeuralInput>
			<NeuralInput id="input/79">
				<DerivedField optype="continuous" dataType="double">
					<FieldRef field="x79"/>
				</DerivedField>
			</NeuralInput>
			<NeuralInput id="input/80">
				<DerivedField optype="continuous" dataType="double">
					<FieldRef field="x80"/>
				</DerivedField>
			</NeuralInput>
			<NeuralInput id="input/81">
				<DerivedField optype="continuous" dataType="double">
					<FieldRef field="x81"/>
				</DerivedField>
			</NeuralInput>
			<NeuralInput id="input/82">
				<DerivedField optype="continuous" dataType="double">
					<FieldRef field="x82"/>
				</DerivedField>
			</NeuralInput>
			<NeuralInput id="input/83">
				<DerivedField optype="continuous" dataType="double">
					<FieldRef field="x83"/>
				</DerivedField>
			</NeuralInput>
			<NeuralInput id="input/84">
				<DerivedField optype="continuous" dataType="double">
					<FieldRef field="x84"/>
				</DerivedField>
			</NeuralInput>
			<NeuralInput id="input/85">
				<DerivedField optype="continuous" dataType="double">
					<FieldRef field="x85"/>
				</DerivedField>
			</NeuralInput>
			<NeuralInput id="input/86">
				<DerivedField optype="continuous" dataType="double">
					<FieldRef field="x86"/>
				</DerivedField>
			</NeuralInput>
			<NeuralInput id="input/87">
				<DerivedField optype="continuous" dataType="double">
					<FieldRef field="x87"/>
				</DerivedField>
			</NeuralInput>
			<NeuralInput id="input/88">
				<DerivedField optype="continuous" dataType="double">
					<FieldRef field="x88"/>
				</DerivedField>
			</NeuralInput>
			<NeuralInput id="input/89">
				<DerivedField optype="continuous" dataType="double">
					<FieldRef field="x89"/>
				</DerivedField>
			</NeuralInput>
			<NeuralInput id="input/90">
				<DerivedField optype="continuous" dataType="double">
					<FieldRef field="x90"/>
				</DerivedField>
			</NeuralInput>
			<NeuralInput id="input/91">
				<DerivedField optype="continuous" dataType="double">
					<FieldRef field="x91"/>
				</DerivedField>
			</NeuralInput>
			<NeuralInput id="input/92">
				<DerivedField optype="continuous" dataType="double">
					<FieldRef field="x92"/>
				</DerivedField>
			</NeuralInput>
			<NeuralInput id="input/93">
				<DerivedField optype="continuous" dataType="double">
					<FieldRef field="x93"/>
				</DerivedField>
			</NeuralInput>
			<NeuralInput id="input/94">
				<DerivedField optype="continuous" dataType="double">
					<FieldRef field="x94"/>
				</DerivedField>
			</NeuralInput>
			<NeuralInput id="input/95">
				<DerivedField optype="continuous" dataType="double">
					<FieldRef field="x95"/>
				</DerivedField>
			</NeuralInput>
			<NeuralInput id="input/96">
				<DerivedField optype="continuous" dataType="double">
					<FieldRef field="x96"/>
				</DerivedField>
			</NeuralInput>
			<NeuralInput id="input/97">
				<DerivedField optype="continuous" dataType="double">
					<FieldRef field="x97"/>
				</DerivedField>
			</NeuralInput>
			<NeuralInput id="input/98">
				<DerivedField optype="continuous" dataType="double">
					<FieldRef field="x98"/>
				</DerivedField>
			</NeuralInput>
			<NeuralInput id="input/99">
				<DerivedField optype="continuous" dataType="double">
					<FieldRef field="x99"/>
				</DerivedField>
			</NeuralInput>
			<NeuralInput id="input/100">
				<DerivedField optype="continuous" dataType="double">
					<FieldRef field="x100"/>
				</DerivedField>
			</NeuralInput>
			<NeuralInput id="input/101">
				<DerivedField optype="continuous" dataType="double">
					<FieldRef field="x101"/>
				</DerivedField>
			</NeuralInput>
			<NeuralInput id="input/102">
				<DerivedField optype="continuous" dataType="double">
					<FieldRef field="x102"/>
				</DerivedField>
			</NeuralInput>
			<NeuralInput id="input/103">
				<DerivedField optype="continuous" dataType="double">
					<FieldRef field="x103"/>
				</DerivedField>
			</NeuralInput>
			<NeuralInput id="input/104">
				<DerivedField optype="continuous" dataType="double">
					<FieldRef field="x104"/>
				</DerivedField>
			</NeuralInput>
			<NeuralInput id="input/105">
				<DerivedField optype="continuous" dataType="double">
					<FieldRef field="x105"/>
				</DerivedField>
			</NeuralInput>
			<NeuralInput id="input/106">
				<DerivedField optype="continuous" dataType="double">
					<FieldRef field="x106"/>
				</DerivedField>
			</NeuralInput>
			<NeuralInput id="input/107">
				<DerivedField optype="continuous" dataType="double">
					<FieldRef field="x107"/>
				</DerivedField>
			</NeuralInput>
			<NeuralInput id="input/108">
				<DerivedField optype="continuous" dataType="double">
					<FieldRef field="x108"/>
				</DerivedField>
			</NeuralInput>
			<NeuralInput id="input/109">
				<DerivedField optype="continuous" dataType="double">
					<FieldRef field="x109"/>
				</DerivedField>
			</NeuralInput>
			<NeuralInput id="input/110">
				<DerivedField optype="continuous" dataType="double">
					<FieldRef field="x110"/>
				</DerivedField>
			</NeuralInput>
			<NeuralInput id="input/111">
				<DerivedField optype="continuous" dataType="double">
					<FieldRef field="x111"/>
				</DerivedField>
			</NeuralInput>
			<NeuralInput id="input/112">
				<DerivedField optype="continuous" dataType="double">
					<FieldRef field="x112"/>
				</DerivedField>
			</NeuralInput>
			<NeuralInput id="input/113">
				<DerivedField optype="continuous" dataType="double">
					<FieldRef field="x113"/>
				</DerivedField>
			</NeuralInput>
			<NeuralInput id="input/114">
				<DerivedField optype="continuous" dataType="double">
					<FieldRef field="x114"/>
				</DerivedField>
			</NeuralInput>
			<NeuralInput id="input/115">
				<DerivedField optype="continuous" dataType="double">
					<FieldRef field="x115"/>
				</DerivedField>
			</NeuralInput>
			<NeuralInput id="input/116">
				<DerivedField optype="continuous" dataType="double">
					<FieldRef field="x116"/>
				</DerivedField>
			</NeuralInput>
			<NeuralInput id="input/117">
				<DerivedField optype="continuous" dataType="double">
					<FieldRef field="x117"/>
				</DerivedField>
			</NeuralInput>
			<NeuralInput id="input/118">
				<DerivedField optype="continuous" dataType="double">
					<FieldRef field="x118"/>
				</DerivedField>
			</NeuralInput>
			<NeuralInput id="input/119">
				<DerivedField optype="continuous" dataType="double">
					<FieldRef field="x119"/>
				</DerivedField>
			</NeuralInput>
			<NeuralInput id="input/120">
				<DerivedField optype="continuous" dataType="double">
					<FieldRef field="x120"/>
				</DerivedField>
			</NeuralInput>
			<NeuralInput id="input/121">
				<DerivedField optype="continuous" dataType="double">
					<FieldRef field="x121"/>
				</DerivedField>
			</NeuralInput>
			<NeuralInput id="input/122">
				<DerivedField optype="continuous" dataType="double">
					<FieldRef field="x122"/>
				</DerivedField>
			</NeuralInput>
			<NeuralInput id="input/123">
				<DerivedField optype="continuous" dataType="double">
					<FieldRef field="x123"/>
				</DerivedField>
			</NeuralInput>
			<NeuralInput id="input/124">
				<DerivedField optype="continuous" dataType="double">
					<FieldRef field="x124"/>
				</DerivedField>
			</NeuralInput>
			<NeuralInput id="input/125">
				<DerivedField optype="continuous" dataType="double">
					<FieldRef field="x125"/>
				</DerivedField>
			</NeuralInput>
			<NeuralInput id="input/126">
				<DerivedField optype="continuous" dataType="double">
					<FieldRef field="x126"/>
				</DerivedField>
			</NeuralInput>
			<NeuralInput id="input/127">
				<DerivedField optype="continuous" dataType="double">
					<FieldRef field="x127"/>
				</DerivedField>
			</NeuralInput>
			<NeuralInput id="input/128">
				<DerivedField optype="continuous" dataType="double">
					<FieldRef field="x128"/>
				</DerivedField>
			</NeuralInput>
			<NeuralInput id="input/129">
				<DerivedField optype="continuous" dataType="double">
					<FieldRef field="x129"/>
				</DerivedField>
			</NeuralInput>
			<NeuralInput id="input/130">
				<DerivedField optype="continuous" dataType="double">
					<FieldRef field="x130"/>
				</DerivedField>
			</NeuralInput>
			<NeuralInput id="input/131">
				<DerivedField optype="continuous" dataType="double">
					<FieldRef field="x131"/>
				</DerivedField>
			</NeuralInput>
			<NeuralInput id="input/132">
				<DerivedField optype="continuous" dataType="double">
					<FieldRef field="x132"/>
				</DerivedField>
			</NeuralInput>
			<NeuralInput id="input/133">
				<DerivedField optype="continuous" dataType="double">
					<FieldRef field="x133"/>
				</DerivedField>
			</NeuralInput>
			<NeuralInput id="input/134">
				<DerivedField optype="continuous" dataType="double">
					<FieldRef field="x134"/>
				</DerivedField>
			</NeuralInput>
			<NeuralInput id="input/135">
				<DerivedField optype="continuous" dataType="double">
					<FieldRef field="x135"/>
				</DerivedField>
			</NeuralInput>
			<NeuralInput id="input/136">
				<DerivedField optype="continuous" dataType="double">
					<FieldRef field="x136"/>
				</DerivedField>
			</NeuralInput>
			<NeuralInput id="input/137">
				<DerivedField optype="continuous" dataType="double">
					<FieldRef field="x137"/>
				</DerivedField>
			</NeuralInput>
			<NeuralInput id="input/138">
				<DerivedField optype="continuous" dataType="double">
					<FieldRef field="x138"/>
				</DerivedField>
			</NeuralInput>
			<NeuralInput id="input/139">
				<DerivedField optype="continuous" dataType="double">
					<FieldRef field="x139"/>
				</DerivedField>
			</NeuralInput>
			<NeuralInput id="input/140">
				<DerivedField optype="continuous" dataType="double">
					<FieldRef field="x140"/>
				</DerivedField>
			</NeuralInput>
			<NeuralInput id="input/141">
				<DerivedField optype="continuous" dataType="double">
					<FieldRef field="x141"/>
				</DerivedField>
			</NeuralInput>
			<NeuralInput id="input/142">
				<DerivedField optype="continuous" dataType="double">
					<FieldRef field="x142"/>
				</DerivedField>
			</NeuralInput>
			<NeuralInput id="input/143">
				<DerivedField optype="continuous" dataType="double">
					<FieldRef field="x143"/>
				</DerivedField>
			</NeuralInput>
			<NeuralInput id="input/144">
				<DerivedField optype="continuous" dataType="double">
					<FieldRef field="x144"/>
				</DerivedField>
			</NeuralInput>
			<NeuralInput id="input/145">
				<DerivedField optype="continuous" dataType="double">
					<FieldRef field="x145"/>
				</DerivedField>
			</NeuralInput>
			<NeuralInput id="input/146">
				<DerivedField optype="continuous" dataType="double">
					<FieldRef field="x146"/>
				</DerivedField>
			</NeuralInput>
			<NeuralInput id="input/147">
				<DerivedField optype="continuous" dataType="double">
					<FieldRef field="x147"/>
				</DerivedField>
			</NeuralInput>
			<NeuralInput id="input/148">
				<DerivedField optype="continuous" dataType="double">
					<FieldRef field="x148"/>
				</DerivedField>
			</NeuralInput>
			<NeuralInput id="input/149">
				<DerivedField optype="continuous" dataType="double">
					<FieldRef field="x149"/>
				</DerivedField>
			</NeuralInput>
			<NeuralInput id="input/150">
				<DerivedField optype="continuous" dataType="double">
					<FieldRef field="x150"/>
				</DerivedField>
			</NeuralInput>
			<NeuralInput id="input/151">
				<DerivedField optype="continuous" dataType="double">
					<FieldRef field="x151"/>
				</DerivedField>
			</NeuralInput>
			<NeuralInput id="input/152">
				<DerivedField optype="continuous" dataType="double">
					<FieldRef field="x152"/>
				</DerivedField>
			</NeuralInput>
			<NeuralInput id="input/153">
				<DerivedField optype="continuous" dataType="double">
					<FieldRef field="x153"/>
				</DerivedField>
			</NeuralInput>
			<NeuralInput id="input/154">
				<DerivedField optype="continuous" dataType="double">
					<FieldRef field="x154"/>
				</DerivedField>
			</NeuralInput>
			<NeuralInput id="input/155">
				<DerivedField optype="continuous" dataType="double">
					<FieldRef field="x155"/>
				</DerivedField>
			</NeuralInput>
			<NeuralInput id="input/156">
				<DerivedField optype="continuous" dataType="double">
					<FieldRef field="x156"/>
				</DerivedField>
			</NeuralInput>
			<NeuralInput id="input/157">
				<DerivedField optype="continuous" dataType="double">
					<FieldRef field="x157"/>
				</DerivedField>
			</NeuralInput>
			<NeuralInput id="input/158">
				<DerivedField optype="continuous" dataType="double">
					<FieldRef field="x158"/>
				</DerivedField>
			</NeuralInput>
			<NeuralInput id="input/159">
				<DerivedField optype="continuous" dataType="double">
					<FieldRef field="x159"/>
				</DerivedField>
			</NeuralInput>
			<NeuralInput id="input/160">
				<DerivedField optype="continuous" dataType="double">
					<FieldRef field="x160"/>
				</DerivedField>
			</NeuralInput>
			<NeuralInput id="input/161">
				<DerivedField optype="continuous" dataType="double">
					<FieldRef field="x161"/>
				</DerivedField>
			</NeuralInput>
			<NeuralInput id="input/162">
				<DerivedField optype="continuous" dataType="double">
					<FieldRef field="x162"/>
				</DerivedField>
			</NeuralInput>
			<NeuralInput id="input/163">
				<DerivedField optype="continuous" dataType="double">
					<FieldRef field="x163"/>
				</DerivedField>
			</NeuralInput>
			<NeuralInput id="input/164">
				<DerivedField optype="continuous" dataType="double">
					<FieldRef field="x164"/>
				</DerivedField>
			</NeuralInput>
			<NeuralInput id="input/165">
				<DerivedField optype="continuous" dataType="double">
					<FieldRef field="x165"/>
				</DerivedField>
			</NeuralInput>
			<NeuralInput id="input/166">
				<DerivedField optype="continuous" dataType="double">
					<FieldRef field="x166"/>
				</DerivedField>
			</NeuralInput>
			<NeuralInput id="input/167">
				<DerivedField optype="continuous" dataType="double">
					<FieldRef field="x167"/>
				</DerivedField>
			</NeuralInput>
			<NeuralInput id="input/168">
				<DerivedField optype="continuous" dataType="double">
					<FieldRef field="x168"/>
				</DerivedField>
			</NeuralInput>
			<NeuralInput id="input/169">
				<DerivedField optype="continuous" dataType="double">
					<FieldRef field="x169"/>
				</DerivedField>
			</NeuralInput>
			<NeuralInput id="input/170">
				<DerivedField optype="continuous" dataType="double">
					<FieldRef field="x170"/>
				</DerivedField>
			</NeuralInput>
			<NeuralInput id="input/171">
				<DerivedField optype="continuous" dataType="double">
					<FieldRef field="x171"/>
				</DerivedField>
			</NeuralInput>
			<NeuralInput id="input/172">
				<DerivedField optype="continuous" dataType="double">
					<FieldRef field="x172"/>
				</DerivedField>
			</NeuralInput>
			<NeuralInput id="input/173">
				<DerivedField optype="continuous" dataType="double">
					<FieldRef field="x173"/>
				</DerivedField>
			</NeuralInput>
			<NeuralInput id="input/174">
				<DerivedField optype="continuous" dataType="double">
					<FieldRef field="x174"/>
				</DerivedField>
			</NeuralInput>
			<NeuralInput id="input/175">
				<DerivedField optype="continuous" dataType="double">
					<FieldRef field="x175"/>
				</DerivedField>
			</NeuralInput>
			<NeuralInput id="input/176">
				<DerivedField optype="continuous" dataType="double">
					<FieldRef field="x176"/>
				</DerivedField>
			</NeuralInput>
			<NeuralInput id="input/177">
				<DerivedField optype="continuous" dataType="double">
					<FieldRef field="x177"/>
				</DerivedField>
			</NeuralInput>
			<NeuralInput id="input/178">
				<DerivedField optype="continuous" dataType="double">
					<FieldRef field="x178"/>
				</DerivedField>
			</NeuralInput>
		</NeuralInputs>
		<NeuralLayer>
			<Neuron id="1/1" bias="0.09073165316482464">
				<Con from="input/1" weight="0.18692786170312597"/>
				<Con from="input/2" weight="-0.01914437442214597"/>
				<Con from="input/3" weight="0.2398258805974577"/>
				<Con from="input/4" weight="0.05470268576355912"/>
				<Con from="input/5" weight="0.16789681846844487"/>
				<Con from="input/6" weight="-0.11734024240980785"/>
				<Con from="input/7" weight="-0.09150710128185759"/>
				<Con from="input/8" weight="0.06818154110526187"/>
				<Con from="input/9" weight="-0.003365332488124156"/>
				<Con from="input/10" weight="-0.008084012401252318"/>
				<Con from="input/11" weight="-0.018681665849874483"/>
				<Con from="input/12" weight="-0.0791624737446361"/>
				<Con from="input/13" weight="0.14612212519161585"/>
				<Con from="input/14" weight="0.06997288295450935"/>
				<Con from="input/15" weight="-0.02638790608250962"/>
				<Con from="input/16" weight="-0.04143291736753915"/>
				<Con from="input/17" weight="-0.027884448041867294"/>
				<Con from="input/18" weight="0.0853490792320243"/>
				<Con from="input/19" weight="0.038823447603963605"/>
				<Con from="input/20" weight="-0.044239947606867"/>
				<Con from="input/21" weight="-0.08707075616358018"/>
				<Con from="input/22" weight="-0.11238105248410149"/>
				<Con from="input/23" weight="-0.10895491624051917"/>
				<Con from="input/24" weight="0.17484509288701255"/>
				<Con from="input/25" weight="-0.07087124945307818"/>
				<Con from="input/26" weight="0.16802052103040813"/>
				<Con from="input/27" weight="0.22128291447805656"/>
				<Con from="input/28" weight="-0.015741547330122712"/>
				<Con from="input/29" weight="0.10464522149792958"/>
				<Con from="input/30" weight="0.2176407977585159"/>
				<Con from="input/31" weight="0.18099319741894165"/>
				<Con from="input/32" weight="-0.07730476896494247"/>
				<Con from="input/33" weight="0.10682665114563111"/>
				<Con from="input/34" weight="-0.03793440228974567"/>
				<Con from="input/35" weight="-0.1113939154774693"/>
				<Con from="input/36" weight="-0.07368576792600263"/>
				<Con from="input/37" weight="0.10481590024081552"/>
				<Con from="input/38" weight="-0.14305362712114197"/>
				<Con from="input/39" weight="-0.01354721007609378"/>
				<Con from="input/40" weight="-0.02912177553499602"/>
				<Con from="input/41" weight="-0.1702461203973963"/>
				<Con from="input/42" weight="0.06484413743042025"/>
				<Con from="input/43" weight="0.08231627282535615"/>
				<Con from="input/44" weight="-0.09132637153527356"/>
				<Con from="input/45" weight="0.08731180951629397"/>
				<Con from="input/46" weight="-0.13606152776867156"/>
				<Con from="input/47" weight="0.03057708803951135"/>
				<Con from="input/48" weight="0.04340630848960902"/>
				<Con from="input/49" weight="0.10485417997024528"/>
				<Con from="input/50" weight="7.135226284790916E-4"/>
				<Con from="input/51" weight="0.1523490914188417"/>
				<Con from="input/52" weight="-0.12396310623406462"/>
				<Con from="input/53" weight="-0.036736957151535875"/>
				<Con from="input/54" weight="0.12122800946839668"/>
				<Con from="input/55" weight="0.07611749113925265"/>
				<Con from="input/56" weight="0.24150324775759918"/>
				<Con from="input/57" weight="0.14841665391694278"/>
				<Con from="input/58" weight="0.19248148020983163"/>
				<Con from="input/59" weight="0.22035438090893858"/>
				<Con from="input/60" weight="-0.05538193638067627"/>
				<Con from="input/61" weight="-0.010903294845059157"/>
				<Con from="input/62" weight="0.15036609428114087"/>
				<Con from="input/63" weight="-0.001377726692693674"/>
				<Con from="input/64" weight="-0.00656981983839381"/>
				<Con from="input/65" weight="0.11508994354190608"/>
				<Con from="input/66" weight="0.0811910333230778"/>
				<Con from="input/67" weight="0.078492759626018"/>
				<Con from="input/68" weight="0.013815297621697288"/>
				<Con from="input/69" weight="0.1301972620532222"/>
				<Con from="input/70" weight="0.126326240948905"/>
				<Con from="input/71" weight="-0.042460503852839684"/>
				<Con from="input/72" weight="0.11484576960382646"/>
				<Con from="input/73" weight="-0.1047406041122439"/>
				<Con from="input/74" weight="0.016252948999308948"/>
				<Con from="input/75" weight="-0.04349454807833272"/>
				<Con from="input/76" weight="0.028039028299287047"/>
				<Con from="input/77" weight="-0.16402055818875866"/>
				<Con from="input/78" weight="-0.03866308225404282"/>
				<Con from="input/79" weight="-0.021831281874337766"/>
				<Con from="input/80" weight="0.023186343942087427"/>
				<Con from="input/81" weight="0.15679834562617623"/>
				<Con from="input/82" weight="-0.00496855557823499"/>
				<Con from="input/83" weight="0.008847146407363041"/>
				<Con from="input/84" weight="0.10335005576420259"/>
				<Con from="input/85" weight="0.22341228428720888"/>
				<Con from="input/86" weight="0.08005100378932947"/>
				<Con from="input/87" weight="0.04003386773077318"/>
				<Con from="input/88" weight="0.026863478581809624"/>
				<Con from="input/89" weight="0.10596598688305088"/>
				<Con from="input/90" weight="-0.03294677520031075"/>
				<Con from="input/91" weight="-0.09246658933124212"/>
				<Con from="input/92" weight="-0.08350704429208211"/>
				<Con from="input/93" weight="0.1072782499903318"/>
				<Con from="input/94" weight="0.07307950615231654"/>
				<Con from="input/95" weight="-0.021967833662325964"/>
				<Con from="input/96" weight="0.09050377531469486"/>
				<Con from="input/97" weight="0.16957303817256553"/>
				<Con from="input/98" weight="0.06537587762094779"/>
				<Con from="input/99" weight="0.08438950296427901"/>
				<Con from="input/100" weight="-0.1085275013395125"/>
				<Con from="input/101" weight="0.05707414082095674"/>
				<Con from="input/102" weight="0.046825589003981385"/>
				<Con from="input/103" weight="0.12327440949258835"/>
				<Con from="input/104" weight="-0.09373825341187844"/>
				<Con from="input/105" weight="-0.13572106129845787"/>
				<Con from="input/106" weight="-0.05460835682974106"/>
				<Con from="input/107" weight="0.09582290826349277"/>
				<Con from="input/108" weight="-0.12512141619503586"/>
				<Con from="input/109" weight="0.008386809733612888"/>
				<Con from="input/110" weight="-0.11931333450502324"/>
				<Con from="input/111" weight="0.029987659055314538"/>
				<Con from="input/112" weight="0.021953581277317707"/>
				<Con from="input/113" weight="-0.13756367592921678"/>
				<Con from="input/114" weight="-0.05434300094523847"/>
				<Con from="input/115" weight="0.0583064465109077"/>
				<Con from="input/116" weight="-0.17415282569126325"/>
				<Con from="input/117" weight="-0.08938633763971911"/>
				<Con from="input/118" weight="-0.16633873600851246"/>
				<Con from="input/119" weight="-0.0074980766605457425"/>
				<Con from="input/120" weight="-0.03439792587262417"/>
				<Con from="input/121" weight="-0.09289161390196693"/>
				<Con from="input/122" weight="0.01640262339103991"/>
				<Con from="input/123" weight="-0.12661069740274447"/>
				<Con from="input/124" weight="-0.018468425580704606"/>
				<Con from="input/125" weight="0.018344910910809475"/>
				<Con from="input/126" weight="0.07549838895525167"/>
				<Con from="input/127" weight="0.044055731475088414"/>
				<Con from="input/128" weight="0.046382082950815154"/>
				<Con from="input/129" weight="0.11844246267490785"/>
				<Con from="input/130" weight="0.11949933848937391"/>
				<Con from="input/131" weight="0.10324948301782619"/>
				<Con from="input/132" weight="-0.08500784403989373"/>
				<Con from="input/133" weight="0.045403555876425424"/>
				<Con from="input/134" weight="-0.01299256045027497"/>
				<Con from="input/135" weight="0.1772140174800409"/>
				<Con from="input/136" weight="0.13362980182546458"/>
				<Con from="input/137" weight="0.03033233204547882"/>
				<Con from="input/138" weight="0.1159758923635964"/>
				<Con from="input/139" weight="-0.08665677972893528"/>
				<Con from="input/140" weight="0.025391277257436663"/>
				<Con from="input/141" weight="0.14238585912892326"/>
				<Con from="input/142" weight="0.11304547881261576"/>
				<Con from="input/143" weight="0.09563500381355154"/>
				<Con from="input/144" weight="-0.04780711819299932"/>
				<Con from="input/145" weight="-0.09942826851695581"/>
				<Con from="input/146" weight="0.10713224655024069"/>
				<Con from="input/147" weight="-0.023596707621666338"/>
				<Con from="input/148" weight="0.02040540959691308"/>
				<Con from="input/149" weight="0.11522343598971688"/>
				<Con from="input/150" weight="-0.021872687226094683"/>
				<Con from="input/151" weight="-0.10236148844965715"/>
				<Con from="input/152" weight="0.0904152837047283"/>
				<Con from="input/153" weight="0.10438027901556675"/>
				<Con from="input/154" weight="0.06213967850305038"/>
				<Con from="input/155" weight="0.17181224440314485"/>
				<Con from="input/156" weight="-0.040667092523499475"/>
				<Con from="input/157" weight="0.12725172812211655"/>
				<Con from="input/158" weight="0.0949909115872779"/>
				<Con from="input/159" weight="-0.06743497799721732"/>
				<Con from="input/160" weight="0.04690576600024917"/>
				<Con from="input/161" weight="0.06581044839051282"/>
				<Con from="input/162" weight="-0.12353812080756849"/>
				<Con from="input/163" weight="-0.10926996007321044"/>
				<Con from="input/164" weight="0.06695374159953418"/>
				<Con from="input/165" weight="0.08491310088105666"/>
				<Con from="input/166" weight="-0.09939424689588312"/>
				<Con from="input/167" weight="-0.07738516787720252"/>
				<Con from="input/168" weight="0.03244689845130792"/>
				<Con from="input/169" weight="-0.08468162021024798"/>
				<Con from="input/170" weight="-0.11498562069865612"/>
				<Con from="input/171" weight="0.016888731172077853"/>
				<Con from="input/172" weight="0.11578596501501022"/>
				<Con from="input/173" weight="0.18234909797911633"/>
				<Con from="input/174" weight="-0.06842526735020903"/>
				<Con from="input/175" weight="0.06559414155513517"/>
				<Con from="input/176" weight="-0.0018771390561609527"/>
				<Con from="input/177" weight="-0.036314774008779735"/>
				<Con from="input/178" weight="0.019761636160785946"/>
			</Neuron>
			<Neuron id="1/2" bias="0.010120711710487574">
				<Con from="input/1" weight="0.07578766091686011"/>
				<Con from="input/2" weight="-0.09207623678333934"/>
				<Con from="input/3" weight="0.11739151612693517"/>
				<Con from="input/4" weight="-0.07617853763544084"/>
				<Con from="input/5" weight="-0.04447878353160976"/>
				<Con from="input/6" weight="0.05915949194227639"/>
				<Con from="input/7" weight="-0.04554723573410606"/>
				<Con from="input/8" weight="0.032818063229326976"/>
				<Con from="input/9" weight="0.06772450763050682"/>
				<Con from="input/10" weight="0.005459537818102147"/>
				<Con from="input/11" weight="0.15485111166460874"/>
				<Con from="input/12" weight="0.17967379762202093"/>
				<Con from="input/13" weight="0.2145600453556277"/>
				<Con from="input/14" weight="0.1681610602340753"/>
				<Con from="input/15" weight="-0.1111229442062816"/>
				<Con from="input/16" weight="-0.10815446669654737"/>
				<Con from="input/17" weight="0.04241274604640059"/>
				<Con from="input/18" weight="-0.11883076899649121"/>
				<Con from="input/19" weight="-0.08098145216188392"/>
				<Con from="input/20" weight="-0.0070704474650936985"/>
				<Con from="input/21" weight="0.036133276019951706"/>
				<Con from="input/22" weight="0.11320701874009519"/>
				<Con from="input/23" weight="0.09483627558981104"/>
				<Con from="input/24" weight="0.09486009092394802"/>
				<Con from="input/25" weight="0.10035704925175537"/>
				<Con from="input/26" weight="0.06259849964583616"/>
				<Con from="input/27" weight="0.017413136299837376"/>
				<Con from="input/28" weight="0.08219018900301615"/>
				<Con from="input/29" weight="0.015154920173893593"/>
				<Con from="input/30" weight="0.0696604687627733"/>
				<Con from="input/31" weight="-0.0043185983229297375"/>
				<Con from="input/32" weight="-0.06288540113832711"/>
				<Con from="input/33" weight="0.07636139015716809"/>
				<Con from="input/34" weight="-0.015155714317366653"/>
				<Con from="input/35" weight="0.03169244450554306"/>
				<Con from="input/36" weight="-0.001697124634108333"/>
				<Con from="input/37" weight="-0.04506559666211283"/>
				<Con from="input/38" weight="0.11165050640373729"/>
				<Con from="input/39" weight="0.055598942522128596"/>
				<Con from="input/40" weight="-0.0381674449960012"/>
				<Con from="input/41" weight="-0.06729265164272161"/>
				<Con from="input/42" weight="0.03496482963461425"/>
				<Con from="input/43" weight="0.003402597831760596"/>
				<Con from="input/44" weight="0.12460579417176644"/>
				<Con from="input/45" weight="0.07258310533489047"/>
				<Con from="input/46" weight="0.09459201350554189"/>
				<Con from="input/47" weight="0.07152267470521857"/>
				<Con from="input/48" weight="-0.19003789171986005"/>
				<Con from="input/49" weight="-0.1338310820518566"/>
				<Con from="input/50" weight="-0.07257067260493562"/>
				<Con from="input/51" weight="0.014063670770406283"/>
				<Con from="input/52" weight="0.18119928965788135"/>
				<Con from="input/53" weight="0.0752837279176122"/>
				<Con from="input/54" weight="0.06277645556020381"/>
				<Con from="input/55" weight="0.04210729483747039"/>
				<Con from="input/56" weight="-0.03646165290185962"/>
				<Con from="input/57" weight="0.05525392521711841"/>
				<Con from="input/58" weight="-0.03352102984787208"/>
				<Con from="input/59" weight="0.09769249390462455"/>
				<Con from="input/60" weight="-0.06133415541326237"/>
				<Con from="input/61" weight="0.17888854759469758"/>
				<Con from="input/62" weight="0.07015084769769821"/>
				<Con from="input/63" weight="0.13919938986482594"/>
				<Con from="input/64" weight="0.12574319693797995"/>
				<Con from="input/65" weight="0.04879163176864314"/>
				<Con from="input/66" weight="-0.08510653693937374"/>
				<Con from="input/67" weight="-0.11684049062787111"/>
				<Con from="input/68" weight="0.018043686737288244"/>
				<Con from="input/69" weight="0.12632105757758974"/>
				<Con from="input/70" weight="0.11470448229388083"/>
				<Con from="input/71" weight="-0.10898075294766683"/>
				<Con from="input/72" weight="-0.08477634082294676"/>
				<Con from="input/73" weight="0.1312132428670168"/>
				<Con from="input/74" weight="-0.024357468790695176"/>
				<Con from="input/75" weight="-0.037774574261189055"/>
				<Con from="input/76" weight="0.07650181846748356"/>
				<Con from="input/77" weight="-0.05935448356917861"/>
				<Con from="input/78" weight="0.1440493297895331"/>
				<Con from="input/79" weight="0.1348230164512188"/>
				<Con from="input/80" weight="-0.015751897533457074"/>
				<Con from="input/81" weight="0.0879076695822606"/>
				<Con from="input/82" weight="-0.1567837076556373"/>
				<Con from="input/83" weight="-0.053158323587536443"/>
				<Con from="input/84" weight="-0.045426786605365456"/>
				<Con from="input/85" weight="-0.0957080479429761"/>
				<Con from="input/86" weight="-0.05061347885660833"/>
				<Con from="input/87" weight="-0.10265046417546314"/>
				<Con from="input/88" weight="-0.1019352832177914"/>
				<Con from="input/89" weight="-0.13032153745351516"/>
				<Con from="input/90" weight="0.012444756369000352"/>
				<Con from="input/91" weight="0.12042464647898565"/>
				<Con from="input/92" weight="0.07898978501671237"/>
				<Con from="input/93" weight="0.04127067034485129"/>
				<Con from="input/94" weight="0.24643421905799678"/>
				<Con from="input/95" weight="0.1998359009720444"/>
				<Con from="input/96" weight="-0.08696028802850357"/>
				<Con from="input/97" weight="-0.14386207332848253"/>
				<Con from="input/98" weight="-0.16766803712666395"/>
				<Con from="input/99" weight="-0.18146874848856553"/>
				<Con from="input/100" weight="-0.15943594505063657"/>
				<Con from="input/101" weight="-0.11358194492330323"/>
				<Con from="input/102" weight="0.11872308695518918"/>
				<Con from="input/103" weight="0.13281654817039443"/>
				<Con from="input/104" weight="0.14724906980082195"/>
				<Con from="input/105" weight="0.0404857614720249"/>
				<Con from="input/106" weight="0.01437838291866456"/>
				<Con from="input/107" weight="-0.05786206322970584"/>
				<Con from="input/108" weight="0.03120875401636937"/>
				<Con from="input/109" weight="-0.0995043183747613"/>
				<Con from="input/110" weight="-0.1438745595818747"/>
				<Con from="input/111" weight="0.08179980961024588"/>
				<Con from="input/112" weight="0.06700536955610288"/>
				<Con from="input/113" weight="0.02928821844631402"/>
				<Con from="input/114" weight="-0.12861344596684302"/>
				<Con from="input/115" weight="-0.14830206819760755"/>
				<Con from="input/116" weight="-0.03850095755503902"/>
				<Con from="input/117" weight="-0.15372776508706587"/>
				<Con from="input/118" weight="-0.03957865165067279"/>
				<Con from="input/119" weight="-0.1347438525262114"/>
				<Con from="input/120" weight="-0.013979017668336197"/>
				<Con from="input/121" weight="0.05421624420967214"/>
				<Con from="input/122" weight="0.11229373545636868"/>
				<Con from="input/123" weight="0.1453206831212961"/>
				<Con from="input/124" weight="-0.06952866805302184"/>
				<Con from="input/125" weight="-0.06139631840816554"/>
				<Con from="input/126" weight="-0.20123650803583706"/>
				<Con from="input/127" weight="-0.17710256207380404"/>
				<Con from="input/128" weight="-0.13921099408900728"/>
				<Con from="input/129" weight="-0.10533166473234823"/>
				<Con from="input/130" weight="0.061516771989752486"/>
				<Con from="input/131" weight="-0.14574693557581192"/>
				<Con from="input/132" weight="-0.12911917221571556"/>
				<Con from="input/133" weight="-0.19200660389788565"/>
				<Con from="input/134" weight="-0.20769231643124397"/>
				<Con from="input/135" weight="-0.18289675699801666"/>
				<Con from="input/136" weight="-0.16012581342883847"/>
				<Con from="input/137" weight="0.0032627338859175462"/>
				<Con from="input/138" weight="0.0017652898317881826"/>
				<Con from="input/139" weight="0.14616486431563433"/>
				<Con from="input/140" weight="0.0733685491571053"/>
				<Con from="input/141" weight="0.06669021045155789"/>
				<Con from="input/142" weight="0.13565047076798054"/>
				<Con from="input/143" weight="-0.05143845733335898"/>
				<Con from="input/144" weight="-0.1008966093480292"/>
				<Con from="input/145" weight="-0.1291180828284723"/>
				<Con from="input/146" weight="0.024539732644014243"/>
				<Con from="input/147" weight="-0.04415763667609704"/>
				<Con from="input/148" weight="0.18374317150588082"/>
				<Con from="input/149" weight="0.11003189259638195"/>
				<Con from="input/150" weight="0.0883819006713401"/>
				<Con from="input/151" weight="-0.09312680296776729"/>
				<Con from="input/152" weight="0.06385011262819566"/>
				<Con from="input/153" weight="0.2024260491719226"/>
				<Con from="input/154" weight="0.04478076584485447"/>
				<Con from="input/155" weight="-0.037189050884740206"/>
				<Con from="input/156" weight="-0.0011204366118205242"/>
				<Con from="input/157" weight="-0.04948994942651219"/>
				<Con from="input/158" weight="0.12070276882064124"/>
				<Con from="input/159" weight="-0.22176854155979936"/>
				<Con from="input/160" weight="-0.11603611617164891"/>
				<Con from="input/161" weight="-0.17545412610740396"/>
				<Con from="input/162" weight="0.01233072970636077"/>
				<Con from="input/163" weight="-0.05409460213255175"/>
				<Con from="input/164" weight="-0.014755288185191616"/>
				<Con from="input/165" weight="-0.012098662301485182"/>
				<Con from="input/166" weight="-0.16249215239933998"/>
				<Con from="input/167" weight="-0.019994711485071422"/>
				<Con from="input/168" weight="0.003516827424473996"/>
				<Con from="input/169" weight="0.09200655879242776"/>
				<Con from="input/170" weight="-0.0353513701634268"/>
				<Con from="input/171" weight="-0.010489125493376095"/>
				<Con from="input/172" weight="0.08934425804944152"/>
				<Con from="input/173" weight="-0.11980808005224246"/>
				<Con from="input/174" weight="-0.17010775237842027"/>
				<Con from="input/175" weight="-0.0733900084621748"/>
				<Con from="input/176" weight="-0.14063378454501124"/>
				<Con from="input/177" weight="-0.11002444628211562"/>
				<Con from="input/178" weight="-0.024148149696043942"/>
			</Neuron>
			<Neuron id="1/3" bias="-0.030304838151921965">
				<Con from="input/1" weight="-0.09226057990499453"/>
				<Con from="input/2" weight="-0.17701286746123818"/>
				<Con from="input/3" weight="-0.15598595495290576"/>
				<Con from="input/4" weight="0.11012739014134582"/>
				<Con from="input/5" weight="-0.032287699486681344"/>
				<Con from="input/6" weight="0.038383516200671534"/>
				<Con from="input/7" weight="0.1843108187178637"/>
				<Con from="input/8" weight="0.11029747070963682"/>
				<Con from="input/9" weight="0.06703543518957102"/>
				<Con from="input/10" weight="-0.14569498983855458"/>
				<Con from="input/11" weight="-0.06472713495869341"/>
				<Con from="input/12" weight="-0.017072215089438958"/>
				<Con from="input/13" weight="0.03895614061685656"/>
				<Con from="input/14" weight="0.005143295522227764"/>
				<Con from="input/15" weight="-0.14802373908025726"/>
				<Con from="input/16" weight="0.0012140258470773847"/>
				<Con from="input/17" weight="-0.11537793911752836"/>
				<Con from="input/18" weight="-0.027684732666693603"/>
				<Con from="input/19" weight="-0.14864375567036817"/>
				<Con from="input/20" weight="0.0525339823413829"/>
				<Con from="input/21" weight="-0.00620480986715435"/>
				<Con from="input/22" weight="0.08083253012746781"/>
				<Con from="input/23" weight="-0.11030290317941635"/>
				<Con from="input/24" weight="-0.03835559585463266"/>
				<Con from="input/25" weight="0.030152351926665426"/>
				<Con from="input/26" weight="-0.07389339144716595"/>
				<Con from="input/27" weight="-0.11397759688663366"/>
				<Con from="input/28" weight="0.023227770231327893"/>
				<Con from="input/29" weight="-0.10436577120713002"/>
				<Con from="input/30" weight="0.1637917456102395"/>
				<Con from="input/31" weight="0.18660299653644244"/>
				<Con from="input/32" weight="-0.008853213827762142"/>
				<Con from="input/33" weight="0.11566835198985757"/>
				<Con from="input/34" weight="0.03522866505509665"/>
				<Con from="input/35" weight="0.10675329536249112"/>
				<Con from="input/36" weight="-0.0953997914124035"/>
				<Con from="input/37" weight="0.11111129658029038"/>
				<Con from="input/38" weight="-0.12867012364573577"/>
				<Con from="input/39" weight="0.12522573426759517"/>
				<Con from="input/40" weight="0.10829779256441134"/>
				<Con from="input/41" weight="0.06621826360788428"/>
				<Con from="input/42" weight="0.15307198972365524"/>
				<Con from="input/43" weight="-0.00363960554284924"/>
				<Con from="input/44" weight="-0.15549942825236848"/>
				<Con from="input/45" weight="-0.10395404437003519"/>
				<Con from="input/46" weight="-0.09420200300314165"/>
				<Con from="input/47" weight="-0.09263833658189055"/>
				<Con from="input/48" weight="0.16434710587143572"/>
				<Con from="input/49" weight="0.03317948812458649"/>
				<Con from="input/50" weight="0.0780102528576339"/>
				<Con from="input/51" weight="0.1569674510366011"/>
				<Con from="input/52" weight="0.14065248085584525"/>
				<Con from="input/53" weight="0.03450552420929949"/>
				<Con from="input/54" weight="-0.041478706436726076"/>
				<Con from="input/55" weight="-0.11204237705814557"/>
				<Con from="input/56" weight="-0.09172496016879444"/>
				<Con from="input/57" weight="-0.10988061027264921"/>
				<Con from="input/58" weight="-0.07194139658511696"/>
				<Con from="input/59" weight="0.03336824193164335"/>
				<Con from="input/60" weight="-0.07611141632840883"/>
				<Con from="input/61" weight="-0.1527547808175973"/>
				<Con from="input/62" weight="-0.10922001429128986"/>
				<Con from="input/63" weight="0.04402944015319525"/>
				<Con from="input/64" weight="0.1240601237085613"/>
				<Con from="input/65" weight="0.12144204640532084"/>
				<Con from="input/66" weight="-0.011246220508461765"/>
				<Con from="input/67" weight="0.19190746899883854"/>
				<Con from="input/68" weight="0.07101207966627376"/>
				<Con from="input/69" weight="0.15270376464528737"/>
				<Con from="input/70" weight="0.15675751078927627"/>
				<Con from="input/71" weight="0.0237269492854596"/>
				<Con from="input/72" weight="-0.1360502065027981"/>
				<Con from="input/73" weight="-0.10591530457202569"/>
				<Con from="input/74" weight="0.10951972064693441"/>
				<Con from="input/75" weight="0.06545820314142878"/>
				<Con from="input/76" weight="-0.029065557755437777"/>
				<Con from="input/77" weight="-0.043684651491772114"/>
				<Con from="input/78" weight="0.045571107871921875"/>
				<Con from="input/79" weight="-0.09435226731375466"/>
				<Con from="input/80" weight="-0.07344259874184507"/>
				<Con from="input/81" weight="-0.04553658567518788"/>
				<Con from="input/82" weight="0.08678864596196104"/>
				<Con from="input/83" weight="0.10179753962528768"/>
				<Con from="input/84" weight="-0.006227272667520295"/>
				<Con from="input/85" weight="-0.04668815458058198"/>
				<Con from="input/86" weight="-0.038815739912363464"/>
				<Con from="input/87" weight="0.1634284164548325"/>
				<Con from="input/88" weight="0.09731032806073422"/>
				<Con from="input/89" weight="-0.09585730481281667"/>
				<Con from="input/90" weight="-0.0138978086683684"/>
				<Con from="input/91" weight="-0.08636004459333788"/>
				<Con from="input/92" weight="0.06611624184266629"/>
				<Con from="input/93" weight="0.01438512858760719"/>
				<Con from="input/94" weight="0.0803129788171671"/>
				<Con from="input/95" weight="-0.062470899391393934"/>
				<Con from="input/96" weight="-0.13522120772838236"/>
				<Con from="input/97" weight="-0.01565863228222434"/>
				<Con from="input/98" weight="-0.10021047408395282"/>
				<Con from="input/99" weight="-0.009398192849560498"/>
				<Con from="input/100" weight="-0.057037399922290566"/>
				<Con from="input/101" weight="-0.033486491784895954"/>
				<Con from="input/102" weight="0.07314451733471698"/>
				<Con from="input/103" weight="0.004466593810683334"/>
				<Con from="input/104" weight="0.09610662964083057"/>
				<Con from="input/105" weight="0.069791448275703"/>
				<Con from="input/106" weight="-0.10431147664723092"/>
				<Con from="input/107" weight="-0.036806528111493556"/>
				<Con from="input/108" weight="0.027059882608873754"/>
				<Con from="input/109" weight="-0.1911872302687733"/>
				<Con from="input/110" weight="-0.13309576591195424"/>
				<Con from="input/111" weight="0.05208753400981394"/>
				<Con from="input/112" weight="0.06000976518875131"/>
				<Con from="input/113" weight="0.08743621073446708"/>
				<Con from="input/114" weight="0.14079783583549846"/>
				<Con from="input/115" weight="0.033129289835462476"/>
				<Con from="input/116" weight="0.07171717242453779"/>
				<Con from="input/117" weight="-0.018293584800304873"/>
				<Con from="input/118" weight="0.09540664906905191"/>
				<Con from="input/119" weight="0.07360080154064429"/>
				<Con from="input/120" weight="-0.07101180304078147"/>
				<Con from="input/121" weight="-0.01412633340418519"/>
				<Con from="input/122" weight="-0.10076511139474438"/>
				<Con from="input/123" weight="0.07619959150570553"/>
				<Con from="input/124" weight="0.05335519866048633"/>
				<Con from="input/125" weight="-0.09140651707768023"/>
				<Con from="input/126" weight="-0.08458226571716078"/>
				<Con from="input/127" weight="-0.0343119040641387"/>
				<Con from="input/128" weight="0.1232141644986451"/>
				<Con from="input/129" weight="-0.046038881938701606"/>
				<Con from="input/130" weight="0.002006346766225106"/>
				<Con from="input/131" weight="0.038585746104153044"/>
				<Con from="input/132" weight="-0.09802277809279303"/>
				<Con from="input/133" weight="-0.022348706591962714"/>
				<Con from="input/134" weight="-0.08887102760457899"/>
				<Con from="input/135" weight="0.06945265624744663"/>
				<Con from="input/136" weight="0.011397326356229216"/>
				<Con from="input/137" weight="0.11504730370295305"/>
				<Con from="input/138" weight="0.06235561338537411"/>
				<Con from="input/139" weight="-0.08756010702825506"/>
				<Con from="input/140" weight="-0.01697163562693747"/>
				<Con from="input/141" weight="0.030879274440915115"/>
				<Con from="input/142" weight="0.08404095504861364"/>
				<Con from="input/143" weight="0.1733854130946387"/>
				<Con from="input/144" weight="-0.003574901428874649"/>
				<Con from="input/145" weight="-0.003710881949589828"/>
				<Con from="input/146" weight="0.16206486341933599"/>
				<Con from="input/147" weight="-0.06888566683551477"/>
				<Con from="input/148" weight="0.1919292211921173"/>
				<Con from="input/149" weight="0.12893707391438505"/>
				<Con from="input/150" weight="0.19343603427084058"/>
				<Con from="input/151" weight="-0.008620016941422299"/>
				<Con from="input/152" weight="0.098078094302704"/>
				<Con from="input/153" weight="0.12173600635084292"/>
				<Con from="input/154" weight="-0.03154466289270384"/>
				<Con from="input/155" weight="0.1439721251175522"/>
				<Con from="input/156" weight="-0.06395732480080749"/>
				<Con from="input/157" weight="0.07641877599201975"/>
				<Con from="input/158" weight="0.06107534752870145"/>
				<Con from="input/159" weight="-0.09743175285712664"/>
				<Con from="input/160" weight="0.01483484365940221"/>
				<Con from="input/161" weight="-0.029079995431453544"/>
				<Con from="input/162" weight="0.16536426137698604"/>
				<Con from="input/163" weight="0.0771947228802125"/>
				<Con from="input/164" weight="0.06214491391982077"/>
				<Con from="input/165" weight="-0.02158016555946913"/>
				<Con from="input/166" weight="-0.006207427216941014"/>
				<Con from="input/167" weight="0.11304356700054115"/>
				<Con from="input/168" weight="0.03319782707842386"/>
				<Con from="input/169" weight="-0.015633666368630193"/>
				<Con from="input/170" weight="-0.12052705383404495"/>
				<Con from="input/171" weight="-0.12607883341654713"/>
				<Con from="input/172" weight="0.025517153261285883"/>
				<Con from="input/173" weight="0.04364484795963668"/>
				<Con from="input/174" weight="-0.032611442359758186"/>
				<Con from="input/175" weight="0.11942819346983402"/>
				<Con from="input/176" weight="-0.023899702992417487"/>
				<Con from="input/177" weight="0.08857109882187392"/>
				<Con from="input/178" weight="0.11546622300096682"/>
			</Neuron>
			<Neuron id="1/4" bias="0.016175793728442016">
				<Con from="input/1" weight="0.08515071655850703"/>
				<Con from="input/2" weight="0.08833717610558744"/>
				<Con from="input/3" weight="-0.0909107211461348"/>
				<Con from="input/4" weight="0.014317645635342668"/>
				<Con from="input/5" weight="0.1872753943989276"/>
				<Con from="input/6" weight="0.10178581644158144"/>
				<Con from="input/7" weight="0.1632610892588843"/>
				<Con from="input/8" weight="-0.05330643324447779"/>
				<Con from="input/9" weight="0.21837674003315935"/>
				<Con from="input/10" weight="0.1311131682949023"/>
				<Con from="input/11" weight="0.188460927242376"/>
				<Con from="input/12" weight="0.09985961263204912"/>
				<Con from="input/13" weight="0.020402948290212997"/>
				<Con from="input/14" weight="0.025305650789730707"/>
				<Con from="input/15" weight="0.038688201132047004"/>
				<Con from="input/16" weight="-0.17465171646891203"/>
				<Con from="input/17" weight="-0.14782155118706847"/>
				<Con from="input/18" weight="-0.1977775481906039"/>
				<Con from="input/19" weight="0.02455072705628918"/>
				<Con from="input/20" weight="-0.09347423619118729"/>
				<Con from="input/21" weight="0.09878535979785032"/>
				<Con from="input/22" weight="0.05917028942318927"/>
				<Con from="input/23" weight="0.01440672394536948"/>
				<Con from="input/24" weight="-0.12422743942764185"/>
				<Con from="input/25" weight="-0.0253279703566551"/>
				<Con from="input/26" weight="-0.08018098473050655"/>
				<Con from="input/27" weight="0.07140019636433778"/>
				<Con from="input/28" weight="0.1398661615348929"/>
				<Con from="input/29" weight="-0.040869987074785626"/>
				<Con from="input/30" weight="0.17616862357048174"/>
				<Con from="input/31" weight="0.009006020762507578"/>
				<Con from="input/32" weight="0.03458483154668143"/>
				<Con from="input/33" weight="0.17164394343159162"/>
				<Con from="input/34" weight="0.11570019813953095"/>
				<Con from="input/35" weight="0.06285238617004783"/>
				<Con from="input/36" weight="0.11301215194462048"/>
				<Con from="input/37" weight="0.183959326540602"/>
				<Con from="input/38" weight="0.02348328408206231"/>
				<Con from="input/39" weight="0.05380129456893045"/>
				<Con from="input/40" weight="-0.03200420295188066"/>
				<Con from="input/41" weight="-0.09419990003304492"/>
				<Con from="input/42" weight="-0.11307795365598179"/>
				<Con from="input/43" weight="0.11682999142113305"/>
				<Con from="input/44" weight="0.12069437983178484"/>
				<Con from="input/45" weight="-0.03214091180319595"/>
				<Con from="input/46" weight="-0.18756339809924602"/>
				<Con from="input/47" weight="-0.09059742561335851"/>
				<Con from="input/48" weight="-0.17512858136428577"/>
				<Con from="input/49" weight="-0.22124912754951015"/>
				<Con from="input/50" weight="-0.11759228541953408"/>
				<Con from="input/51" weight="-0.038692548798291065"/>
				<Con from="input/52" weight="-0.1314695025050171"/>
				<Con from="input/53" weight="0.05199444533285124"/>
				<Con from="input/54" weight="-0.0817048558136279"/>
				<Con from="input/55" weight="0.08948050341964402"/>
				<Con from="input/56" weight="-0.12396723805711533"/>
				<Con from="input/57" weight="0.07097943560853548"/>
				<Con from="input/58" weight="-0.02139529460691746"/>
				<Con from="input/59" weight="-0.07134898325060411"/>
				<Con from="input/60" weight="-0.05829745299601157"/>
				<Con from="input/61" weight="-0.1162204474154501"/>
				<Con from="input/62" weight="-0.11268963078069308"/>
				<Con from="input/63" weight="0.0313687107455981"/>
				<Con from="input/64" weight="-0.06760295622715563"/>
				<Con from="input/65" weight="0.1346863695379986"/>
				<Con from="input/66" weight="-0.04483999555213608"/>
				<Con from="input/67" weight="-0.003846035748820853"/>
				<Con from="input/68" weight="0.0828957948101075"/>
				<Con from="input/69" weight="-0.11737577908271717"/>
				<Con from="input/70" weight="-0.07845829801915416"/>
				<Con from="input/71" weight="-0.085671869126299"/>
				<Con from="input/72" weight="0.05579009474689909"/>
				<Con from="input/73" weight="-0.0333348604047296"/>
				<Con from="input/74" weight="0.029259782121086826"/>
				<Con from="input/75" weight="-0.0019392011774164244"/>
				<Con from="input/76" weight="0.21796916592833165"/>
				<Con from="input/77" weight="-0.060550699807510315"/>
				<Con from="input/78" weight="-0.03615425373642827"/>
				<Con from="input/79" weight="0.12775560802827046"/>
				<Con from="input/80" weight="-0.026540326945928713"/>
				<Con from="input/81" weight="0.21297257133546707"/>
				<Con from="input/82" weight="-0.036937125617787774"/>
				<Con from="input/83" weight="0.09031386193389458"/>
				<Con from="input/84" weight="-0.04614648243827647"/>
				<Con from="input/85" weight="0.013339598799819188"/>
				<Con from="input/86" weight="-0.16367041465860743"/>
				<Con from="input/87" weight="-0.1150709166043628"/>
				<Con from="input/88" weight="-0.22543251903648034"/>
				<Con from="input/89" weight="-0.014415727025692203"/>
				<Con from="input/90" weight="0.10442929437760723"/>
				<Con from="input/91" weight="-0.01872495415618767"/>
				<Con from="input/92" weight="0.1336083137110038"/>
				<Con from="input/93" weight="-0.056309095751714715"/>
				<Con from="input/94" weight="-0.07249540041578756"/>
				<Con from="input/95" weight="-0.07821587733391364"/>
				<Con from="input/96" weight="0.009131788870178369"/>
				<Con from="input/97" weight="-0.012428549797985732"/>
				<Con from="input/98" weight="-0.020075813438230346"/>
				<Con from="input/99" weight="0.03766474779715754"/>
				<Con from="input/100" weight="0.17138167253832398"/>
				<Con from="input/101" weight="0.03917930526083359"/>
				<Con from="input/102" weight="0.034096004809370854"/>
				<Con from="input/103" weight="0.012075047793155094"/>
				<Con from="input/104" weight="0.040747944545502596"/>
				<Con from="input/105" weight="0.08733975999808899"/>
				<Con from="input/106" weight="0.09810031188076486"/>
				<Con from="input/107" weight="0.08721379961568203"/>
				<Con from="input/108" weight="-0.07082306266639012"/>
				<Con from="input/109" weight="0.03583440905243412"/>
				<Con from="input/110" weight="0.05980409248812029"/>
				<Con from="input/111" weight="0.021553897708456844"/>
				<Con from="input/112" weight="-0.10831582325557579"/>
				<Con from="input/113" weight="-0.01324036960538225"/>
				<Con from="input/114" weight="0.06416558891595468"/>
				<Con from="input/115" weight="0.09994362699717382"/>
				<Con from="input/116" weight="0.12774914417641572"/>
				<Con from="input/117" weight="-0.03336767015066425"/>
				<Con from="input/118" weight="0.009358720024700963"/>
				<Con from="input/119" weight="0.03804264071023154"/>
				<Con from="input/120" weight="-0.10985435514681162"/>
				<Con from="input/121" weight="0.10418048117283021"/>
				<Con from="input/122" weight="-0.038433743165557484"/>
				<Con from="input/123" weight="-0.07310064643968725"/>
				<Con from="input/124" weight="0.11869800494958682"/>
				<Con from="input/125" weight="-0.07854564227964932"/>
				<Con from="input/126" weight="0.09136830018917627"/>
				<Con from="input/127" weight="3.6941270060857474E-4"/>
				<Con from="input/128" weight="-0.16102842275502627"/>
				<Con from="input/129" weight="-0.07432811646332618"/>
				<Con from="input/130" weight="0.03466350644372757"/>
				<Con from="input/131" weight="0.011805781319626578"/>
				<Con from="input/132" weight="-0.1636136746175705"/>
				<Con from="input/133" weight="-0.1802751381518775"/>
				<Con from="input/134" weight="-0.04603185412621641"/>
				<Con from="input/135" weight="-0.226400825990261"/>
				<Con from="input/136" weight="-0.04168486309934274"/>
				<Con from="input/137" weight="-0.10621242055611836"/>
				<Con from="input/138" weight="0.051078350804250584"/>
				<Con from="input/139" weight="0.04203964052372854"/>
				<Con from="input/140" weight="-0.11778825574886027"/>
				<Con from="input/141" weight="-0.06491335529148637"/>
				<Con from="input/142" weight="-0.08823099735833494"/>
				<Con from="input/143" weight="-0.1535322282054683"/>
				<Con from="input/144" weight="-0.0669536719323725"/>
				<Con from="input/145" weight="-0.035514430575992566"/>
				<Con from="input/146" weight="0.10958269103716581"/>
				<Con from="input/147" weight="0.0907628396683036"/>
				<Con from="input/148" weight="-0.14660495989966124"/>
				<Con from="input/149" weight="-0.20349626293957335"/>
				<Con from="input/150" weight="-0.20213183582987235"/>
				<Con from="input/151" weight="0.018656045856208236"/>
				<Con from="input/152" weight="-0.11972045412975373"/>
				<Con from="input/153" weight="0.02649822489393985"/>
				<Con from="input/154" weight="0.025092178383108225"/>
				<Con from="input/155" weight="0.02771328129623466"/>
				<Con from="input/156" weight="0.10856595477209177"/>
				<Con from="input/157" weight="0.12359024808626297"/>
				<Con from="input/158" weight="-0.05768905931941194"/>
				<Con from="input/159" weight="0.05766341015763134"/>
				<Con from="input/160" weight="0.1814214838300342"/>
				<Con from="input/161" weight="-0.04831742046384714"/>
				<Con from="input/162" weight="0.10005134578264033"/>
				<Con from="input/163" weight="-0.03125006421791382"/>
				<Con from="input/164" weight="0.09766806014802733"/>
				<Con from="input/165" weight="-0.10888362863909329"/>
				<Con from="input/166" weight="0.07424821519881432"/>
				<Con from="input/167" weight="-0.04082218785603267"/>
				<Con from="input/168" weight="-0.010544414982369514"/>
				<Con from="input/169" weight="0.051757608723916236"/>
				<Con from="input/170" weight="-0.030915764690911826"/>
				<Con from="input/171" weight="0.11940938937521951"/>
				<Con from="input/172" weight="0.13561050651305798"/>
				<Con from="input/173" weight="0.004780446920383244"/>
				<Con from="input/174" weight="0.0026486015615948357"/>
				<Con from="input/175" weight="-0.10235017499813642"/>
				<Con from="input/176" weight="0.03543485689212044"/>
				<Con from="input/177" weight="0.003866652306646471"/>
				<Con from="input/178" weight="-0.08924158463316642"/>
			</Neuron>
			<Neuron id="1/5" bias="-0.11069514501738631">
				<Con from="input/1" weight="0.11563701539153436"/>
				<Con from="input/2" weight="0.10607399423108137"/>
				<Con from="input/3" weight="0.0027578145235568757"/>
				<Con from="input/4" weight="0.14253987235278737"/>
				<Con from="input/5" weight="0.15427849213626435"/>
				<Con from="input/6" weight="-0.06046823566636095"/>
				<Con from="input/7" weight="-0.023353061243392773"/>
				<Con from="input/8" weight="-0.03296591609393448"/>
				<Con from="input/9" weight="0.06270214713192775"/>
				<Con from="input/10" weight="0.1577132771516754"/>
				<Con from="input/11" weight="-0.06173477274452278"/>
				<Con from="input/12" weight="0.15416700073708645"/>
				<Con from="input/13" weight="0.0019795489709539624"/>
				<Con from="input/14" weight="0.17738627670114834"/>
				<Con from="input/15" weight="0.14818224242713962"/>
				<Con from="input/16" weight="-0.0323352620479757"/>
				<Con from="input/17" weight="0.20160091949160902"/>
				<Con from="input/18" weight="0.09261361870252294"/>
				<Con from="input/19" weight="0.07968667371830375"/>
				<Con from="input/20" weight="0.2248920380243734"/>
				<Con from="input/21" weight="0.0016429140768314948"/>
				<Con from="input/22" weight="0.13692577324878083"/>
				<Con from="input/23" weight="0.1055126877636568"/>
				<Con from="input/24" weight="0.191921073017149"/>
				<Con from="input/25" weight="0.07776733283622968"/>
				<Con from="input/26" weight="0.14254256750755956"/>
				<Con from="input/27" weight="0.10736105942650456"/>
				<Con from="input/28" weight="0.09910895935735443"/>
				<Con from="input/29" weight="0.05568138815419415"/>
				<Con from="input/30" weight="-0.10012353868256006"/>
				<Con from="input/31" weight="0.1443206506056606"/>
				<Con from="input/32" weight="0.019580896171840917"/>
				<Con from="input/33" weight="-0.04748401697568137"/>
				<Con from="input/34" weight="0.07603019486968675"/>
				<Con from="input/35" weight="-0.04915190853198276"/>
				<Con from="input/36" weight="0.08588084258934267"/>
				<Con from="input/37" weight="0.14462628569542565"/>
				<Con from="input/38" weight="-0.06624089412934484"/>
				<Con from="input/39" weight="-0.01411655481785495"/>
				<Con from="input/40" weight="0.09491484032035426"/>
				<Con from="input/41" weight="0.08656446304309817"/>
				<Con from="input/42" weight="0.06721086836898027"/>
				<Con from="input/43" weight="0.1345295972170326"/>
				<Con from="input/44" weight="0.0399768891163942"/>
				<Con from="input/45" weight="0.07911358227364908"/>
				<Con from="input/46" weight="-0.08482595775245581"/>
				<Con from="input/47" weight="0.08386028159429466"/>
				<Con from="input/48" weight="0.17532319139243407"/>
				<Con from="input/49" weight="-0.05830913750886747"/>
				<Con from="input/50" weight="-0.07209615975553307"/>
				<Con from="input/51" weight="0.01756140282052307"/>
				<Con from="input/52" weight="0.05517325698791398"/>
				<Con from="input/53" weight="-0.14241739359186595"/>
				<Con from="input/54" weight="-0.20336827953226383"/>
				<Con from="input/55" weight="-0.05360474423206844"/>
				<Con from="input/56" weight="-0.015514209048227758"/>
				<Con from="input/57" weight="0.06136309427761833"/>
				<Con from="input/58" weight="-0.09232127463582973"/>
				<Con from="input/59" weight="0.12772530449635314"/>
				<Con from="input/60" weight="-0.17135739473215872"/>
				<Con from="input/61" weight="0.014436483016125398"/>
				<Con from="input/62" weight="-0.14023702984285133"/>
				<Con from="input/63" weight="0.17807138468020065"/>
				<Con from="input/64" weight="-0.032460745454001745"/>
				<Con from="input/65" weight="0.21927311602699545"/>
				<Con from="input/66" weight="-0.03673690401601798"/>
				<Con from="input/67" weight="0.10383058345545927"/>
				<Con from="input/68" weight="0.10624962597282937"/>
				<Con from="input/69" weight="0.09060298804693177"/>
				<Con from="input/70" weight="0.040515942654976475"/>
				<Con from="input/71" weight="0.17620911725455865"/>
				<Con from="input/72" weight="0.014982954372399658"/>
				<Con from="input/73" weight="-0.057369302065982834"/>
				<Con from="input/74" weight="-0.07350223537467529"/>
				<Con from="input/75" weight="-0.13043357910841497"/>
				<Con from="input/76" weight="-0.13376170774916538"/>
				<Con from="input/77" weight="-0.059689822107013714"/>
				<Con from="input/78" weight="-0.05222151426378814"/>
				<Con from="input/79" weight="-0.06501991447424608"/>
				<Con from="input/80" weight="0.04035911685545527"/>
				<Con from="input/81" weight="-0.1265928194020745"/>
				<Con from="input/82" weight="0.002468216769019327"/>
				<Con from="input/83" weight="0.03422205582300155"/>
				<Con from="input/84" weight="0.014086265588952115"/>
				<Con from="input/85" weight="0.13041299848028026"/>
				<Con from="input/86" weight="-0.12617649023513897"/>
				<Con from="input/87" weight="-0.04170490469696653"/>
				<Con from="input/88" weight="0.025725263526187498"/>
				<Con from="input/89" weight="0.1768220953432791"/>
				<Con from="input/90" weight="-0.06862787346819654"/>
				<Con from="input/91" weight="0.029765166527400723"/>
				<Con from="input/92" weight="0.12761124484403621"/>
				<Con from="input/93" weight="0.03698053588459549"/>
				<Con from="input/94" weight="0.07543542083081077"/>
				<Con from="input/95" weight="-0.0674263591376869"/>
				<Con from="input/96" weight="0.13936556057783148"/>
				<Con from="input/97" weight="0.022755788009483236"/>
				<Con from="input/98" weight="0.03833083443063124"/>
				<Con from="input/99" weight="0.028521788580088046"/>
				<Con from="input/100" weight="0.16854847849205667"/>
				<Con from="input/101" weight="-0.06961240468011579"/>
				<Con from="input/102" weight="0.08268398527495256"/>
				<Con from="input/103" weight="0.05075197097766309"/>
				<Con from="input/104" weight="0.08920342877700045"/>
				<Con from="input/105" weight="0.07120920930659129"/>
				<Con from="input/106" weight="0.10094488041799547"/>
				<Con from="input/107" weight="-0.028556708418976198"/>
				<Con from="input/108" weight="-0.025486970232842222"/>
				<Con from="input/109" weight="0.06800356663793522"/>
				<Con from="input/110" weight="-0.057182124496983615"/>
				<Con from="input/111" weight="0.12445474620853154"/>
				<Con from="input/112" weight="-0.0852842937254145"/>
				<Con from="input/113" weight="-0.13034505064261726"/>
				<Con from="input/114" weight="-0.022434471213801155"/>
				<Con from="input/115" weight="0.08853567382693953"/>
				<Con from="input/116" weight="-0.042640144121546174"/>
				<Con from="input/117" weight="-0.018378651271431082"/>
				<Con from="input/118" weight="-0.10199376627269291"/>
				<Con from="input/119" weight="-0.17580389927292514"/>
				<Con from="input/120" weight="-0.09792054583979203"/>
				<Con from="input/121" weight="0.010888832080042262"/>
				<Con from="input/122" weight="0.08698061503790978"/>
				<Con from="input/123" weight="0.016654523622026816"/>
				<Con from="input/124" weight="0.15410376325431832"/>
				<Con from="input/125" weight="0.1411430806608542"/>
				<Con from="input/126" weight="-0.13465979368730893"/>
				<Con from="input/127" weight="-0.18389354189068272"/>
				<Con from="input/128" weight="-0.010079040025747816"/>
				<Con from="input/129" weight="-0.16669838376226728"/>
				<Con from="input/130" weight="0.034568990168549925"/>
				<Con from="input/131" weight="0.1440213382592015"/>
				<Con from="input/132" weight="0.07042845035672644"/>
				<Con from="input/133" weight="-0.04668076247664861"/>
				<Con from="input/134" weight="0.10820915256190818"/>
				<Con from="input/135" weight="-0.059922894365074524"/>
				<Con from="input/136" weight="0.1203508938267806"/>
				<Con from="input/137" weight="-0.09938358191968845"/>
				<Con from="input/138" weight="0.06336088138648098"/>
				<Con from="input/139" weight="0.07519412975445937"/>
				<Con from="input/140" weight="0.04389163068605608"/>
				<Con from="input/141" weight="0.017803427542058884"/>
				<Con from="input/142" weight="0.11232188658379713"/>
				<Con from="input/143" weight="0.09045464529099445"/>
				<Con from="input/144" weight="-0.16854756531098405"/>
				<Con from="input/145" weight="0.11742714523816648"/>
				<Con from="input/146" weight="0.023170703281349583"/>
				<Con from="input/147" weight="0.04091940209901639"/>
				<Con from="input/148" weight="0.19710376769553561"/>
				<Con from="input/149" weight="0.07102934797642935"/>
				<Con from="input/150" weight="0.25150486458387455"/>
				<Con from="input/151" weight="0.20684577899060846"/>
				<Con from="input/152" weight="-0.04004303628023397"/>
				<Con from="input/153" weight="-0.012957804576734407"/>
				<Con from="input/154" weight="-0.01666962011702649"/>
				<Con from="input/155" weight="-0.1894849303332452"/>
				<Con from="input/156" weight="-0.040663695990766954"/>
				<Con from="input/157" weight="0.10153008930752165"/>
				<Con from="input/158" weight="-0.07472874175797753"/>
				<Con from="input/159" weight="-0.10177214363766028"/>
				<Con from="input/160" weight="-0.14831274298559155"/>
				<Con from="input/161" weight="0.08278455932246748"/>
				<Con from="input/162" weight="-0.21142379024355376"/>
				<Con from="input/163" weight="-0.09453031462566933"/>
				<Con from="input/164" weight="-0.10186001888360025"/>
				<Con from="input/165" weight="-0.03255555158030725"/>
				<Con from="input/166" weight="-0.12702892986358702"/>
				<Con from="input/167" weight="-0.02915476979021145"/>
				<Con from="input/168" weight="0.1441071444657818"/>
				<Con from="input/169" weight="0.11271909689865267"/>
				<Con from="input/170" weight="0.098724857547796"/>
				<Con from="input/171" weight="-0.09763570247028824"/>
				<Con from="input/172" weight="0.04053954646511139"/>
				<Con from="input/173" weight="0.06622856637251552"/>
				<Con from="input/174" weight="-0.13372338756399962"/>
				<Con from="input/175" weight="-1.9219725788412827E-4"/>
				<Con from="input/176" weight="-0.11379315952687526"/>
				<Con from="input/177" weight="-0.02704013396589675"/>
				<Con from="input/178" weight="0.16155015497315237"/>
			</Neuron>
			<Neuron id="1/6" bias="-0.04920233842626884">
				<Con from="input/1" weight="0.0019009790295761858"/>
				<Con from="input/2" weight="0.04731956163517375"/>
				<Con from="input/3" weight="0.14143257737818665"/>
				<Con from="input/4" weight="0.10439419653809803"/>
				<Con from="input/5" weight="-0.018620001469790724"/>
				<Con from="input/6" weight="0.20964832849504375"/>
				<Con from="input/7" weight="0.06617958281491548"/>
				<Con from="input/8" weight="0.16250457474360974"/>
				<Con from="input/9" weight="0.11864338623367783"/>
				<Con from="input/10" weight="0.14808573964004082"/>
				<Con from="input/11" weight="-0.07565418112797202"/>
				<Con from="input/12" weight="0.04941429249246812"/>
				<Con from="input/13" weight="-0.06084816216002081"/>
				<Con from="input/14" weight="-0.0762840637613082"/>
				<Con from="input/15" weight="0.07392875057648371"/>
				<Con from="input/16" weight="0.05036927559997467"/>
				<Con from="input/17" weight="0.06916454363350949"/>
				<Con from="input/18" weight="-0.07929826438017928"/>
				<Con from="input/19" weight="-0.13180706941253256"/>
				<Con from="input/20" weight="-0.11186827137718526"/>
				<Con from="input/21" weight="-0.173170925830714"/>
				<Con from="input/22" weight="-0.1308984337613976"/>
				<Con from="input/23" weight="-0.007996895170358294"/>
				<Con from="input/24" weight="0.10404273920188434"/>
				<Con from="input/25" weight="-0.022450982936746043"/>
				<Con from="input/26" weight="0.042061154650965354"/>
				<Con from="input/27" weight="-0.02705767580741937"/>
				<Con from="input/28" weight="0.21107172114347927"/>
				<Con from="input/29" weight="0.19699813079814307"/>
				<Con from="input/30" weight="-0.07152032588053331"/>
				<Con from="input/31" weight="0.026963362654358076"/>
				<Con from="input/32" weight="0.05737575862420152"/>
				<Con from="input/33" weight="-0.07326546353224463"/>
				<Con from="input/34" weight="0.07638226477237244"/>
				<Con from="input/35" weight="0.09105035284054201"/>
				<Con from="input/36" weight="-0.15903266581561928"/>
				<Con from="input/37" weight="-0.13746865885994922"/>
				<Con from="input/38" weight="-0.16079400902083438"/>
				<Con from="input/39" weight="0.0884279093035073"/>
				<Con from="input/40" weight="-0.12021572898880976"/>
				<Con from="input/41" weight="-0.048097635739714505"/>
				<Con from="input/42" weight="-0.0022712184890826127"/>
				<Con from="input/43" weight="0.0319261316637031"/>
				<Con from="input/44" weight="-0.1788401425638783"/>
				<Con from="input/45" weight="0.05637401448853627"/>
				<Con from="input/46" weight="-0.15551851302618908"/>
				<Con from="input/47" weight="-0.06759702414351555"/>
				<Con from="input/48" weight="0.030679899980659925"/>
				<Con from="input/49" weight="-0.09602023449281397"/>
				<Con from="input/50" weight="-0.01174769896313026"/>
				<Con from="input/51" weight="-0.09153549866777233"/>
				<Con from="input/52" weight="-0.020170940802629937"/>
				<Con from="input/53" weight="0.0026069032405042418"/>
				<Con from="input/54" weight="0.1271579397234443"/>
				<Con from="input/55" weight="-0.005229699289762223"/>
				<Con from="input/56" weight="0.1326765708312803"/>
				<Con from="input/57" weight="-0.04881333985628517"/>
				<Con from="input/58" weight="0.03711026775078487"/>
				<Con from="input/59" weight="0.09637525889601405"/>
				<Con from="input/60" weight="-0.09907410732696324"/>
				<Con from="input/61" weight="0.0859719772900571"/>
				<Con from="input/62" weight="-0.13353080199073833"/>
				<Con from="input/63" weight="-0.1351190752387909"/>
