<?xml version="1.0" encoding="UTF-8" standalone="yes"?>
<PMML xmlns="http://www.dmg.org/PMML-4_4" xmlns:data="http://jpmml.org/jpmml-model/InlineTable" version="4.4">
	<Header>
		<Application name="SkLearn2PMML package" version="0.107.1"/>
		<Timestamp>2024-05-10T11:15:27Z</Timestamp>
	</Header>
	<DataDictionary>
		<DataField name="y" optype="categorical" dataType="integer">
			<Value value="0"/>
			<Value value="1"/>
		</DataField>
		<DataField name="x1" optype="continuous" dataType="double"/>
		<DataField name="x2" optype="continuous" dataType="double"/>
		<DataField name="x3" optype="continuous" dataType="double"/>
		<DataField name="x4" optype="continuous" dataType="double"/>
		<DataField name="x5" optype="continuous" dataType="double"/>
		<DataField name="x6" optype="continuous" dataType="double"/>
		<DataField name="x7" optype="continuous" dataType="double"/>
		<DataField name="x8" optype="continuous" dataType="double"/>
		<DataField name="x9" optype="continuous" dataType="double"/>
		<DataField name="x10" optype="continuous" dataType="double"/>
		<DataField name="x11" optype="continuous" dataType="double"/>
		<DataField name="x12" optype="continuous" dataType="double"/>
		<DataField name="x13" optype="continuous" dataType="double"/>
		<DataField name="x14" optype="continuous" dataType="double"/>
		<DataField name="x15" optype="continuous" dataType="double"/>
		<DataField name="x16" optype="continuous" dataType="double"/>
		<DataField name="x17" optype="continuous" dataType="double"/>
		<DataField name="x18" optype="continuous" dataType="double"/>
		<DataField name="x19" optype="continuous" dataType="double"/>
		<DataField name="x20" optype="continuous" dataType="double"/>
		<DataField name="x21" optype="continuous" dataType="double"/>
		<DataField name="x22" optype="continuous" dataType="double"/>
		<DataField name="x23" optype="continuous" dataType="double"/>
		<DataField name="x24" optype="continuous" dataType="double"/>
		<DataField name="x25" optype="continuous" dataType="double"/>
		<DataField name="x26" optype="continuous" dataType="double"/>
		<DataField name="x27" optype="continuous" dataType="double"/>
		<DataField name="x28" optype="continuous" dataType="double"/>
		<DataField name="x29" optype="continuous" dataType="double"/>
		<DataField name="x30" optype="continuous" dataType="double"/>
		<DataField name="x31" optype="continuous" dataType="double"/>
		<DataField name="x32" optype="continuous" dataType="double"/>
		<DataField name="x33" optype="continuous" dataType="double"/>
		<DataField name="x34" optype="continuous" dataType="double"/>
		<DataField name="x35" optype="continuous" dataType="double"/>
		<DataField name="x36" optype="continuous" dataType="double"/>
		<DataField name="x37" optype="continuous" dataType="double"/>
		<DataField name="x38" optype="continuous" dataType="double"/>
		<DataField name="x39" optype="continuous" dataType="double"/>
		<DataField name="x40" optype="continuous" dataType="double"/>
		<DataField name="x41" optype="continuous" dataType="double"/>
		<DataField name="x42" optype="continuous" dataType="double"/>
		<DataField name="x43" optype="continuous" dataType="double"/>
		<DataField name="x44" optype="continuous" dataType="double"/>
		<DataField name="x45" optype="continuous" dataType="double"/>
		<DataField name="x46" optype="continuous" dataType="double"/>
		<DataField name="x47" optype="continuous" dataType="double"/>
		<DataField name="x48" optype="continuous" dataType="double"/>
		<DataField name="x49" optype="continuous" dataType="double"/>
		<DataField name="x50" optype="continuous" dataType="double"/>
		<DataField name="x51" optype="continuous" dataType="double"/>
		<DataField name="x52" optype="continuous" dataType="double"/>
		<DataField name="x53" optype="continuous" dataType="double"/>
		<DataField name="x54" optype="continuous" dataType="double"/>
		<DataField name="x55" optype="continuous" dataType="double"/>
		<DataField name="x56" optype="continuous" dataType="double"/>
		<DataField name="x57" optype="continuous" dataType="double"/>
		<DataField name="x58" optype="continuous" dataType="double"/>
		<DataField name="x59" optype="continuous" dataType="double"/>
		<DataField name="x60" optype="continuous" dataType="double"/>
		<DataField name="x61" optype="continuous" dataType="double"/>
		<DataField name="x62" optype="continuous" dataType="double"/>
		<DataField name="x63" optype="continuous" dataType="double"/>
		<DataField name="x64" optype="continuous" dataType="double"/>
		<DataField name="x65" optype="continuous" dataType="double"/>
		<DataField name="x66" optype="continuous" dataType="double"/>
		<DataField name="x67" optype="continuous" dataType="double"/>
		<DataField name="x68" optype="continuous" dataType="double"/>
		<DataField name="x69" optype="continuous" dataType="double"/>
		<DataField name="x70" optype="continuous" dataType="double"/>
		<DataField name="x71" optype="continuous" dataType="double"/>
		<DataField name="x72" optype="continuous" dataType="double"/>
		<DataField name="x73" optype="continuous" dataType="double"/>
		<DataField name="x74" optype="continuous" dataType="double"/>
		<DataField name="x75" optype="continuous" dataType="double"/>
		<DataField name="x76" optype="continuous" dataType="double"/>
		<DataField name="x77" optype="continuous" dataType="double"/>
		<DataField name="x78" optype="continuous" dataType="double"/>
		<DataField name="x79" optype="continuous" dataType="double"/>
		<DataField name="x80" optype="continuous" dataType="double"/>
		<DataField name="x81" optype="continuous" dataType="double"/>
		<DataField name="x82" optype="continuous" dataType="double"/>
		<DataField name="x83" optype="continuous" dataType="double"/>
		<DataField name="x84" optype="continuous" dataType="double"/>
		<DataField name="x85" optype="continuous" dataType="double"/>
		<DataField name="x86" optype="continuous" dataType="double"/>
		<DataField name="x87" optype="continuous" dataType="double"/>
		<DataField name="x88" optype="continuous" dataType="double"/>
		<DataField name="x89" optype="continuous" dataType="double"/>
		<DataField name="x90" optype="continuous" dataType="double"/>
		<DataField name="x91" optype="continuous" dataType="double"/>
		<DataField name="x92" optype="continuous" dataType="double"/>
		<DataField name="x93" optype="continuous" dataType="double"/>
		<DataField name="x94" optype="continuous" dataType="double"/>
		<DataField name="x95" optype="continuous" dataType="double"/>
		<DataField name="x96" optype="continuous" dataType="double"/>
		<DataField name="x97" optype="continuous" dataType="double"/>
		<DataField name="x98" optype="continuous" dataType="double"/>
		<DataField name="x99" optype="continuous" dataType="double"/>
		<DataField name="x100" optype="continuous" dataType="double"/>
		<DataField name="x101" optype="continuous" dataType="double"/>
		<DataField name="x102" optype="continuous" dataType="double"/>
		<DataField name="x103" optype="continuous" dataType="double"/>
		<DataField name="x104" optype="continuous" dataType="double"/>
		<DataField name="x105" optype="continuous" dataType="double"/>
		<DataField name="x106" optype="continuous" dataType="double"/>
		<DataField name="x107" optype="continuous" dataType="double"/>
		<DataField name="x108" optype="continuous" dataType="double"/>
		<DataField name="x109" optype="continuous" dataType="double"/>
		<DataField name="x110" optype="continuous" dataType="double"/>
		<DataField name="x111" optype="continuous" dataType="double"/>
		<DataField name="x112" optype="continuous" dataType="double"/>
		<DataField name="x113" optype="continuous" dataType="double"/>
		<DataField name="x114" optype="continuous" dataType="double"/>
		<DataField name="x115" optype="continuous" dataType="double"/>
		<DataField name="x116" optype="continuous" dataType="double"/>
		<DataField name="x117" optype="continuous" dataType="double"/>
		<DataField name="x118" optype="continuous" dataType="double"/>
		<DataField name="x119" optype="continuous" dataType="double"/>
		<DataField name="x120" optype="continuous" dataType="double"/>
		<DataField name="x121" optype="continuous" dataType="double"/>
		<DataField name="x122" optype="continuous" dataType="double"/>
		<DataField name="x123" optype="continuous" dataType="double"/>
		<DataField name="x124" optype="continuous" dataType="double"/>
		<DataField name="x125" optype="continuous" dataType="double"/>
		<DataField name="x126" optype="continuous" dataType="double"/>
		<DataField name="x127" optype="continuous" dataType="double"/>
		<DataField name="x128" optype="continuous" dataType="double"/>
		<DataField name="x129" optype="continuous" dataType="double"/>
		<DataField name="x130" optype="continuous" dataType="double"/>
		<DataField name="x131" optype="continuous" dataType="double"/>
		<DataField name="x132" optype="continuous" dataType="double"/>
		<DataField name="x133" optype="continuous" dataType="double"/>
		<DataField name="x134" optype="continuous" dataType="double"/>
		<DataField name="x135" optype="continuous" dataType="double"/>
		<DataField name="x136" optype="continuous" dataType="double"/>
		<DataField name="x137" optype="continuous" dataType="double"/>
		<DataField name="x138" optype="continuous" dataType="double"/>
		<DataField name="x139" optype="continuous" dataType="double"/>
		<DataField name="x140" optype="continuous" dataType="double"/>
		<DataField name="x141" optype="continuous" dataType="double"/>
		<DataField name="x142" optype="continuous" dataType="double"/>
		<DataField name="x143" optype="continuous" dataType="double"/>
		<DataField name="x144" optype="continuous" dataType="double"/>
		<DataField name="x145" optype="continuous" dataType="double"/>
		<DataField name="x146" optype="continuous" dataType="double"/>
		<DataField name="x147" optype="continuous" dataType="double"/>
		<DataField name="x148" optype="continuous" dataType="double"/>
		<DataField name="x149" optype="continuous" dataType="double"/>
		<DataField name="x150" optype="continuous" dataType="double"/>
		<DataField name="x151" optype="continuous" dataType="double"/>
		<DataField name="x152" optype="continuous" dataType="double"/>
		<DataField name="x153" optype="continuous" dataType="double"/>
		<DataField name="x154" optype="continuous" dataType="double"/>
		<DataField name="x155" optype="continuous" dataType="double"/>
		<DataField name="x156" optype="continuous" dataType="double"/>
		<DataField name="x157" optype="continuous" dataType="double"/>
		<DataField name="x158" optype="continuous" dataType="double"/>
		<DataField name="x159" optype="continuous" dataType="double"/>
		<DataField name="x160" optype="continuous" dataType="double"/>
		<DataField name="x161" optype="continuous" dataType="double"/>
		<DataField name="x162" optype="continuous" dataType="double"/>
		<DataField name="x163" optype="continuous" dataType="double"/>
		<DataField name="x164" optype="continuous" dataType="double"/>
		<DataField name="x165" optype="continuous" dataType="double"/>
		<DataField name="x166" optype="continuous" dataType="double"/>
		<DataField name="x167" optype="continuous" dataType="double"/>
		<DataField name="x168" optype="continuous" dataType="double"/>
		<DataField name="x169" optype="continuous" dataType="double"/>
		<DataField name="x170" optype="continuous" dataType="double"/>
		<DataField name="x171" optype="continuous" dataType="double"/>
		<DataField name="x172" optype="continuous" dataType="double"/>
		<DataField name="x173" optype="continuous" dataType="double"/>
		<DataField name="x174" optype="continuous" dataType="double"/>
		<DataField name="x175" optype="continuous" dataType="double"/>
		<DataField name="x176" optype="continuous" dataType="double"/>
		<DataField name="x177" optype="continuous" dataType="double"/>
		<DataField name="x178" optype="continuous" dataType="double"/>
	</DataDictionary>
	<SupportVectorMachineModel functionName="classification" algorithmName="sklearn.svm._classes.SVC" classificationMethod="OneAgainstOne">
		<MiningSchema>
			<MiningField name="y" usageType="target"/>
			<MiningField name="x1"/>
			<MiningField name="x2"/>
			<MiningField name="x3"/>
			<MiningField name="x4"/>
			<MiningField name="x5"/>
			<MiningField name="x6"/>
			<MiningField name="x7"/>
			<MiningField name="x8"/>
			<MiningField name="x9"/>
			<MiningField name="x10"/>
			<MiningField name="x11"/>
			<MiningField name="x12"/>
			<MiningField name="x13"/>
			<MiningField name="x14"/>
			<MiningField name="x15"/>
			<MiningField name="x16"/>
			<MiningField name="x17"/>
			<MiningField name="x18"/>
			<MiningField name="x19"/>
			<MiningField name="x20"/>
			<MiningField name="x21"/>
			<MiningField name="x22"/>
			<MiningField name="x23"/>
			<MiningField name="x24"/>
			<MiningField name="x25"/>
			<MiningField name="x26"/>
			<MiningField name="x27"/>
			<MiningField name="x28"/>
			<MiningField name="x29"/>
			<MiningField name="x30"/>
			<MiningField name="x31"/>
			<MiningField name="x32"/>
			<MiningField name="x33"/>
			<MiningField name="x34"/>
			<MiningField name="x35"/>
			<MiningField name="x36"/>
			<MiningField name="x37"/>
			<MiningField name="x38"/>
			<MiningField name="x39"/>
			<MiningField name="x40"/>
			<MiningField name="x41"/>
			<MiningField name="x42"/>
			<MiningField name="x43"/>
			<MiningField name="x44"/>
			<MiningField name="x45"/>
			<MiningField name="x46"/>
			<MiningField name="x47"/>
			<MiningField name="x48"/>
			<MiningField name="x49"/>
			<MiningField name="x50"/>
			<MiningField name="x51"/>
			<MiningField name="x52"/>
			<MiningField name="x53"/>
			<MiningField name="x54"/>
			<MiningField name="x55"/>
			<MiningField name="x56"/>
			<MiningField name="x57"/>
			<MiningField name="x58"/>
			<MiningField name="x59"/>
			<MiningField name="x60"/>
			<MiningField name="x61"/>
			<MiningField name="x62"/>
			<MiningField name="x63"/>
			<MiningField name="x64"/>
			<MiningField name="x65"/>
			<MiningField name="x66"/>
			<MiningField name="x67"/>
			<MiningField name="x68"/>
			<MiningField name="x69"/>
			<MiningField name="x70"/>
			<MiningField name="x71"/>
			<MiningField name="x72"/>
			<MiningField name="x73"/>
			<MiningField name="x74"/>
			<MiningField name="x75"/>
			<MiningField name="x76"/>
			<MiningField name="x77"/>
			<MiningField name="x78"/>
			<MiningField name="x79"/>
			<MiningField name="x80"/>
			<MiningField name="x81"/>
			<MiningField name="x82"/>
			<MiningField name="x83"/>
			<MiningField name="x84"/>
			<MiningField name="x85"/>
			<MiningField name="x86"/>
			<MiningField name="x87"/>
			<MiningField name="x88"/>
			<MiningField name="x89"/>
			<MiningField name="x90"/>
			<MiningField name="x91"/>
			<MiningField name="x92"/>
			<MiningField name="x93"/>
			<MiningField name="x94"/>
			<MiningField name="x95"/>
			<MiningField name="x96"/>
			<MiningField name="x97"/>
			<MiningField name="x98"/>
			<MiningField name="x99"/>
			<MiningField name="x100"/>
			<MiningField name="x101"/>
			<MiningField name="x102"/>
			<MiningField name="x103"/>
			<MiningField name="x104"/>
			<MiningField name="x105"/>
			<MiningField name="x106"/>
			<MiningField name="x107"/>
			<MiningField name="x108"/>
			<MiningField name="x109"/>
			<MiningField name="x110"/>
			<MiningField name="x111"/>
			<MiningField name="x112"/>
			<MiningField name="x113"/>
			<MiningField name="x114"/>
			<MiningField name="x115"/>
			<MiningField name="x116"/>
			<MiningField name="x117"/>
			<MiningField name="x118"/>
			<MiningField name="x119"/>
			<MiningField name="x120"/>
			<MiningField name="x121"/>
			<MiningField name="x122"/>
			<MiningField name="x123"/>
			<MiningField name="x124"/>
			<MiningField name="x125"/>
			<MiningField name="x126"/>
			<MiningField name="x127"/>
			<MiningField name="x128"/>
			<MiningField name="x129"/>
			<MiningField name="x130"/>
			<MiningField name="x131"/>
			<MiningField name="x132"/>
			<MiningField name="x133"/>
			<MiningField name="x134"/>
			<MiningField name="x135"/>
			<MiningField name="x136"/>
			<MiningField name="x137"/>
			<MiningField name="x138"/>
			<MiningField name="x139"/>
			<MiningField name="x140"/>
			<MiningField name="x141"/>
			<MiningField name="x142"/>
			<MiningField name="x143"/>
			<MiningField name="x144"/>
			<MiningField name="x145"/>
			<MiningField name="x146"/>
			<MiningField name="x147"/>
			<MiningField name="x148"/>
			<MiningField name="x149"/>
			<MiningField name="x150"/>
			<MiningField name="x151"/>
			<MiningField name="x152"/>
			<MiningField name="x153"/>
			<MiningField name="x154"/>
			<MiningField name="x155"/>
			<MiningField name="x156"/>
			<MiningField name="x157"/>
			<MiningField name="x158"/>
			<MiningField name="x159"/>
			<MiningField name="x160"/>
			<MiningField name="x161"/>
			<MiningField name="x162"/>
			<MiningField name="x163"/>
			<MiningField name="x164"/>
			<MiningField name="x165"/>
			<MiningField name="x166"/>
			<MiningField name="x167"/>
			<MiningField name="x168"/>
			<MiningField name="x169"/>
			<MiningField name="x170"/>
			<MiningField name="x171"/>
			<MiningField name="x172"/>
			<MiningField name="x173"/>
			<MiningField name="x174"/>
			<MiningField name="x175"/>
			<MiningField name="x176"/>
			<MiningField name="x177"/>
			<MiningField name="x178"/>
		</MiningSchema>
		<RadialBasisKernelType gamma="2.0738794585145188E-7"/>
		<VectorDictionary>
			<VectorFields>
				<FieldRef field="x1"/>
				<FieldRef field="x2"/>
				<FieldRef field="x3"/>
				<FieldRef field="x4"/>
				<FieldRef field="x5"/>
				<FieldRef field="x6"/>
				<FieldRef field="x7"/>
				<FieldRef field="x8"/>
				<FieldRef field="x9"/>
				<FieldRef field="x10"/>
				<FieldRef field="x11"/>
				<FieldRef field="x12"/>
				<FieldRef field="x13"/>
				<FieldRef field="x14"/>
				<FieldRef field="x15"/>
				<FieldRef field="x16"/>
				<FieldRef field="x17"/>
				<FieldRef field="x18"/>
				<FieldRef field="x19"/>
				<FieldRef field="x20"/>
				<FieldRef field="x21"/>
				<FieldRef field="x22"/>
				<FieldRef field="x23"/>
				<FieldRef field="x24"/>
				<FieldRef field="x25"/>
				<FieldRef field="x26"/>
				<FieldRef field="x27"/>
				<FieldRef field="x28"/>
				<FieldRef field="x29"/>
				<FieldRef field="x30"/>
				<FieldRef field="x31"/>
				<FieldRef field="x32"/>
				<FieldRef field="x33"/>
				<FieldRef field="x34"/>
				<FieldRef field="x35"/>
				<FieldRef field="x36"/>
				<FieldRef field="x37"/>
				<FieldRef field="x38"/>
				<FieldRef field="x39"/>
				<FieldRef field="x40"/>
				<FieldRef field="x41"/>
				<FieldRef field="x42"/>
				<FieldRef field="x43"/>
				<FieldRef field="x44"/>
				<FieldRef field="x45"/>
				<FieldRef field="x46"/>
				<FieldRef field="x47"/>
				<FieldRef field="x48"/>
				<FieldRef field="x49"/>
				<FieldRef field="x50"/>
				<FieldRef field="x51"/>
				<FieldRef field="x52"/>
				<FieldRef field="x53"/>
				<FieldRef field="x54"/>
				<FieldRef field="x55"/>
				<FieldRef field="x56"/>
				<FieldRef field="x57"/>
				<FieldRef field="x58"/>
				<FieldRef field="x59"/>
				<FieldRef field="x60"/>
				<FieldRef field="x61"/>
				<FieldRef field="x62"/>
				<FieldRef field="x63"/>
				<FieldRef field="x64"/>
				<FieldRef field="x65"/>
				<FieldRef field="x66"/>
				<FieldRef field="x67"/>
				<FieldRef field="x68"/>
				<FieldRef field="x69"/>
				<FieldRef field="x70"/>
				<FieldRef field="x71"/>
				<FieldRef field="x72"/>
				<FieldRef field="x73"/>
				<FieldRef field="x74"/>
				<FieldRef field="x75"/>
				<FieldRef field="x76"/>
				<FieldRef field="x77"/>
				<FieldRef field="x78"/>
				<FieldRef field="x79"/>
				<FieldRef field="x80"/>
				<FieldRef field="x81"/>
				<FieldRef field="x82"/>
				<FieldRef field="x83"/>
				<FieldRef field="x84"/>
				<FieldRef field="x85"/>
				<FieldRef field="x86"/>
				<FieldRef field="x87"/>
				<FieldRef field="x88"/>
				<FieldRef field="x89"/>
				<FieldRef field="x90"/>
				<FieldRef field="x91"/>
				<FieldRef field="x92"/>
				<FieldRef field="x93"/>
				<FieldRef field="x94"/>
				<FieldRef field="x95"/>
				<FieldRef field="x96"/>
				<FieldRef field="x97"/>
				<FieldRef field="x98"/>
				<FieldRef field="x99"/>
				<FieldRef field="x100"/>
				<FieldRef field="x101"/>
				<FieldRef field="x102"/>
				<FieldRef field="x103"/>
				<FieldRef field="x104"/>
				<FieldRef field="x105"/>
				<FieldRef field="x106"/>
				<FieldRef field="x107"/>
				<FieldRef field="x108"/>
				<FieldRef field="x109"/>
				<FieldRef field="x110"/>
				<FieldRef field="x111"/>
				<FieldRef field="x112"/>
				<FieldRef field="x113"/>
				<FieldRef field="x114"/>
				<FieldRef field="x115"/>
				<FieldRef field="x116"/>
				<FieldRef field="x117"/>
				<FieldRef field="x118"/>
				<FieldRef field="x119"/>
				<FieldRef field="x120"/>
				<FieldRef field="x121"/>
				<FieldRef field="x122"/>
				<FieldRef field="x123"/>
				<FieldRef field="x124"/>
				<FieldRef field="x125"/>
				<FieldRef field="x126"/>
				<FieldRef field="x127"/>
				<FieldRef field="x128"/>
				<FieldRef field="x129"/>
				<FieldRef field="x130"/>
				<FieldRef field="x131"/>
				<FieldRef field="x132"/>
				<FieldRef field="x133"/>
				<FieldRef field="x134"/>
				<FieldRef field="x135"/>
				<FieldRef field="x136"/>
				<FieldRef field="x137"/>
				<FieldRef field="x138"/>
				<FieldRef field="x139"/>
				<FieldRef field="x140"/>
				<FieldRef field="x141"/>
				<FieldRef field="x142"/>
				<FieldRef field="x143"/>
				<FieldRef field="x144"/>
				<FieldRef field="x145"/>
				<FieldRef field="x146"/>
				<FieldRef field="x147"/>
				<FieldRef field="x148"/>
				<FieldRef field="x149"/>
				<FieldRef field="x150"/>
				<FieldRef field="x151"/>
				<FieldRef field="x152"/>
				<FieldRef field="x153"/>
				<FieldRef field="x154"/>
				<FieldRef field="x155"/>
				<FieldRef field="x156"/>
				<FieldRef field="x157"/>
				<FieldRef field="x158"/>
				<FieldRef field="x159"/>
				<FieldRef field="x160"/>
				<FieldRef field="x161"/>
				<FieldRef field="x162"/>
				<FieldRef field="x163"/>
				<FieldRef field="x164"/>
				<FieldRef field="x165"/>
				<FieldRef field="x166"/>
				<FieldRef field="x167"/>
				<FieldRef field="x168"/>
				<FieldRef field="x169"/>
				<FieldRef field="x170"/>
				<FieldRef field="x171"/>
				<FieldRef field="x172"/>
				<FieldRef field="x173"/>
				<FieldRef field="x174"/>
				<FieldRef field="x175"/>
				<FieldRef field="x176"/>
				<FieldRef field="x177"/>
				<FieldRef field="x178"/>
			</VectorFields>
			<VectorInstance id="0">
				<Array type="real">135.0 190.0 229.0 223.0 192.0 125.0 55.0 -9.0 -33.0 -38.0 -10.0 35.0 64.0 113.0 152.0 164.0 127.0 50.0 -47.0 -121.0 -138.0 -125.0 -101.0 -50.0 11.0 39.0 24.0 48.0 64.0 46.0 13.0 -19.0 -61.0 -96.0 -130.0 -132.0 -116.0 -115.0 -71.0 -14.0 25.0 19.0 6.0 9.0 21.0 13.0 -37.0 -58.0 -33.0 5.0 47.0 80.0 101.0 88.0 73.0 69.0 41.0 -13.0 -31.0 -61.0 -80.0 -77.0 -66.0 -43.0 5.0 87.0 129.0 121.0 88.0 12.0 -76.0 -150.0 -207.0 -186.0 -165.0 -148.0 -103.0 -33.0 40.0 94.0 75.0 8.0 -81.0 -155.0 -227.0 -262.0 -233.0 -218.0 -187.0 -126.0 -65.0 -12.0 27.0 61.0 49.0 9.0 -46.0 -124.0 -210.0 -281.0 -265.0 -181.0 -89.0 -4.0 53.0 53.0 38.0 43.0 31.0 34.0 9.0 -7.0 -34.0 -70.0 -84.0 -101.0 -70.0 -11.0 42.0 62.0 66.0 74.0 64.0 59.0 56.0 36.0 -11.0 -30.0 -43.0 -23.0 8.0 42.0 77.0 103.0 135.0 121.0 79.0 59.0 43.0 54.0 90.0 111.0 107.0 64.0 32.0 18.0 -25.0 -69.0 -65.0 -44.0 -33.0 -57.0 -88.0 -114.0 -130.0 -114.0 -83.0 -53.0 -79.0 -72.0 -85.0 -109.0 -98.0 -72.0 -65.0 -63.0 -11.0 10.0 8.0 -17.0 -15.0 -31.0 -77.0 -103.0 -127.0 -116.0 -83.0 -51.0</Array>
			</VectorInstance>
			<VectorInstance id="12">
				<Array type="real">92.0 49.0 0.0 -32.0 -51.0 -65.0 -37.0 -19.0 -25.0 -29.0 -52.0 -62.0 -85.0 -107.0 -97.0 -69.0 -46.0 -37.0 -48.0 -59.0 -58.0 -61.0 -83.0 -127.0 -147.0 -165.0 -175.0 -183.0 -218.0 -259.0 -298.0 -275.0 -243.0 -214.0 -239.0 -258.0 -283.0 -285.0 -271.0 -262.0 -250.0 -237.0 -211.0 -193.0 -189.0 -183.0 -174.0 -170.0 -164.0 -182.0 -165.0 -153.0 -116.0 -87.0 -68.0 -48.0 -44.0 -71.0 -95.0 -103.0 -94.0 -79.0 -62.0 -59.0 -59.0 -52.0 -58.0 -49.0 -70.0 -59.0 -53.0 -55.0 -54.0 -63.0 -43.0 -24.0 6.0 28.0 48.0 74.0 98.0 92.0 103.0 89.0 97.0 62.0 19.0 -11.0 -46.0 -59.0 -43.0 -37.0 -30.0 -22.0 -26.0 -42.0 -53.0 -71.0 -40.0 -13.0 28.0 23.0 22.0 12.0 -5.0 -25.0 -78.0 -85.0 -104.0 -106.0 -85.0 -96.0 -62.0 -72.0 -71.0 -57.0 -37.0 -34.0 -23.0 -31.0 -25.0 -14.0 14.0 18.0 18.0 11.0 -9.0 -34.0 -46.0 -73.0 -65.0 -82.0 -66.0 -59.0 -75.0 -67.0 -77.0 -92.0 -73.0 -40.0 -19.0 -14.0 -8.0 2.0 39.0 40.0 31.0 20.0 22.0 32.0 25.0 5.0 -17.0 -3.0 5.0 24.0 22.0 13.0 3.0 -11.0 -23.0 -39.0 -43.0 -32.0 -18.0 -30.0 -51.0 -72.0 -80.0 -56.0 -41.0 -40.0 -43.0 -32.0 -13.0 -1.0 -7.0 -44.0</Array>
			</VectorInstance>
			<VectorInstance id="19">
				<Array type="real">4.0 24.0 51.0 76.0 92.0 102.0 104.0 101.0 90.0 80.0 53.0 32.0 9.0 5.0 17.0 42.0 72.0 94.0 103.0 106.0 107.0 106.0 93.0 83.0 77.0 79.0 84.0 88.0 95.0 100.0 96.0 91.0 77.0 61.0 41.0 17.0 -4.0 -25.0 -46.0 -69.0 -89.0 -111.0 -153.0 -190.0 -220.0 -235.0 -236.0 -221.0 -184.0 -129.0 -77.0 -36.0 -2.0 10.0 8.0 0.0 -11.0 -21.0 -27.0 -33.0 -40.0 -47.0 -59.0 -64.0 -69.0 -68.0 -67.0 -68.0 -67.0 -71.0 -80.0 -89.0 -96.0 -97.0 -96.0 -92.0 -85.0 -65.0 -43.0 -16.0 0.0 5.0 9.0 14.0 13.0 19.0 11.0 20.0 19.0 22.0 24.0 23.0 20.0 15.0 11.0 11.0 16.0 22.0 31.0 37.0 42.0 43.0 40.0 41.0 39.0 41.0 39.0 40.0 38.0 32.0 26.0 16.0 5.0 -5.0 -12.0 -23.0 -30.0 -40.0 -56.0 -77.0 -107.0 -138.0 -170.0 -198.0 -220.0 -234.0 -232.0 -220.0 -195.0 -173.0 -148.0 -122.0 -103.0 -86.0 -76.0 -63.0 -50.0 -30.0 -15.0 -4.0 0.0 -12.0 -16.0 -31.0 -36.0 -37.0 -36.0 -37.0 -30.0 -30.0 -31.0 -32.0 -44.0 -48.0 -59.0 -62.0 -62.0 -47.0 -29.0 -13.0 4.0 5.0 13.0 13.0 14.0 17.0 11.0 7.0 2.0 3.0 5.0 10.0 19.0 31.0 36.0 40.0 43.0 36.0</Array>
			</VectorInstance>
			<VectorInstance id="67">
				<Array type="real">-4.0 -17.0 -30.0 -35.0 -34.0 -30.0 -21.0 -15.0 -8.0 -7.0 -9.0 -8.0 -4.0 3.0 15.0 19.0 23.0 20.0 18.0 22.0 28.0 34.0 31.0 34.0 27.0 22.0 13.0 19.0 36.0 49.0 47.0 41.0 32.0 24.0 15.0 0.0 -8.0 -19.0 -22.0 -23.0 -33.0 -44.0 -52.0 -61.0 -64.0 -56.0 -48.0 -31.0 -17.0 -2.0 14.0 24.0 37.0 47.0 57.0 61.0 68.0 66.0 65.0 62.0 60.0 47.0 41.0 36.0 39.0 40.0 43.0 46.0 53.0 44.0 45.0 37.0 34.0 32.0 33.0 27.0 18.0 9.0 6.0 -1.0 -12.0 -17.0 -23.0 -20.0 -12.0 -3.0 -1.0 14.0 17.0 19.0 20.0 24.0 23.0 24.0 27.0 19.0 15.0 8.0 16.0 8.0 14.0 18.0 36.0 45.0 47.0 22.0 -10.0 -33.0 -32.0 -22.0 -13.0 -21.0 -38.0 -51.0 -68.0 -71.0 -84.0 -96.0 -108.0 -120.0 -122.0 -119.0 -93.0 -70.0 -28.0 21.0 -26.0 -48.0 -133.0 -162.0 -214.0 -280.0 -272.0 -231.0 -181.0 -149.0 -144.0 -155.0 -173.0 -183.0 -192.0 -195.0 -196.0 -198.0 -204.0 -211.0 -222.0 -233.0 -244.0 -252.0 -252.0 -259.0 -269.0 -277.0 -281.0 -282.0 -276.0 -270.0 -265.0 -261.0 -253.0 -245.0 -232.0 -218.0 -202.0 -187.0 -174.0 -156.0 -140.0 -123.0 -107.0 -92.0 -82.0 -71.0 -59.0 -48.0 -40.0 -32.0</Array>
			</VectorInstance>
			<VectorInstance id="80">
				<Array type="real">-38.0 -93.0 -128.0 -135.0 -115.0 -106.0 -85.0 -37.0 -7.0 32.0 41.0 32.0 1.0 -21.0 -44.0 -66.0 -94.0 -121.0 -124.0 -128.0 -106.0 -64.0 -15.0 34.0 56.0 47.0 -8.0 -33.0 -38.0 -51.0 -52.0 -26.0 -10.0 1.0 45.0 97.0 153.0 152.0 145.0 95.0 35.0 -25.0 -79.0 -123.0 -148.0 -121.0 -83.0 -50.0 12.0 93.0 118.0 103.0 55.0 -39.0 -136.0 -197.0 -222.0 -241.0 -217.0 -150.0 -97.0 -64.0 -36.0 2.0 -7.0 -14.0 -30.0 -81.0 -134.0 -152.0 -143.0 -121.0 -85.0 -66.0 -20.0 -9.0 4.0 -6.0 -43.0 -72.0 -74.0 -80.0 -60.0 -53.0 -22.0 -13.0 -21.0 -19.0 -28.0 -37.0 -27.0 -28.0 -30.0 -35.0 -24.0 -31.0 -65.0 -68.0 -70.0 -72.0 -68.0 -57.0 -82.0 -110.0 -89.0 -69.0 -58.0 -29.0 -9.0 -30.0 -71.0 -75.0 -70.0 -59.0 -64.0 -68.0 -81.0 -114.0 -125.0 -131.0 -117.0 -104.0 -79.0 -69.0 -87.0 -82.0 -87.0 -111.0 -133.0 -156.0 -152.0 -141.0 -127.0 -138.0 -146.0 -153.0 -120.0 -100.0 -73.0 -71.0 -95.0 -109.0 -104.0 -73.0 -52.0 -42.0 -35.0 -47.0 -53.0 -17.0 27.0 48.0 62.0 83.0 72.0 16.0 -5.0 -36.0 -61.0 -77.0 -82.0 -68.0 -63.0 -80.0 -122.0 -136.0 -128.0 -112.0 -99.0 -89.0 -68.0 -54.0 -67.0 -55.0 -27.0 -11.0 -15.0 -37.0</Array>
			</VectorInstance>
			<VectorInstance id="84">
				<Array type="real">-3.0 -29.0 -50.0 -64.0 -87.0 -99.0 -119.0 -131.0 -140.0 -130.0 -123.0 -139.0 -169.0 -207.0 -229.0 -224.0 -216.0 -278.0 -303.0 -365.0 -313.0 -235.0 -143.0 -70.0 -43.0 -33.0 -24.0 -2.0 11.0 18.0 17.0 4.0 -2.0 4.0 11.0 23.0 38.0 71.0 94.0 117.0 126.0 129.0 120.0 113.0 91.0 54.0 27.0 9.0 11.0 4.0 3.0 1.0 1.0 1.0 7.0 16.0 13.0 12.0 10.0 -6.0 -3.0 -3.0 0.0 -4.0 -29.0 -64.0 -97.0 -118.0 -116.0 -108.0 -99.0 -74.0 -69.0 -72.0 -99.0 -103.0 -102.0 -71.0 -27.0 14.0 49.0 69.0 96.0 114.0 128.0 143.0 145.0 146.0 140.0 140.0 129.0 -93.0 -254.0 -443.0 -427.0 -263.0 -168.0 -3.0 325.0 550.0 573.0 377.0 153.0 64.0 74.0 102.0 129.0 168.0 202.0 229.0 250.0 264.0 287.0 313.0 338.0 347.0 361.0 367.0 358.0 350.0 340.0 334.0 328.0 320.0 313.0 300.0 290.0 297.0 300.0 310.0 314.0 304.0 279.0 247.0 226.0 213.0 200.0 194.0 183.0 172.0 157.0 157.0 152.0 158.0 165.0 166.0 160.0 148.0 149.0 148.0 153.0 168.0 168.0 164.0 153.0 145.0 127.0 114.0 105.0 90.0 64.0 46.0 34.0 20.0 19.0 18.0 24.0 32.0 46.0 74.0 91.0 119.0 144.0 157.0 149.0 123.0 91.0 48.0</Array>
			</VectorInstance>
			<VectorInstance id="96">
				<Array type="real">-10.0 -66.0 -85.0 -72.0 -24.0 32.0 116.0 189.0 207.0 195.0 151.0 78.0 19.0 -37.0 -101.0 -141.0 -169.0 -153.0 -139.0 -94.0 -40.0 -1.0 37.0 52.0 30.0 -8.0 -43.0 -42.0 -37.0 -32.0 -28.0 -11.0 -34.0 -65.0 -86.0 -102.0 -122.0 -135.0 -86.0 -48.0 -11.0 34.0 66.0 79.0 93.0 79.0 28.0 -45.0 -134.0 -181.0 -191.0 -177.0 -156.0 -154.0 -146.0 -101.0 -36.0 16.0 50.0 48.0 45.0 20.0 -31.0 -108.0 -163.0 -190.0 -207.0 -205.0 -180.0 -113.0 -13.0 72.0 120.0 117.0 57.0 -3.0 -54.0 -126.0 -217.0 -226.0 -205.0 -170.0 -120.0 -67.0 -21.0 -3.0 18.0 -6.0 -44.0 -74.0 -74.0 -61.0 -62.0 -56.0 -76.0 -66.0 -47.0 -42.0 -42.0 -20.0 3.0 17.0 45.0 83.0 112.0 95.0 65.0 41.0 14.0 -7.0 -1.0 17.0 30.0 62.0 94.0 76.0 64.0 52.0 35.0 10.0 -10.0 -19.0 -70.0 -75.0 -49.0 -41.0 -53.0 -37.0 -25.0 -1.0 24.0 16.0 -21.0 -80.0 -89.0 -88.0 -98.0 -120.0 -102.0 -86.0 -96.0 -112.0 -133.0 -157.0 -182.0 -196.0 -215.0 -210.0 -169.0 -150.0 -175.0 -187.0 -188.0 -153.0 -125.0 -95.0 -91.0 -104.0 -122.0 -106.0 -73.0 -79.0 -70.0 -57.0 -41.0 -20.0 -4.0 21.0 51.0 102.0 122.0 87.0 35.0 0.0 -20.0 -9.0 3.0 17.0</Array>
			</VectorInstance>
			<VectorInstance id="103">
				<Array type="real">45.0 41.0 30.0 17.0 10.0 -1.0 -2.0 -5.0 -2.0 -3.0 -5.0 -5.0 -9.0 -11.0 -12.0 -20.0 -26.0 -35.0 -44.0 -52.0 -53.0 -48.0 -39.0 -36.0 -36.0 -35.0 -42.0 -46.0 -46.0 -43.0 -47.0 -50.0 -51.0 -48.0 -50.0 -50.0 -56.0 -63.0 -63.0 -64.0 -71.0 -67.0 -60.0 -45.0 -33.0 -21.0 -9.0 -3.0 1.0 -1.0 -6.0 -10.0 -13.0 -13.0 -9.0 -3.0 13.0 104.0 230.0 394.0 519.0 562.0 573.0 546.0 485.0 411.0 343.0 292.0 252.0 214.0 195.0 181.0 176.0 172.0 160.0 145.0 136.0 133.0 135.0 141.0 152.0 157.0 156.0 149.0 139.0 125.0 113.0 95.0 79.0 57.0 40.0 20.0 0.0 -15.0 -26.0 -29.0 -36.0 -37.0 -46.0 -53.0 -63.0 -67.0 -79.0 -97.0 -112.0 -126.0 -141.0 -150.0 -159.0 -169.0 -183.0 -195.0 -204.0 -213.0 -217.0 -215.0 -212.0 -212.0 -209.0 -217.0 -227.0 -235.0 -242.0 -250.0 -259.0 -266.0 -266.0 -268.0 -269.0 -267.0 -271.0 -274.0 -277.0 -273.0 -272.0 -267.0 -260.0 -257.0 -253.0 -247.0 -248.0 -249.0 -250.0 -242.0 -243.0 -243.0 -245.0 -243.0 -238.0 -230.0 -217.0 -207.0 -189.0 -172.0 -158.0 -157.0 -157.0 -158.0 -159.0 -160.0 -156.0 -164.0 -175.0 -180.0 -185.0 -186.0 -181.0 -171.0 -159.0 -148.0 -134.0 -126.0 -120.0 -115.0 -113.0 -111.0 -115.0 -117.0</Array>
			</VectorInstance>
			<VectorInstance id="108">
				<Array type="real">-57.0 -63.0 -55.0 -57.0 -43.0 -24.0 -5.0 13.0 21.0 24.0 40.0 57.0 71.0 81.0 90.0 82.0 75.0 64.0 68.0 67.0 68.0 58.0 44.0 35.0 26.0 29.0 39.0 50.0 55.0 56.0 54.0 62.0 70.0 67.0 62.0 47.0 36.0 21.0 4.0 -12.0 -39.0 -64.0 -89.0 -116.0 -145.0 -178.0 -192.0 -195.0 -194.0 -195.0 -208.0 -218.0 -226.0 -228.0 -227.0 -213.0 -200.0 -188.0 -175.0 -158.0 -136.0 -125.0 -112.0 -90.0 -68.0 -45.0 -24.0 -14.0 10.0 35.0 66.0 89.0 105.0 114.0 123.0 128.0 125.0 117.0 117.0 120.0 130.0 135.0 129.0 132.0 132.0 142.0 144.0 143.0 143.0 150.0 168.0 185.0 193.0 197.0 201.0 195.0 199.0 192.0 188.0 183.0 182.0 188.0 188.0 181.0 173.0 167.0 169.0 173.0 192.0 213.0 232.0 240.0 227.0 213.0 193.0 180.0 170.0 161.0 168.0 170.0 170.0 171.0 167.0 157.0 129.0 105.0 90.0 88.0 93.0 85.0 75.0 50.0 40.0 39.0 37.0 26.0 12.0 -2.0 4.0 20.0 33.0 40.0 31.0 24.0 16.0 17.0 22.0 16.0 -1.0 -8.0 -11.0 -4.0 11.0 14.0 2.0 -20.0 -23.0 -28.0 -28.0 -25.0 -29.0 -34.0 -57.0 -68.0 -70.0 -67.0 -64.0 -61.0 -60.0 -63.0 -69.0 -71.0 -71.0 -71.0 -85.0 -96.0 -101.0 -100.0</Array>
			</VectorInstance>
			<VectorInstance id="136">
				<Array type="real">-82.0 -98.0 -115.0 -122.0 -117.0 -103.0 -89.0 -77.0 -86.0 -133.0 -163.0 -157.0 -78.0 146.0 489.0 769.0 976.0 1012.0 994.0 953.0 877.0 800.0 725.0 668.0 622.0 562.0 498.0 434.0 390.0 350.0 329.0 309.0 285.0 260.0 230.0 209.0 183.0 168.0 157.0 141.0 122.0 99.0 78.0 52.0 38.0 28.0 22.0 8.0 -7.0 -23.0 -39.0 -54.0 -64.0 -73.0 -88.0 -99.0 -105.0 -117.0 -120.0 -123.0 -128.0 -143.0 -155.0 -170.0 -183.0 -196.0 -204.0 -206.0 -208.0 -202.0 -201.0 -200.0 -194.0 -190.0 -191.0 -197.0 -193.0 -192.0 -191.0 -183.0 -177.0 -170.0 -174.0 -175.0 -181.0 -184.0 -183.0 -177.0 -172.0 -172.0 -169.0 -169.0 -173.0 -177.0 -178.0 -183.0 -184.0 -181.0 -182.0 -186.0 -193.0 -192.0 -199.0 -210.0 -221.0 -238.0 -261.0 -280.0 -290.0 -294.0 -287.0 -270.0 -254.0 -237.0 -225.0 -213.0 -214.0 -213.0 -219.0 -224.0 -230.0 -232.0 -227.0 -226.0 -221.0 -217.0 -215.0 -212.0 -209.0 -200.0 -190.0 -176.0 -159.0 -150.0 -149.0 -146.0 -146.0 -147.0 -144.0 -139.0 -136.0 -139.0 -132.0 -134.0 -137.0 -141.0 -141.0 -143.0 -150.0 -149.0 -155.0 -161.0 -173.0 -184.0 -203.0 -222.0 -234.0 -239.0 -236.0 -227.0 -210.0 -196.0 -184.0 -174.0 -167.0 -168.0 -160.0 -141.0 -115.0 -47.0 100.0 383.0 666.0 867.0 919.0 864.0 819.0 773.0</Array>
			</VectorInstance>
			<VectorInstance id="170">
				<Array type="real">88.0 91.0 48.0 -3.0 -55.0 -87.0 -104.0 -114.0 -106.0 -62.0 -13.0 35.0 67.0 99.0 136.0 146.0 115.0 42.0 -46.0 -113.0 -156.0 -166.0 -163.0 -139.0 -119.0 -91.0 -62.0 -19.0 23.0 48.0 74.0 77.0 89.0 79.0 47.0 -24.0 -109.0 -157.0 -176.0 -151.0 -95.0 -41.0 14.0 47.0 76.0 97.0 104.0 105.0 102.0 92.0 87.0 77.0 49.0 5.0 -48.0 -96.0 -115.0 -99.0 -46.0 21.0 83.0 132.0 144.0 109.0 48.0 -10.0 -49.0 -76.0 -84.0 -76.0 -75.0 -62.0 -45.0 -9.0 23.0 51.0 67.0 53.0 8.0 -45.0 -87.0 -118.0 -121.0 -116.0 -116.0 -108.0 -101.0 -89.0 -72.0 -20.0 45.0 107.0 140.0 124.0 70.0 -7.0 -70.0 -101.0 -105.0 -74.0 -29.0 32.0 94.0 165.0 219.0 228.0 183.0 90.0 -29.0 -135.0 -195.0 -212.0 -196.0 -167.0 -119.0 -79.0 -9.0 62.0 120.0 153.0 150.0 131.0 82.0 26.0 -23.0 -77.0 -122.0 -141.0 -113.0 -53.0 38.0 134.0 210.0 237.0 216.0 155.0 65.0 -14.0 -89.0 -155.0 -203.0 -205.0 -167.0 -109.0 -48.0 13.0 65.0 98.0 121.0 131.0 114.0 91.0 48.0 8.0 -27.0 -44.0 -44.0 -37.0 -8.0 37.0 72.0 94.0 122.0 140.0 145.0 119.0 108.0 96.0 82.0 50.0 -22.0 -97.0 -140.0 -142.0 -99.0 -42.0 20.0 63.0</Array>
			</VectorInstance>
			<VectorInstance id="195">
				<Array type="real">-183.0 -183.0 -182.0 -180.0 -183.0 -176.0 -168.0 -166.0 -171.0 -181.0 -188.0 -202.0 -209.0 -217.0 -219.0 -223.0 -216.0 -202.0 -188.0 -169.0 -156.0 -144.0 -140.0 -132.0 -133.0 -135.0 -137.0 -134.0 -131.0 -134.0 -130.0 -131.0 -131.0 -130.0 -125.0 -121.0 -119.0 -113.0 -114.0 -116.0 -116.0 -107.0 -103.0 -98.0 -91.0 -91.0 -93.0 -95.0 -93.0 -101.0 -102.0 -102.0 -105.0 -108.0 -111.0 -109.0 -116.0 -110.0 -105.0 -101.0 -102.0 -103.0 -99.0 -99.0 -95.0 -91.0 -95.0 -100.0 -110.0 -114.0 -121.0 -123.0 -124.0 -127.0 -127.0 -125.0 -124.0 -127.0 -133.0 -137.0 -137.0 -137.0 -132.0 -124.0 -122.0 -123.0 -122.0 -122.0 -119.0 -110.0 -106.0 -106.0 -111.0 -117.0 -124.0 -127.0 -121.0 -119.0 -119.0 -119.0 -117.0 -113.0 -113.0 -109.0 -110.0 -117.0 -123.0 -122.0 -130.0 -131.0 -129.0 -127.0 -125.0 -121.0 -112.0 -113.0 -102.0 -92.0 -84.0 -78.0 -71.0 -60.0 -64.0 -75.0 -82.0 -80.0 -40.0 109.0 436.0 723.0 974.0 1040.0 1013.0 965.0 881.0 790.0 702.0 634.0 575.0 506.0 437.0 380.0 336.0 299.0 271.0 242.0 213.0 177.0 162.0 150.0 143.0 138.0 128.0 113.0 90.0 77.0 63.0 54.0 50.0 48.0 41.0 28.0 12.0 -9.0 -35.0 -54.0 -60.0 -61.0 -60.0 -57.0 -58.0 -61.0 -68.0 -68.0 -73.0 -79.0 -80.0 -87.0</Array>
			</VectorInstance>
			<VectorInstance id="251">
				<Array type="real">-566.0 -609.0 -594.0 -549.0 -481.0 -427.0 -385.0 -358.0 -336.0 -309.0 -286.0 -264.0 -271.0 -302.0 -361.0 -418.0 -409.0 -395.0 -436.0 -481.0 -510.0 -453.0 -330.0 -233.0 -188.0 -170.0 -163.0 -150.0 -114.0 -106.0 -69.0 -41.0 10.0 76.0 144.0 182.0 194.0 184.0 158.0 104.0 17.0 -113.0 -242.0 -310.0 -299.0 -249.0 -202.0 -144.0 -66.0 12.0 95.0 171.0 249.0 310.0 361.0 380.0 371.0 338.0 297.0 254.0 212.0 185.0 158.0 145.0 132.0 148.0 166.0 204.0 244.0 265.0 275.0 270.0 272.0 273.0 276.0 286.0 280.0 267.0 245.0 219.0 172.0 119.0 66.0 16.0 -49.0 -104.0 -150.0 -198.0 -229.0 -251.0 -254.0 -249.0 -243.0 -238.0 -236.0 -224.0 -203.0 -181.0 -169.0 -163.0 -166.0 -181.0 -182.0 -182.0 -171.0 -173.0 -186.0 -195.0 -212.0 -228.0 -228.0 -235.0 -229.0 -233.0 -239.0 -263.0 -296.0 -318.0 -315.0 -293.0 -245.0 -214.0 -201.0 -201.0 -194.0 -193.0 -204.0 -198.0 -211.0 -216.0 -236.0 -264.0 -296.0 -313.0 -313.0 -315.0 -331.0 -340.0 -330.0 -317.0 -293.0 -273.0 -242.0 -239.0 -249.0 -259.0 -270.0 -273.0 -271.0 -274.0 -273.0 -249.0 -200.0 -140.0 -70.0 -6.0 54.0 92.0 129.0 156.0 174.0 199.0 222.0 244.0 253.0 253.0 261.0 262.0 261.0 262.0 243.0 219.0 193.0 145.0 79.0 9.0 -26.0 -34.0</Array>
			</VectorInstance>
			<VectorInstance id="262">
				<Array type="real">223.0 200.0 141.0 111.0 151.0 222.0 329.0 351.0 337.0 257.0 177.0 107.0 69.0 63.0 107.0 142.0 193.0 213.0 172.0 153.0 96.0 107.0 79.0 78.0 68.0 119.0 170.0 122.0 115.0 29.0 54.0 2.0 -3.0 1.0 50.0 83.0 149.0 187.0 217.0 216.0 143.0 36.0 4.0 27.0 98.0 152.0 192.0 194.0 188.0 192.0 166.0 143.0 146.0 110.0 97.0 72.0 2.0 -3.0 -32.0 -29.0 -15.0 -3.0 23.0 63.0 118.0 166.0 211.0 175.0 165.0 71.0 40.0 6.0 1.0 20.0 36.0 65.0 45.0 20.0 -72.0 -137.0 -148.0 -121.0 -52.0 22.0 84.0 79.0 20.0 -65.0 -62.0 -12.0 68.0 159.0 157.0 124.0 50.0 16.0 6.0 -28.0 -33.0 -48.0 -14.0 -18.0 -6.0 -26.0 -44.0 -17.0 -16.0 -33.0 -72.0 -105.0 -116.0 -98.0 -60.0 -64.0 -112.0 -140.0 -197.0 -184.0 -150.0 -138.0 -94.0 -111.0 -90.0 -84.0 -91.0 -114.0 -144.0 -142.0 -80.0 -44.0 15.0 6.0 -23.0 -40.0 -54.0 -61.0 -6.0 -2.0 2.0 -7.0 18.0 34.0 61.0 26.0 -9.0 -48.0 -60.0 -42.0 -41.0 -38.0 -44.0 -30.0 -11.0 -10.0 4.0 16.0 49.0 42.0 60.0 66.0 131.0 243.0 298.0 319.0 275.0 227.0 219.0 234.0 235.0 308.0 306.0 318.0 271.0 204.0 136.0 126.0 44.0 51.0</Array>
			</VectorInstance>
			<VectorInstance id="276">
				<Array type="real">-52.0 -4.0 38.0 73.0 93.0 114.0 133.0 146.0 131.0 110.0 90.0 78.0 62.0 54.0 37.0 19.0 -12.0 -46.0 -93.0 -138.0 -160.0 -184.0 -208.0 -236.0 -256.0 -271.0 -287.0 -311.0 -330.0 -370.0 -338.0 -305.0 -218.0 -167.0 -130.0 -113.0 -109.0 -108.0 -107.0 -92.0 -79.0 -43.0 -3.0 46.0 105.0 147.0 173.0 179.0 165.0 128.0 98.0 90.0 102.0 117.0 113.0 91.0 61.0 24.0 -8.0 -39.0 -84.0 -145.0 -196.0 -234.0 -245.0 -261.0 -275.0 -350.0 -425.0 -440.0 -412.0 -315.0 -229.0 -177.0 -172.0 -178.0 -170.0 -108.0 -6.0 111.0 203.0 271.0 309.0 317.0 292.0 243.0 193.0 127.0 61.0 2.0 -16.0 18.0 76.0 163.0 233.0 290.0 323.0 337.0 324.0 296.0 258.0 198.0 116.0 34.0 -51.0 -104.0 -129.0 -117.0 -81.0 -40.0 -2.0 -2.0 -26.0 -72.0 -118.0 -160.0 -187.0 -188.0 -185.0 -183.0 -185.0 -171.0 -149.0 -117.0 -92.0 -78.0 -84.0 -118.0 -169.0 -220.0 -248.0 -259.0 -270.0 -309.0 -353.0 -379.0 -401.0 -399.0 -389.0 -361.0 -358.0 -357.0 -355.0 -349.0 -336.0 -340.0 -324.0 -295.0 -256.0 -221.0 -209.0 -225.0 -243.0 -279.0 -283.0 -262.0 -223.0 -173.0 -136.0 -96.0 -65.0 -36.0 -17.0 -6.0 -5.0 -15.0 -12.0 -8.0 -5.0 -8.0 -30.0 -72.0 -195.0 -263.0 -316.0 -260.0 -158.0 -73.0</Array>
			</VectorInstance>
			<VectorInstance id="298">
				<Array type="real">-11.0 -57.0 -84.0 -109.0 -127.0 -147.0 -167.0 -152.0 -126.0 -97.0 -50.0 7.0 54.0 119.0 172.0 146.0 55.0 -29.0 -97.0 -175.0 -207.0 -191.0 -141.0 -107.0 -74.0 -39.0 -45.0 -28.0 -21.0 -35.0 -77.0 -104.0 -126.0 -147.0 -122.0 -78.0 -1.0 71.0 114.0 147.0 144.0 107.0 47.0 -34.0 -111.0 -126.0 -97.0 -59.0 -20.0 12.0 30.0 43.0 42.0 -3.0 -46.0 -90.0 -169.0 -227.0 -251.0 -216.0 -158.0 -76.0 -11.0 49.0 66.0 66.0 85.0 67.0 9.0 -21.0 -56.0 -74.0 -78.0 -59.0 -91.0 -101.0 -75.0 -58.0 -53.0 -25.0 -13.0 -26.0 -59.0 -73.0 -96.0 -107.0 -69.0 9.0 88.0 166.0 193.0 171.0 81.0 17.0 7.0 16.0 19.0 38.0 71.0 65.0 49.0 42.0 61.0 82.0 80.0 67.0 13.0 -13.0 -35.0 -64.0 -81.0 -63.0 -36.0 4.0 78.0 120.0 150.0 134.0 108.0 44.0 10.0 -6.0 10.0 4.0 -32.0 -34.0 -22.0 2.0 27.0 57.0 43.0 5.0 -49.0 -85.0 -111.0 -94.0 -34.0 6.0 0.0 35.0 26.0 -12.0 -9.0 -5.0 -21.0 -61.0 -80.0 -111.0 -123.0 -95.0 -51.0 -15.0 10.0 7.0 -17.0 -40.0 -71.0 -37.0 -23.0 7.0 21.0 20.0 18.0 4.0 -21.0 -56.0 -46.0 -22.0 -31.0 -66.0 -99.0 -121.0 -140.0 -130.0 -73.0 -56.0 -47.0 -42.0</Array>
			</VectorInstance>
			<VectorInstance id="310">
				<Array type="real">55.0 6.0 -55.0 -105.0 -136.0 -146.0 -144.0 -136.0 -117.0 -87.0 -47.0 -8.0 29.0 51.0 58.0 54.0 40.0 10.0 -40.0 -83.0 -120.0 -130.0 -115.0 -81.0 -36.0 -1.0 31.0 43.0 36.0 17.0 4.0 -8.0 -11.0 -6.0 -15.0 -36.0 -72.0 -92.0 -95.0 -78.0 -41.0 -1.0 46.0 91.0 132.0 142.0 136.0 106.0 50.0 -20.0 -84.0 -127.0 -156.0 -160.0 -153.0 -136.0 -113.0 -78.0 -23.0 29.0 88.0 146.0 177.0 171.0 135.0 88.0 29.0 -29.0 -92.0 -153.0 -195.0 -199.0 -171.0 -133.0 -88.0 -47.0 -5.0 30.0 73.0 107.0 132.0 147.0 142.0 103.0 18.0 -74.0 -164.0 -218.0 -233.0 -216.0 -179.0 -136.0 -90.0 -63.0 -49.0 -41.0 -28.0 -5.0 15.0 28.0 5.0 -51.0 -112.0 -159.0 -186.0 -191.0 -175.0 -150.0 -121.0 -91.0 -63.0 -40.0 -24.0 -24.0 -53.0 -100.0 -146.0 -171.0 -183.0 -169.0 -142.0 -117.0 -98.0 -79.0 -53.0 -29.0 -13.0 6.0 15.0 26.0 25.0 15.0 -33.0 -75.0 -112.0 -140.0 -161.0 -173.0 -177.0 -180.0 -165.0 -138.0 -105.0 -76.0 -49.0 -27.0 -18.0 -9.0 -2.0 2.0 -10.0 -22.0 -37.0 -56.0 -84.0 -115.0 -135.0 -40.0 -17.0 -7.0 0.0 13.0 14.0 3.0 -26.0 -72.0 -125.0 -163.0 -168.0 -152.0 -132.0 -112.0 -96.0 -92.0 -82.0 -69.0 -65.0 -62.0</Array>
			</VectorInstance>
			<VectorInstance id="311">
				<Array type="real">-94.0 -82.0 -74.0 -69.0 -78.0 -87.0 -98.0 -110.0 -120.0 -129.0 -142.0 -156.0 -172.0 -185.0 -202.0 -218.0 -226.0 -231.0 -232.0 -235.0 -237.0 -241.0 -233.0 -217.0 -199.0 -190.0 -183.0 -179.0 -175.0 -171.0 -163.0 -157.0 -152.0 -149.0 -146.0 -147.0 -147.0 -142.0 -134.0 -131.0 -124.0 -121.0 -112.0 -105.0 -97.0 -95.0 -95.0 -87.0 -79.0 -71.0 -68.0 -64.0 -61.0 -56.0 -49.0 -52.0 -60.0 -64.0 -61.0 -58.0 -63.0 -64.0 -68.0 -65.0 -60.0 -50.0 -43.0 -28.0 -14.0 -1.0 10.0 10.0 13.0 12.0 9.0 8.0 7.0 4.0 1.0 -2.0 -12.0 -22.0 -34.0 -45.0 -50.0 -53.0 -49.0 -49.0 -44.0 -33.0 -24.0 -21.0 -19.0 -25.0 -27.0 -30.0 -30.0 -36.0 -41.0 -42.0 -45.0 -43.0 -44.0 -43.0 -41.0 -49.0 -52.0 -62.0 -68.0 -69.0 -60.0 -43.0 -36.0 -28.0 -34.0 -42.0 -43.0 -36.0 -31.0 -24.0 -16.0 -13.0 -1.0 5.0 19.0 21.0 22.0 27.0 34.0 39.0 35.0 32.0 19.0 10.0 4.0 -4.0 -18.0 -32.0 -28.0 -23.0 -13.0 -7.0 -1.0 3.0 16.0 35.0 54.0 73.0 86.0 100.0 108.0 113.0 112.0 106.0 99.0 90.0 78.0 57.0 39.0 27.0 15.0 6.0 2.0 7.0 11.0 22.0 30.0 35.0 44.0 54.0 64.0 86.0 122.0 175.0 272.0 480.0 707.0 865.0</Array>
			</VectorInstance>
			<VectorInstance id="312">
				<Array type="real">9.0 -12.0 -43.0 -66.0 -86.0 -65.0 -27.0 3.0 28.0 55.0 87.0 60.0 7.0 -47.0 -45.0 -57.0 -65.0 -61.0 -59.0 -23.0 47.0 119.0 151.0 151.0 122.0 69.0 10.0 -25.0 -23.0 -11.0 11.0 45.0 72.0 103.0 112.0 81.0 22.0 -40.0 -58.0 -84.0 -110.0 -73.0 -33.0 2.0 54.0 87.0 99.0 101.0 70.0 0.0 -58.0 -87.0 -114.0 -133.0 -102.0 -39.0 5.0 32.0 51.0 34.0 -8.0 -50.0 -99.0 -124.0 -135.0 -108.0 -88.0 -69.0 -61.0 -35.0 -13.0 22.0 61.0 86.0 43.0 -14.0 -66.0 -122.0 -164.0 -178.0 -162.0 -119.0 -58.0 -17.0 -6.0 -15.0 -53.0 -105.0 -145.0 -143.0 -116.0 -105.0 -72.0 -1.0 52.0 79.0 135.0 160.0 142.0 91.0 16.0 -45.0 -58.0 -51.0 -67.0 -90.0 -110.0 -82.0 -32.0 -8.0 20.0 24.0 -12.0 -28.0 -64.0 -63.0 -61.0 -44.0 -61.0 -71.0 -52.0 -30.0 -25.0 -50.0 -64.0 -72.0 -69.0 -54.0 -24.0 -17.0 -11.0 -23.0 -51.0 -89.0 -120.0 -123.0 -130.0 -119.0 -91.0 -69.0 -61.0 -51.0 -10.0 1.0 18.0 14.0 -7.0 -41.0 -51.0 -45.0 -54.0 -64.0 -51.0 -45.0 -23.0 24.0 76.0 79.0 70.0 54.0 -14.0 -100.0 -108.0 -98.0 -94.0 -68.0 -31.0 27.0 102.0 154.0 161.0 115.0 35.0 -33.0 -104.0 -153.0 -115.0 -52.0</Array>
			</VectorInstance>
			<VectorInstance id="340">
				<Array type="real">-37.0 -42.0 -70.0 -105.0 -132.0 -175.0 -176.0 -172.0 -102.0 -36.0 3.0 20.0 -12.0 -55.0 -117.0 -178.0 -239.0 -241.0 -208.0 -174.0 -115.0 -64.0 13.0 46.0 49.0 32.0 -28.0 -47.0 -58.0 -40.0 -19.0 -20.0 11.0 38.0 48.0 56.0 42.0 40.0 52.0 58.0 66.0 49.0 28.0 -16.0 -57.0 -51.0 -45.0 11.0 50.0 97.0 131.0 152.0 132.0 117.0 98.0 85.0 60.0 -33.0 -124.0 -181.0 -171.0 -139.0 -73.0 -37.0 -18.0 -28.0 -38.0 5.0 54.0 132.0 200.0 245.0 248.0 216.0 160.0 100.0 40.0 -9.0 -29.0 -54.0 -55.0 -21.0 11.0 80.0 152.0 193.0 213.0 230.0 237.0 241.0 261.0 235.0 173.0 103.0 17.0 -4.0 -36.0 -62.0 -81.0 -98.0 -75.0 -47.0 -1.0 16.0 38.0 38.0 23.0 -2.0 -39.0 -69.0 -100.0 -100.0 -109.0 -134.0 -121.0 -112.0 -117.0 -132.0 -134.0 -85.0 -12.0 35.0 57.0 56.0 50.0 24.0 -23.0 -56.0 -77.0 -68.0 -74.0 -84.0 -87.0 -78.0 -79.0 -73.0 -71.0 -25.0 40.0 82.0 105.0 93.0 116.0 141.0 120.0 48.0 -63.0 -137.0 -140.0 -127.0 -92.0 -79.0 -73.0 -68.0 -42.0 -24.0 -2.0 39.0 61.0 100.0 140.0 175.0 184.0 191.0 190.0 171.0 165.0 123.0 83.0 26.0 -33.0 -82.0 -123.0 -136.0 -136.0 -109.0 -79.0 -41.0</Array>
			</VectorInstance>
			<VectorInstance id="403">
				<Array type="real">-53.0 -55.0 -43.0 -33.0 -13.0 12.0 26.0 34.0 23.0 14.0 -5.0 -11.0 -13.0 -19.0 -30.0 -40.0 -39.0 -38.0 -30.0 -19.0 -11.0 -4.0 2.0 -40.0 -376.0 -411.0 -491.0 -294.0 -166.0 -40.0 272.0 550.0 647.0 445.0 160.0 -39.0 -50.0 -31.0 -31.0 -10.0 38.0 98.0 148.0 191.0 220.0 229.0 240.0 248.0 248.0 243.0 244.0 231.0 215.0 193.0 177.0 164.0 157.0 157.0 153.0 153.0 138.0 134.0 127.0 126.0 127.0 120.0 110.0 95.0 89.0 79.0 72.0 68.0 64.0 54.0 45.0 38.0 22.0 19.0 17.0 20.0 12.0 6.0 -1.0 -10.0 -8.0 -6.0 -9.0 -32.0 -52.0 -79.0 -97.0 -110.0 -118.0 -125.0 -135.0 -133.0 -127.0 -133.0 -157.0 -204.0 -288.0 -343.0 -362.0 -313.0 -253.0 -197.0 -142.0 -107.0 -79.0 -63.0 -50.0 -56.0 -78.0 -86.0 -90.0 -85.0 -71.0 -64.0 -61.0 -66.0 -55.0 -62.0 -63.0 -61.0 -56.0 -66.0 -87.0 -95.0 -92.0 -64.0 -31.0 -24.0 -33.0 -37.0 -28.0 -24.0 -4.0 12.0 2.0 -9.0 -38.0 -57.0 -85.0 -85.0 -260.0 -439.0 -658.0 -713.0 -596.0 -503.0 -399.0 -262.0 -111.0 -1.0 55.0 39.0 -1.0 -23.0 -12.0 31.0 68.0 108.0 125.0 128.0 121.0 128.0 124.0 127.0 128.0 122.0 104.0 78.0 61.0 35.0 10.0 -13.0 -44.0 -71.0</Array>
			</VectorInstance>
			<VectorInstance id="413">
				<Array type="real">-78.0 -93.0 -117.0 -130.0 -126.0 -66.0 9.0 77.0 143.0 133.0 84.0 36.0 21.0 -16.0 -43.0 -26.0 -13.0 49.0 129.0 194.0 207.0 197.0 163.0 69.0 -35.0 -111.0 -131.0 -140.0 -135.0 -88.0 -35.0 34.0 133.0 183.0 137.0 40.0 -70.0 -177.0 -258.0 -278.0 -309.0 -244.0 -135.0 -64.0 -27.0 25.0 121.0 181.0 226.0 233.0 189.0 106.0 22.0 -10.0 -25.0 -32.0 -36.0 -42.0 -59.0 -64.0 -45.0 -42.0 -38.0 -14.0 7.0 -10.0 -3.0 12.0 4.0 -11.0 -22.0 -26.0 -22.0 -3.0 21.0 28.0 53.0 47.0 59.0 51.0 87.0 105.0 76.0 35.0 -29.0 -67.0 -82.0 -58.0 -40.0 -32.0 -18.0 10.0 25.0 13.0 -34.0 -97.0 -144.0 -159.0 -123.0 -82.0 -66.0 -23.0 9.0 13.0 -24.0 -15.0 -15.0 -48.0 -83.0 -109.0 -138.0 -168.0 -171.0 -121.0 -42.0 47.0 103.0 85.0 23.0 -10.0 -25.0 -35.0 -24.0 -37.0 -68.0 -42.0 -16.0 -22.0 -55.0 -68.0 -71.0 -66.0 -33.0 88.0 193.0 272.0 313.0 267.0 170.0 84.0 0.0 -47.0 -81.0 -87.0 -34.0 -24.0 -19.0 3.0 22.0 25.0 7.0 2.0 -22.0 -10.0 -2.0 -6.0 -35.0 -33.0 0.0 -14.0 -71.0 -92.0 -112.0 -79.0 -53.0 -37.0 -25.0 2.0 -6.0 -20.0 -60.0 -69.0 -74.0 -65.0 -40.0 -12.0 0.0 -1.0</Array>
			</VectorInstance>
			<VectorInstance id="490">
				<Array type="real">-186.0 -179.0 -160.0 -141.0 -122.0 -98.0 -78.0 -57.0 -41.0 -29.0 -32.0 -44.0 -61.0 -79.0 -103.0 -133.0 -142.0 -133.0 -101.0 -67.0 -54.0 -51.0 -51.0 -49.0 -61.0 -61.0 -61.0 -60.0 -57.0 -59.0 -48.0 -45.0 -42.0 -37.0 -35.0 -35.0 -32.0 -29.0 -36.0 -42.0 -61.0 -85.0 -125.0 -104.0 160.0 545.0 930.0 1116.0 1087.0 1015.0 937.0 840.0 732.0 658.0 594.0 534.0 484.0 454.0 426.0 402.0 377.0 357.0 330.0 300.0 274.0 244.0 220.0 196.0 183.0 162.0 144.0 126.0 108.0 89.0 74.0 62.0 43.0 29.0 14.0 -2.0 -10.0 -16.0 -17.0 -27.0 -36.0 -47.0 -62.0 -77.0 -95.0 -102.0 -117.0 -122.0 -122.0 -126.0 -129.0 -136.0 -133.0 -136.0 -134.0 -133.0 -134.0 -139.0 -143.0 -148.0 -153.0 -158.0 -162.0 -169.0 -185.0 -196.0 -207.0 -216.0 -229.0 -244.0 -261.0 -245.0 -188.0 -144.0 -139.0 -170.0 -191.0 -196.0 -199.0 -195.0 -187.0 -175.0 -170.0 -176.0 -196.0 -220.0 -230.0 -234.0 -226.0 -214.0 -194.0 -182.0 -163.0 -148.0 -139.0 -140.0 -147.0 -152.0 -163.0 -168.0 -174.0 -188.0 -198.0 -194.0 -173.0 -152.0 -126.0 -101.0 -84.0 -68.0 -60.0 -54.0 -52.0 -48.0 -45.0 -56.0 -71.0 -89.0 -98.0 -106.0 -112.0 -115.0 -118.0 -124.0 -128.0 -132.0 -145.0 -156.0 -167.0 -175.0 -188.0 -199.0 -216.0 -267.0</Array>
			</VectorInstance>
			<VectorInstance id="504">
				<Array type="real">-132.0 -178.0 -211.0 -238.0 -248.0 -274.0 -292.0 -328.0 -346.0 -365.0 -355.0 -351.0 -344.0 -328.0 -333.0 -339.0 -351.0 -347.0 -338.0 -362.0 -369.0 -389.0 -342.0 -274.0 -191.0 -117.0 -66.0 -12.0 33.0 62.0 80.0 94.0 106.0 79.0 76.0 65.0 83.0 105.0 152.0 186.0 181.0 189.0 171.0 181.0 172.0 151.0 111.0 82.0 60.0 41.0 14.0 -8.0 -26.0 -43.0 -59.0 -62.0 -58.0 -68.0 -71.0 -83.0 -96.0 -90.0 -86.0 -65.0 -68.0 -124.0 -155.0 -180.0 -193.0 -184.0 -182.0 -161.0 -109.0 -75.0 -62.0 -74.0 -82.0 -94.0 -87.0 -63.0 -34.0 -11.0 2.0 24.0 31.0 36.0 41.0 37.0 33.0 22.0 6.0 -29.0 -92.0 -199.0 -35.0 -80.0 23.0 11.0 87.0 239.0 274.0 196.0 29.0 -71.0 -60.0 31.0 148.0 241.0 314.0 365.0 405.0 435.0 456.0 481.0 502.0 524.0 523.0 525.0 518.0 501.0 491.0 478.0 471.0 457.0 437.0 419.0 393.0 370.0 364.0 360.0 358.0 349.0 331.0 298.0 263.0 238.0 222.0 210.0 206.0 204.0 201.0 195.0 197.0 192.0 193.0 197.0 193.0 190.0 179.0 182.0 182.0 182.0 184.0 167.0 150.0 119.0 97.0 72.0 42.0 17.0 -5.0 -29.0 -45.0 -46.0 -47.0 -45.0 -46.0 -46.0 -51.0 -43.0 -27.0 -16.0 -3.0 9.0 13.0 3.0 -21.0 -46.0</Array>
			</VectorInstance>
			<VectorInstance id="516">
				<Array type="real">34.0 36.0 13.0 -13.0 -26.0 -30.0 -24.0 -15.0 0.0 7.0 8.0 27.0 34.0 50.0 61.0 61.0 62.0 49.0 34.0 21.0 24.0 21.0 27.0 0.0 -13.0 -31.0 -29.0 -26.0 -9.0 -20.0 -25.0 -29.0 -25.0 -22.0 -15.0 -1.0 15.0 28.0 38.0 41.0 45.0 43.0 54.0 37.0 24.0 -14.0 -49.0 -84.0 -111.0 -132.0 -143.0 -146.0 -152.0 -152.0 -160.0 -154.0 -142.0 -114.0 -84.0 -39.0 -3.0 26.0 55.0 67.0 70.0 78.0 75.0 51.0 4.0 -39.0 -88.0 -128.0 -162.0 -173.0 -163.0 -151.0 -113.0 -83.0 -52.0 -32.0 6.0 25.0 50.0 68.0 66.0 59.0 60.0 58.0 45.0 9.0 -10.0 -36.0 -54.0 -64.0 -81.0 -109.0 -142.0 -164.0 -170.0 -164.0 -138.0 -109.0 -80.0 -57.0 -27.0 1.0 12.0 44.0 73.0 107.0 130.0 137.0 145.0 137.0 130.0 124.0 107.0 84.0 66.0 41.0 16.0 4.0 0.0 -29.0 -40.0 -43.0 -46.0 -50.0 -55.0 -56.0 -40.0 -27.0 -1.0 2.0 5.0 4.0 7.0 15.0 12.0 20.0 14.0 9.0 -5.0 2.0 -5.0 4.0 12.0 6.0 -4.0 -19.0 -29.0 -37.0 -46.0 -44.0 -44.0 -48.0 -41.0 -48.0 -40.0 -36.0 -4.0 13.0 31.0 25.0 23.0 14.0 9.0 6.0 -5.0 8.0 19.0 29.0 23.0 29.0 42.0 46.0 38.0 23.0</Array>
			</VectorInstance>
			<VectorInstance id="520">
				<Array type="real">34.0 51.0 85.0 103.0 76.0 31.0 -10.0 -25.0 -49.0 -70.0 -88.0 -137.0 -179.0 -205.0 -182.0 -162.0 -121.0 -75.0 -33.0 -10.0 -3.0 -12.0 -31.0 -54.0 -62.0 -64.0 -87.0 -92.0 -64.0 -44.0 -9.0 20.0 11.0 4.0 17.0 21.0 -5.0 -11.0 -24.0 -30.0 -35.0 -21.0 -12.0 3.0 33.0 15.0 -32.0 -83.0 -121.0 -150.0 -160.0 -142.0 -99.0 -50.0 -54.0 -78.0 -121.0 -166.0 -204.0 -192.0 -174.0 -133.0 -94.0 -42.0 2.0 65.0 143.0 132.0 60.0 -44.0 -149.0 -214.0 -239.0 -236.0 -232.0 -205.0 -181.0 -156.0 -129.0 -105.0 -66.0 -11.0 67.0 116.0 110.0 38.0 -71.0 -174.0 -264.0 -315.0 -308.0 -253.0 -185.0 -100.0 -12.0 69.0 133.0 162.0 117.0 9.0 -68.0 -123.0 -172.0 -146.0 -94.0 -44.0 -4.0 35.0 38.0 41.0 64.0 64.0 42.0 0.0 -5.0 -26.0 -47.0 -54.0 -24.0 -23.0 -25.0 -24.0 -22.0 -64.0 -83.0 -107.0 -136.0 -161.0 -136.0 -104.0 -88.0 -78.0 -28.0 -1.0 47.0 80.0 80.0 39.0 0.0 -16.0 -20.0 -13.0 -15.0 -19.0 -27.0 -23.0 -9.0 -20.0 -39.0 -58.0 -79.0 -83.0 -68.0 -59.0 -47.0 -24.0 0.0 11.0 3.0 24.0 27.0 -13.0 -43.0 -53.0 -61.0 -63.0 -57.0 -58.0 -38.0 3.0 52.0 65.0 50.0 4.0 -63.0 -142.0 -191.0 -199.0</Array>
			</VectorInstance>
			<VectorInstance id="527">
				<Array type="real">-11.0 -19.0 -30.0 -33.0 -43.0 -43.0 -42.0 -40.0 -39.0 -31.0 -35.0 -47.0 -60.0 -77.0 -80.0 -82.0 -64.0 -43.0 -29.0 -23.0 -29.0 -51.0 -71.0 -80.0 -83.0 -79.0 -77.0 -64.0 -43.0 -39.0 -25.0 -27.0 -34.0 -46.0 -49.0 -51.0 -57.0 -39.0 -27.0 -23.0 -38.0 -64.0 -89.0 -103.0 -90.0 -74.0 -53.0 -43.0 -39.0 -34.0 -30.0 -17.0 -10.0 -15.0 -29.0 -33.0 -40.0 -40.0 -36.0 -50.0 -73.0 -105.0 -126.0 -145.0 -144.0 -132.0 -106.0 -80.0 -50.0 -11.0 12.0 36.0 49.0 51.0 31.0 2.0 -31.0 -82.0 -121.0 -147.0 -158.0 -160.0 -141.0 -112.0 -69.0 -13.0 57.0 125.0 173.0 197.0 185.0 138.0 70.0 -4.0 -75.0 -136.0 -174.0 -195.0 -195.0 -179.0 -143.0 -108.0 -85.0 -57.0 -30.0 12.0 64.0 115.0 135.0 126.0 98.0 47.0 -13.0 -72.0 -112.0 -139.0 -155.0 -161.0 -164.0 -160.0 -142.0 -107.0 -74.0 -48.0 -18.0 -4.0 18.0 40.0 70.0 75.0 65.0 36.0 -7.0 -61.0 -117.0 -160.0 -192.0 -185.0 -154.0 -119.0 -105.0 -102.0 -99.0 -95.0 -69.0 -31.0 3.0 23.0 21.0 -2.0 -45.0 -87.0 -130.0 -167.0 -198.0 -205.0 -204.0 -191.0 -167.0 -131.0 -87.0 -60.0 -28.0 -9.0 14.0 32.0 37.0 8.0 -58.0 -123.0 -190.0 -240.0 -251.0 -222.0 -171.0 -115.0 -61.0 -21.0</Array>
			</VectorInstance>
			<VectorInstance id="582">
				<Array type="real">-44.0 -35.0 -9.0 -11.0 5.0 -8.0 -3.0 -19.0 -14.0 -25.0 -30.0 -32.0 -44.0 -59.0 -74.0 -68.0 -36.0 -8.0 28.0 50.0 72.0 87.0 103.0 118.0 117.0 99.0 71.0 20.0 -45.0 -87.0 -115.0 -124.0 -129.0 -138.0 -161.0 -169.0 -157.0 -126.0 -89.0 -46.0 14.0 61.0 67.0 69.0 69.0 59.0 67.0 63.0 52.0 35.0 11.0 -12.0 -32.0 -39.0 -34.0 -38.0 -36.0 -44.0 -45.0 -45.0 -39.0 -18.0 -17.0 -11.0 -24.0 -39.0 -54.0 -62.0 -42.0 -49.0 -57.0 -102.0 -124.0 -150.0 -132.0 -94.0 -47.0 3.0 33.0 48.0 37.0 47.0 49.0 57.0 64.0 63.0 52.0 35.0 26.0 20.0 22.0 21.0 9.0 -4.0 -43.0 -66.0 -106.0 -125.0 -133.0 -116.0 -102.0 -82.0 -53.0 -24.0 4.0 28.0 52.0 53.0 60.0 57.0 54.0 53.0 45.0 36.0 11.0 -25.0 -54.0 -66.0 -73.0 -60.0 -43.0 -41.0 -47.0 -36.0 -19.0 8.0 37.0 70.0 79.0 98.0 99.0 101.0 88.0 71.0 56.0 24.0 -17.0 -46.0 -64.0 -96.0 -132.0 -142.0 -161.0 -143.0 -136.0 -119.0 -110.0 -73.0 -31.0 8.0 53.0 103.0 147.0 172.0 173.0 133.0 75.0 -4.0 -74.0 -144.0 -211.0 -274.0 -296.0 -300.0 -273.0 -234.0 -186.0 -134.0 -81.0 -40.0 -3.0 29.0 70.0 77.0 78.0 42.0 29.0 -12.0</Array>
			</VectorInstance>
			<VectorInstance id="592">
				<Array type="real">-30.0 -42.0 -28.0 -22.0 0.0 29.0 37.0 46.0 78.0 61.0 48.0 32.0 14.0 29.0 50.0 62.0 48.0 24.0 -6.0 -27.0 -29.0 -44.0 -59.0 -66.0 -67.0 -46.0 -27.0 -23.0 -24.0 -26.0 -28.0 -7.0 -5.0 -34.0 -55.0 -64.0 -56.0 -38.0 -38.0 0.0 25.0 40.0 42.0 11.0 -22.0 -37.0 -26.0 -26.0 -20.0 -45.0 -38.0 -33.0 -19.0 -13.0 -32.0 -55.0 -76.0 -85.0 -103.0 -96.0 -106.0 -124.0 -108.0 -87.0 -67.0 -76.0 -79.0 -92.0 -58.0 -43.0 -29.0 -11.0 -24.0 -20.0 -28.0 -75.0 -77.0 -104.0 -133.0 -145.0 -165.0 -168.0 -175.0 -180.0 -181.0 -178.0 -161.0 -98.0 -34.0 -2.0 4.0 -17.0 -17.0 -2.0 10.0 -8.0 -42.0 -55.0 -60.0 -70.0 -84.0 -88.0 -81.0 -81.0 -74.0 -84.0 -69.0 -94.0 -118.0 -133.0 -149.0 -142.0 -132.0 -149.0 -138.0 -135.0 -125.0 -123.0 -117.0 -102.0 -89.0 -100.0 -114.0 -133.0 -137.0 -135.0 -113.0 -75.0 -36.0 -26.0 -48.0 -70.0 -65.0 -86.0 -119.0 -170.0 -190.0 -172.0 -153.0 -168.0 -160.0 -164.0 -152.0 -152.0 -191.0 -208.0 -199.0 -188.0 -156.0 -143.0 -107.0 -99.0 -117.0 -109.0 -117.0 -139.0 -172.0 -189.0 -175.0 -147.0 -124.0 -81.0 -70.0 -48.0 -45.0 -72.0 -81.0 -95.0 -115.0 -136.0 -138.0 -149.0 -163.0 -187.0 -191.0 -156.0 -94.0 -38.0</Array>
			</VectorInstance>
			<VectorInstance id="607">
				<Array type="real">-83.0 -90.0 -97.0 -95.0 -76.0 -41.0 -9.0 27.0 65.0 88.0 86.0 61.0 23.0 -26.0 -68.0 -95.0 -114.0 -126.0 -125.0 -115.0 -99.0 -67.0 -29.0 3.0 17.0 19.0 10.0 -11.0 -25.0 -29.0 -27.0 -31.0 -41.0 -54.0 -85.0 -116.0 -141.0 -146.0 -126.0 -78.0 -27.0 24.0 74.0 117.0 143.0 152.0 152.0 119.0 53.0 -31.0 -94.0 -129.0 -140.0 -131.0 -123.0 -115.0 -95.0 -67.0 -38.0 -5.0 25.0 51.0 76.0 92.0 90.0 49.0 -7.0 -61.0 -110.0 -145.0 -171.0 -182.0 -189.0 -169.0 -132.0 -82.0 -27.0 32.0 96.0 136.0 162.0 154.0 109.0 23.0 -88.0 -183.0 -253.0 -265.0 -251.0 -234.0 -231.0 -226.0 -205.0 -166.0 -97.0 -11.0 65.0 132.0 185.0 206.0 186.0 123.0 35.0 -63.0 -153.0 -213.0 -246.0 -255.0 -235.0 -194.0 -151.0 -114.0 -76.0 -37.0 -5.0 20.0 32.0 19.0 -8.0 -44.0 -71.0 -99.0 -116.0 -129.0 -136.0 -127.0 -101.0 -72.0 -42.0 -28.0 -35.0 -54.0 -84.0 -103.0 -115.0 -123.0 -137.0 -142.0 -149.0 -136.0 -115.0 -89.0 -68.0 -47.0 -20.0 -7.0 4.0 3.0 -5.0 -29.0 -51.0 -53.0 -55.0 -50.0 -52.0 -61.0 -77.0 -82.0 -76.0 -73.0 -64.0 -61.0 -65.0 -78.0 -84.0 -89.0 -83.0 -70.0 -52.0 -49.0 -60.0 -66.0 -66.0 -65.0 -67.0 -70.0 -80.0 -91.0</Array>
			</VectorInstance>
			<VectorInstance id="624">
				<Array type="real">-97.0 -96.0 -92.0 -60.0 -42.0 -33.0 -60.0 -72.0 -80.0 -78.0 -66.0 -30.0 -8.0 7.0 5.0 3.0 5.0 15.0 31.0 43.0 52.0 69.0 79.0 85.0 78.0 77.0 62.0 48.0 32.0 3.0 -48.0 -100.0 -106.0 -79.0 -16.0 41.0 88.0 119.0 135.0 161.0 177.0 189.0 198.0 181.0 163.0 145.0 146.0 146.0 149.0 157.0 153.0 141.0 123.0 111.0 95.0 87.0 95.0 100.0 100.0 94.0 80.0 55.0 37.0 15.0 4.0 -25.0 -57.0 -77.0 -112.0 -124.0 -133.0 -125.0 -124.0 -113.0 -106.0 -104.0 -100.0 -102.0 -102.0 -99.0 -85.0 -68.0 -55.0 -52.0 -60.0 -62.0 -82.0 -85.0 -76.0 -71.0 -67.0 -70.0 -92.0 -101.0 -106.0 -93.0 -84.0 -90.0 -66.0 -57.0 -35.0 -23.0 3.0 5.0 5.0 -5.0 -18.0 -24.0 -28.0 -32.0 -36.0 -25.0 -4.0 18.0 34.0 46.0 45.0 29.0 10.0 -8.0 -26.0 -43.0 -59.0 -64.0 -71.0 -367.0 -514.0 -764.0 -709.0 -539.0 -436.0 -341.0 -221.0 -112.0 -46.0 -18.0 -25.0 -18.0 0.0 45.0 88.0 127.0 160.0 185.0 203.0 206.0 214.0 205.0 176.0 138.0 107.0 88.0 74.0 66.0 57.0 40.0 22.0 12.0 -1.0 -9.0 -15.0 -29.0 -52.0 -84.0 -107.0 -135.0 -160.0 -190.0 -217.0 -236.0 -252.0 -252.0 -258.0 -256.0 -259.0 -272.0 -297.0 -315.0</Array>
			</VectorInstance>
			<VectorInstance id="669">
				<Array type="real">-68.0 -69.0 -76.0 -89.0 -101.0 -102.0 -94.0 -86.0 -91.0 -119.0 -133.0 -131.0 -114.0 -87.0 -57.0 -32.0 -4.0 55.0 134.0 274.0 435.0 576.0 636.0 598.0 510.0 419.0 353.0 306.0 274.0 243.0 230.0 220.0 201.0 180.0 157.0 143.0 130.0 130.0 131.0 129.0 118.0 102.0 85.0 74.0 70.0 77.0 83.0 83.0 82.0 77.0 68.0 65.0 67.0 69.0 64.0 62.0 57.0 50.0 42.0 33.0 25.0 11.0 9.0 5.0 0.0 -6.0 -9.0 -20.0 -38.0 -46.0 -64.0 -71.0 -79.0 -79.0 -80.0 -85.0 -77.0 -75.0 -78.0 -77.0 -72.0 -68.0 -71.0 -70.0 -77.0 -81.0 -86.0 -82.0 -82.0 -82.0 -80.0 -80.0 -86.0 -97.0 -107.0 -118.0 -115.0 -110.0 -108.0 -113.0 -116.0 -119.0 -133.0 -140.0 -147.0 -152.0 -161.0 -168.0 -170.0 -168.0 -167.0 -157.0 -149.0 -143.0 -137.0 -130.0 -128.0 -127.0 -134.0 -140.0 -149.0 -153.0 -153.0 -161.0 -165.0 -171.0 -172.0 -173.0 -166.0 -157.0 -151.0 -143.0 -129.0 -123.0 -122.0 -114.0 -112.0 -106.0 -102.0 -97.0 -100.0 -105.0 -96.0 -96.0 -97.0 -106.0 -110.0 -116.0 -128.0 -134.0 -142.0 -143.0 -146.0 -149.0 -163.0 -174.0 -176.0 -171.0 -168.0 -174.0 -174.0 -176.0 -170.0 -165.0 -162.0 -158.0 -151.0 -133.0 -115.0 -85.0 -55.0 -36.0 -33.0 -29.0 10.0 56.0 131.0 227.0</Array>
			</VectorInstance>
			<VectorInstance id="705">
				<Array type="real">-119.0 -185.0 -261.0 -358.0 -281.0 -182.0 28.0 134.0 135.0 126.0 128.0 167.0 218.0 264.0 316.0 355.0 354.0 307.0 235.0 149.0 77.0 26.0 -16.0 -53.0 -88.0 -108.0 -128.0 -138.0 -137.0 -120.0 -80.0 -2.0 159.0 250.0 344.0 289.0 185.0 75.0 -18.0 -85.0 -118.0 -136.0 -133.0 -112.0 -93.0 -73.0 -63.0 -70.0 -89.0 -117.0 -147.0 -166.0 -167.0 -152.0 -132.0 -111.0 -84.0 -59.0 -38.0 -25.0 -13.0 -14.0 -15.0 -18.0 -27.0 -32.0 -37.0 -36.0 -39.0 -40.0 -41.0 -48.0 -57.0 -68.0 -72.0 -79.0 -84.0 -93.0 -108.0 -121.0 -129.0 -130.0 -128.0 -118.0 -99.0 -74.0 -49.0 -26.0 -4.0 6.0 15.0 23.0 33.0 49.0 73.0 97.0 119.0 133.0 145.0 145.0 154.0 163.0 175.0 182.0 193.0 208.0 214.0 220.0 224.0 229.0 233.0 243.0 256.0 225.0 186.0 135.0 97.0 79.0 67.0 68.0 86.0 117.0 144.0 165.0 181.0 196.0 204.0 203.0 201.0 199.0 202.0 203.0 206.0 209.0 215.0 217.0 222.0 215.0 201.0 191.0 182.0 177.0 168.0 162.0 152.0 146.0 137.0 134.0 129.0 127.0 127.0 120.0 107.0 93.0 82.0 71.0 63.0 55.0 47.0 39.0 38.0 42.0 50.0 57.0 67.0 71.0 73.0 71.0 68.0 58.0 55.0 40.0 26.0 21.0 17.0 21.0 20.0 19.0</Array>
			</VectorInstance>
			<VectorInstance id="728">
				<Array type="real">29.0 23.0 -30.0 -4.0 -13.0 19.0 41.0 16.0 40.0 8.0 -10.0 -87.0 -129.0 -133.0 -134.0 -121.0 -121.0 -130.0 -133.0 -148.0 -184.0 -185.0 -239.0 -291.0 -303.0 -235.0 -159.0 -113.0 -137.0 -163.0 -185.0 -200.0 -234.0 -233.0 -202.0 -128.0 -112.0 -170.0 -243.0 -279.0 -313.0 -259.0 -213.0 -179.0 -112.0 -82.0 -32.0 -73.0 -107.0 -98.0 -123.0 -87.0 -131.0 -128.0 -77.0 -22.0 9.0 -21.0 -73.0 -122.0 -144.0 -196.0 -226.0 -192.0 -140.0 -68.0 -53.0 -9.0 -3.0 25.0 14.0 -5.0 -9.0 7.0 44.0 63.0 114.0 123.0 133.0 133.0 138.0 186.0 228.0 184.0 113.0 57.0 51.0 66.0 17.0 -51.0 -48.0 -25.0 31.0 81.0 130.0 176.0 180.0 135.0 141.0 98.0 85.0 59.0 15.0 11.0 -14.0 -42.0 -100.0 -99.0 -96.0 -74.0 -61.0 -65.0 -47.0 -13.0 -29.0 -8.0 -48.0 -67.0 -122.0 -175.0 -216.0 -217.0 -203.0 -117.0 -57.0 -18.0 -53.0 -104.0 -100.0 -7.0 31.0 34.0 -7.0 -65.0 -125.0 -145.0 -131.0 -127.0 -119.0 -122.0 -117.0 -88.0 -104.0 -128.0 -171.0 -142.0 -88.0 -57.0 -51.0 -82.0 -62.0 -27.0 -11.0 10.0 8.0 1.0 17.0 21.0 15.0 -6.0 -46.0 -89.0 -108.0 -163.0 -203.0 -223.0 -182.0 -67.0 10.0 47.0 15.0 -7.0 -32.0 -6.0 -4.0 -6.0 -9.0 24.0</Array>
			</VectorInstance>
			<VectorInstance id="757">
				<Array type="real">-86.0 -83.0 -75.0 -66.0 -56.0 -47.0 -43.0 -36.0 -31.0 -37.0 -37.0 -41.0 -45.0 -43.0 -34.0 -28.0 -20.0 -13.0 -6.0 -6.0 -5.0 -5.0 -4.0 7.0 11.0 18.0 21.0 31.0 41.0 37.0 33.0 32.0 37.0 43.0 43.0 44.0 42.0 35.0 29.0 19.0 12.0 16.0 20.0 29.0 34.0 38.0 34.0 33.0 33.0 27.0 19.0 11.0 -3.0 -7.0 -15.0 -24.0 -38.0 -60.0 -87.0 -102.0 -104.0 -104.0 -99.0 -100.0 -100.0 -96.0 -89.0 -83.0 -78.0 -71.0 -63.0 -62.0 -55.0 -49.0 -43.0 -38.0 -29.0 -19.0 -14.0 -14.0 -14.0 -23.0 -25.0 -17.0 -11.0 -6.0 -1.0 6.0 16.0 24.0 38.0 42.0 40.0 38.0 38.0 43.0 49.0 55.0 58.0 55.0 59.0 65.0 66.0 55.0 41.0 14.0 -2.0 -18.0 -23.0 -24.0 -24.0 -12.0 -5.0 5.0 12.0 20.0 22.0 39.0 65.0 87.0 107.0 117.0 120.0 108.0 91.0 67.0 41.0 2.0 -32.0 -70.0 -96.0 -121.0 -136.0 -156.0 -172.0 -183.0 -192.0 -199.0 -202.0 -199.0 -195.0 -184.0 -166.0 -140.0 -111.0 -80.0 -50.0 -27.0 -10.0 3.0 1.0 -4.0 4.0 19.0 24.0 28.0 13.0 4.0 -6.0 -12.0 -19.0 -23.0 -31.0 -16.0 -1.0 15.0 32.0 43.0 40.0 29.0 11.0 0.0 -1.0 4.0 10.0 7.0 0.0 -4.0</Array>
			</VectorInstance>
			<VectorInstance id="762">
				<Array type="real">77.0 17.0 -1.0 30.0 -8.0 -35.0 -23.0 10.0 -2.0 56.0 85.0 58.0 36.0 35.0 40.0 46.0 82.0 110.0 123.0 137.0 67.0 68.0 50.0 25.0 -3.0 -19.0 16.0 43.0 53.0 73.0 75.0 36.0 -51.0 -1.0 -28.0 -31.0 -31.0 -35.0 -48.0 -32.0 -5.0 -2.0 5.0 -64.0 -68.0 -119.0 -116.0 -92.0 -83.0 -102.0 -145.0 -144.0 -84.0 -22.0 1.0 23.0 -1.0 -35.0 15.0 40.0 31.0 -1.0 36.0 87.0 79.0 68.0 66.0 16.0 -45.0 -74.0 -123.0 -113.0 -72.0 -28.0 -7.0 8.0 53.0 70.0 39.0 13.0 -6.0 -27.0 -32.0 -22.0 -5.0 44.0 115.0 140.0 136.0 136.0 99.0 23.0 3.0 -50.0 -131.0 -211.0 -189.0 -122.0 -67.0 17.0 85.0 103.0 49.0 3.0 31.0 -2.0 -32.0 -20.0 24.0 80.0 91.0 145.0 196.0 204.0 191.0 148.0 93.0 76.0 56.0 28.0 48.0 26.0 99.0 126.0 98.0 55.0 15.0 0.0 0.0 20.0 12.0 -15.0 6.0 35.0 67.0 80.0 77.0 70.0 36.0 -2.0 -44.0 -75.0 -21.0 8.0 60.0 72.0 35.0 2.0 -9.0 -42.0 -155.0 -70.0 -14.0 6.0 7.0 42.0 49.0 15.0 1.0 -59.0 -116.0 -168.0 -223.0 -257.0 -195.0 -113.0 -77.0 16.0 81.0 122.0 146.0 143.0 117.0 59.0 -4.0 -65.0 -94.0 -115.0</Array>
			</VectorInstance>
			<VectorInstance id="780">
				<Array type="real">-240.0 -252.0 -225.0 -174.0 -112.0 -45.0 18.0 79.0 123.0 136.0 133.0 106.0 70.0 27.0 -23.0 -84.0 -143.0 -177.0 -163.0 -132.0 -88.0 -49.0 -29.0 -24.0 -38.0 -43.0 -55.0 -61.0 -59.0 -55.0 -63.0 -65.0 -45.0 -10.0 54.0 101.0 134.0 141.0 136.0 135.0 111.0 58.0 -25.0 -117.0 -201.0 -217.0 -189.0 -136.0 -71.0 -15.0 42.0 77.0 101.0 115.0 112.0 98.0 78.0 43.0 3.0 -39.0 -88.0 -141.0 -175.0 -173.0 -133.0 -67.0 23.0 91.0 98.0 104.0 94.0 113.0 101.0 50.0 -47.0 -164.0 -254.0 -293.0 -273.0 -210.0 -111.0 -15.0 25.0 52.0 46.0 46.0 57.0 60.0 53.0 14.0 -29.0 -95.0 -153.0 -191.0 -192.0 -159.0 -116.0 -76.0 -55.0 -42.0 -42.0 -35.0 -43.0 -74.0 -106.0 -141.0 -169.0 -169.0 -145.0 -112.0 -80.0 -51.0 -34.0 -26.0 -32.0 -41.0 -48.0 -80.0 -70.0 -65.0 -27.0 -8.0 -29.0 -74.0 -121.0 -137.0 -114.0 -95.0 -73.0 -63.0 -66.0 -65.0 -42.0 -19.0 1.0 9.0 7.0 1.0 -15.0 -29.0 -52.0 -68.0 -73.0 -60.0 -46.0 -37.0 -15.0 -13.0 -16.0 -41.0 -65.0 -91.0 -95.0 -78.0 -51.0 -28.0 -30.0 -38.0 -61.0 -71.0 -59.0 -42.0 -30.0 -37.0 -42.0 -58.0 -59.0 -64.0 -73.0 -85.0 -82.0 -41.0 15.0 71.0 104.0 99.0 67.0 32.0</Array>
			</VectorInstance>
			<VectorInstance id="781">
				<Array type="real">-13.0 -9.0 -7.0 -2.0 -6.0 -18.0 -24.0 -23.0 -23.0 -15.0 -19.0 -11.0 -9.0 -11.0 -19.0 -25.0 -22.0 -23.0 -28.0 -36.0 -41.0 -36.0 -20.0 -10.0 0.0 -2.0 -6.0 -10.0 -20.0 -24.0 -24.0 -22.0 -9.0 6.0 23.0 37.0 52.0 64.0 68.0 80.0 88.0 100.0 111.0 123.0 123.0 119.0 108.0 94.0 78.0 67.0 60.0 58.0 51.0 43.0 36.0 35.0 52.0 73.0 81.0 82.0 75.0 76.0 62.0 41.0 1.0 -35.0 -63.0 -75.0 -66.0 -56.0 -48.0 -34.0 -31.0 -28.0 -27.0 -24.0 -26.0 -29.0 -41.0 -57.0 -78.0 -92.0 -106.0 -122.0 -132.0 -147.0 -153.0 -167.0 -163.0 -161.0 -148.0 -137.0 -115.0 -90.0 -80.0 -69.0 -68.0 -63.0 -56.0 -51.0 -51.0 -66.0 -80.0 -107.0 -120.0 -130.0 -137.0 -143.0 -152.0 -147.0 -148.0 -140.0 -136.0 -123.0 -113.0 -106.0 -104.0 -106.0 -112.0 -116.0 -114.0 -115.0 -114.0 -116.0 -122.0 -120.0 -125.0 -116.0 -107.0 -94.0 -82.0 -74.0 -70.0 -57.0 -35.0 -17.0 3.0 15.0 27.0 36.0 42.0 39.0 23.0 5.0 -16.0 -32.0 -42.0 -45.0 -53.0 -70.0 -91.0 -106.0 -111.0 -116.0 -103.0 -95.0 -96.0 -88.0 -70.0 -34.0 -8.0 11.0 13.0 25.0 43.0 41.0 23.0 -36.0 -75.0 -109.0 -130.0 -151.0 -174.0 -199.0 -222.0 -231.0 -233.0 -229.0</Array>
			</VectorInstance>
			<VectorInstance id="801">
				<Array type="real">-76.0 -10.0 31.0 44.0 7.0 -55.0 -51.0 -40.0 -11.0 -23.0 -27.0 -22.0 -24.0 -45.0 -49.0 -39.0 -32.0 -11.0 -15.0 7.0 -1.0 22.0 38.0 32.0 62.0 108.0 148.0 157.0 56.0 -19.0 -103.0 -105.0 -81.0 -61.0 -48.0 -48.0 -17.0 8.0 22.0 3.0 -8.0 -12.0 -19.0 -42.0 -59.0 -73.0 -52.0 -56.0 -67.0 -81.0 -91.0 -72.0 -61.0 -59.0 -72.0 -138.0 -183.0 -192.0 -141.0 -82.0 -40.0 -27.0 -60.0 -45.0 -29.0 -7.0 27.0 55.0 48.0 71.0 116.0 139.0 164.0 187.0 210.0 235.0 193.0 130.0 75.0 43.0 92.0 122.0 121.0 99.0 47.0 33.0 18.0 31.0 57.0 46.0 25.0 22.0 59.0 62.0 105.0 67.0 53.0 35.0 1.0 -2.0 -49.0 -49.0 -64.0 -29.0 -7.0 -2.0 -41.0 -89.0 -95.0 -43.0 16.0 55.0 105.0 66.0 21.0 -34.0 -52.0 -75.0 -80.0 -87.0 -87.0 -31.0 -20.0 -3.0 -54.0 -108.0 -144.0 -171.0 -209.0 -228.0 -241.0 -263.0 -260.0 -245.0 -215.0 -151.0 -101.0 -45.0 -17.0 -41.0 -111.0 -135.0 -145.0 -111.0 -95.0 -126.0 -170.0 -176.0 -177.0 -125.0 -118.0 -106.0 -89.0 -66.0 -20.0 14.0 34.0 118.0 144.0 206.0 141.0 111.0 53.0 42.0 98.0 102.0 157.0 159.0 200.0 220.0 209.0 257.0 307.0 418.0 462.0 412.0 358.0 276.0</Array>
			</VectorInstance>
			<VectorInstance id="808">
				<Array type="real">-123.0 -152.0 -181.0 -220.0 -239.0 -224.0 -183.0 -136.0 -107.0 -99.0 -109.0 -104.0 -111.0 -111.0 -127.0 -135.0 -130.0 -120.0 -107.0 -92.0 -85.0 -79.0 -65.0 -53.0 -51.0 -47.0 -15.0 39.0 96.0 126.0 89.0 -11.0 -124.0 -216.0 -268.0 -267.0 -233.0 -181.0 -133.0 -93.0 -62.0 -47.0 -28.0 3.0 15.0 -7.0 -75.0 -155.0 -223.0 -222.0 -166.0 -95.0 -31.0 19.0 70.0 116.0 159.0 179.0 161.0 99.0 10.0 -93.0 -193.0 -253.0 -251.0 -209.0 -150.0 -78.0 -20.0 19.0 51.0 72.0 89.0 100.0 124.0 141.0 112.0 27.0 -101.0 -206.0 -250.0 -213.0 -139.0 -58.0 16.0 71.0 93.0 96.0 97.0 89.0 65.0 19.0 -45.0 -121.0 -201.0 -245.0 -249.0 -209.0 -138.0 -56.0 18.0 78.0 123.0 138.0 130.0 98.0 45.0 -45.0 -132.0 -186.0 -198.0 -172.0 -127.0 -70.0 -18.0 23.0 52.0 68.0 84.0 109.0 145.0 140.0 88.0 -3.0 -91.0 -135.0 -125.0 -76.0 -32.0 -1.0 1.0 -22.0 -46.0 -44.0 -1.0 36.0 52.0 28.0 -14.0 -64.0 -104.0 -124.0 -123.0 -88.0 -42.0 2.0 24.0 42.0 41.0 27.0 10.0 -8.0 -34.0 -72.0 -115.0 -163.0 -201.0 -209.0 -182.0 -133.0 -78.0 -21.0 11.0 18.0 -1.0 -34.0 -74.0 -94.0 -97.0 -96.0 -118.0 -152.0 -175.0 -176.0 -142.0 -87.0 -49.0 -23.0</Array>
			</VectorInstance>
			<VectorInstance id="824">
				<Array type="real">-4.0 14.0 6.0 23.0 36.0 -5.0 -27.0 -9.0 -34.0 -68.0 -82.0 -76.0 -53.0 4.0 84.0 103.0 49.0 16.0 -41.0 -130.0 -202.0 -203.0 -176.0 -133.0 -55.0 39.0 74.0 116.0 202.0 171.0 118.0 100.0 98.0 57.0 60.0 101.0 88.0 28.0 -9.0 -3.0 -9.0 19.0 55.0 89.0 57.0 56.0 32.0 -22.0 -1.0 37.0 42.0 12.0 9.0 18.0 -4.0 -15.0 -5.0 -37.0 -39.0 -24.0 -31.0 -60.0 -74.0 -76.0 -66.0 -45.0 1.0 44.0 60.0 90.0 111.0 81.0 44.0 38.0 7.0 -29.0 -23.0 35.0 49.0 82.0 140.0 143.0 110.0 86.0 50.0 -15.0 -59.0 -41.0 -50.0 -33.0 17.0 19.0 -37.0 -73.0 -57.0 -62.0 -80.0 -39.0 -22.0 -50.0 -28.0 0.0 -49.0 -98.0 -117.0 -85.0 -40.0 16.0 66.0 55.0 35.0 40.0 39.0 -5.0 -16.0 -19.0 -47.0 -31.0 30.0 38.0 23.0 64.0 102.0 59.0 -13.0 -108.0 -178.0 -241.0 -207.0 -113.0 -108.0 -107.0 -57.0 -30.0 5.0 41.0 66.0 78.0 59.0 32.0 -30.0 -80.0 -96.0 -93.0 -95.0 -117.0 -37.0 28.0 58.0 61.0 14.0 -55.0 -101.0 -104.0 -158.0 -234.0 -256.0 -262.0 -262.0 -200.0 -120.0 -81.0 -57.0 10.0 92.0 157.0 225.0 221.0 160.0 88.0 35.0 2.0 -81.0 -118.0 -132.0 -154.0 -173.0 -171.0</Array>
			</VectorInstance>
			<VectorInstance id="855">
				<Array type="real">-23.0 -76.0 -132.0 -183.0 -197.0 -186.0 -155.0 -105.0 -64.0 -43.0 -22.0 -10.0 26.0 73.0 99.0 103.0 40.0 -60.0 -160.0 -240.0 -278.0 -274.0 -234.0 -186.0 -132.0 -89.0 -62.0 -34.0 8.0 70.0 110.0 117.0 97.0 53.0 -11.0 -59.0 -91.0 -115.0 -110.0 -90.0 -62.0 -33.0 -8.0 9.0 19.0 20.0 24.0 16.0 11.0 15.0 8.0 7.0 3.0 3.0 1.0 14.0 44.0 85.0 115.0 120.0 116.0 84.0 49.0 -4.0 -61.0 -110.0 -136.0 -127.0 -85.0 -9.0 79.0 147.0 179.0 181.0 164.0 139.0 101.0 54.0 3.0 -52.0 -95.0 -116.0 -139.0 -115.0 -65.0 23.0 112.0 195.0 261.0 286.0 281.0 236.0 165.0 74.0 -5.0 -85.0 -149.0 -182.0 -171.0 -129.0 -72.0 -7.0 40.0 67.0 86.0 122.0 150.0 146.0 116.0 53.0 -7.0 -62.0 -98.0 -101.0 -88.0 -41.0 7.0 44.0 69.0 71.0 63.0 54.0 57.0 50.0 19.0 -44.0 -114.0 -178.0 -217.0 -217.0 -190.0 -127.0 -51.0 32.0 79.0 92.0 58.0 12.0 -36.0 -65.0 -93.0 -114.0 -135.0 -129.0 -108.0 -75.0 -20.0 26.0 49.0 41.0 19.0 -18.0 -54.0 -87.0 -107.0 -127.0 -142.0 -142.0 -129.0 -101.0 -43.0 14.0 63.0 108.0 153.0 185.0 208.0 216.0 203.0 177.0 132.0 69.0 -10.0 -92.0 -136.0 -142.0 -114.0 -74.0</Array>
			</VectorInstance>
			<VectorInstance id="905">
				<Array type="real">43.0 70.0 117.0 78.0 5.0 -83.0 -152.0 -153.0 -135.0 -101.0 -79.0 6.0 107.0 147.0 106.0 117.0 57.0 -9.0 -80.0 -85.0 -132.0 -90.0 -21.0 28.0 101.0 111.0 119.0 77.0 23.0 -6.0 -20.0 -88.0 -110.0 -68.0 -46.0 -46.0 -64.0 -54.0 -62.0 -79.0 -89.0 -90.0 -47.0 3.0 30.0 13.0 -7.0 -19.0 -10.0 4.0 -21.0 -11.0 -6.0 8.0 22.0 4.0 -12.0 -20.0 33.0 63.0 35.0 18.0 -28.0 -43.0 -13.0 -31.0 -66.0 -75.0 -72.0 -59.0 -8.0 48.0 50.0 39.0 29.0 14.0 19.0 24.0 30.0 19.0 -21.0 3.0 53.0 102.0 111.0 97.0 62.0 36.0 1.0 -21.0 -34.0 -53.0 -96.0 -38.0 -27.0 -18.0 -19.0 -42.0 -88.0 -69.0 -94.0 -71.0 -56.0 -65.0 -70.0 -57.0 -12.0 -7.0 -8.0 35.0 30.0 -41.0 -37.0 -67.0 -31.0 -52.0 -75.0 -56.0 -57.0 -8.0 8.0 5.0 -5.0 -24.0 -44.0 -58.0 -58.0 -40.0 -59.0 -93.0 -58.0 -22.0 -6.0 -11.0 53.0 60.0 19.0 -22.0 -89.0 -210.0 -181.0 -79.0 -36.0 -45.0 -4.0 24.0 -1.0 -30.0 -64.0 -132.0 -185.0 -135.0 -110.0 -101.0 -69.0 -21.0 38.0 89.0 92.0 95.0 125.0 123.0 123.0 118.0 72.0 31.0 51.0 12.0 -17.0 -29.0 -24.0 -15.0 15.0 26.0 16.0 58.0 88.0 29.0</Array>
			</VectorInstance>
			<VectorInstance id="908">
				<Array type="real">253.0 317.0 303.0 246.0 190.0 120.0 66.0 -1.0 -79.0 -170.0 -223.0 -233.0 -185.0 -114.0 -26.0 56.0 119.0 172.0 179.0 158.0 98.0 25.0 -53.0 -117.0 -141.0 -131.0 -95.0 -49.0 -9.0 18.0 32.0 38.0 37.0 36.0 43.0 44.0 21.0 -11.0 -54.0 -90.0 -115.0 -126.0 -78.0 -27.0 29.0 61.0 81.0 89.0 99.0 90.0 46.0 0.0 -50.0 -96.0 -153.0 -203.0 -221.0 -222.0 -199.0 -141.0 -67.0 5.0 65.0 106.0 125.0 132.0 141.0 126.0 90.0 25.0 -65.0 -156.0 -212.0 -211.0 -172.0 -119.0 -46.0 31.0 91.0 112.0 105.0 74.0 46.0 22.0 -23.0 -67.0 -111.0 -141.0 -160.0 -158.0 -104.0 -34.0 34.0 89.0 109.0 91.0 58.0 33.0 31.0 23.0 -1.0 -41.0 -87.0 -107.0 -114.0 -104.0 -98.0 -72.0 -31.0 0.0 33.0 66.0 62.0 40.0 2.0 -30.0 -55.0 -77.0 -103.0 -110.0 -110.0 -89.0 -54.0 -31.0 -27.0 -45.0 -61.0 -73.0 -64.0 -31.0 -12.0 -8.0 -27.0 -76.0 -128.0 -149.0 -147.0 -111.0 -73.0 -33.0 -9.0 0.0 23.0 38.0 44.0 38.0 43.0 34.0 -3.0 -31.0 -72.0 -82.0 -94.0 -88.0 -68.0 -40.0 6.0 47.0 78.0 103.0 126.0 118.0 90.0 37.0 -27.0 -90.0 -126.0 -146.0 -149.0 -130.0 -108.0 -78.0 -65.0 -41.0 5.0 62.0 118.0 147.0</Array>
			</VectorInstance>
			<VectorInstance id="955">
				<Array type="real">-140.0 -80.0 0.0 79.0 130.0 159.0 172.0 168.0 166.0 155.0 149.0 112.0 59.0 -1.0 -69.0 -113.0 -128.0 -83.0 -32.0 30.0 64.0 80.0 85.0 107.0 123.0 105.0 49.0 -31.0 -124.0 -198.0 -229.0 -210.0 -160.0 -99.0 -31.0 21.0 49.0 68.0 77.0 84.0 89.0 87.0 55.0 -1.0 -59.0 -98.0 -100.0 -73.0 -36.0 -5.0 30.0 85.0 129.0 140.0 101.0 19.0 -78.0 -145.0 -152.0 -119.0 -62.0 -16.0 16.0 24.0 16.0 20.0 40.0 77.0 113.0 112.0 42.0 -54.0 -144.0 -204.0 -222.0 -206.0 -161.0 -121.0 -88.0 -70.0 -56.0 -20.0 44.0 120.0 154.0 129.0 71.0 2.0 -48.0 -77.0 -87.0 -78.0 -55.0 -29.0 -11.0 0.0 13.0 5.0 -29.0 -93.0 -168.0 -216.0 -224.0 -196.0 -157.0 -128.0 -101.0 -71.0 -39.0 -3.0 45.0 87.0 119.0 124.0 106.0 68.0 20.0 -2.0 -27.0 -47.0 -51.0 -49.0 -45.0 -42.0 -31.0 -8.0 4.0 10.0 -1.0 -33.0 -59.0 -69.0 -68.0 -62.0 -42.0 -15.0 11.0 47.0 84.0 117.0 130.0 130.0 125.0 100.0 65.0 24.0 -9.0 -29.0 -37.0 -34.0 -39.0 -32.0 -16.0 8.0 39.0 60.0 62.0 42.0 29.0 22.0 21.0 18.0 30.0 53.0 73.0 84.0 87.0 74.0 46.0 32.0 19.0 31.0 45.0 56.0 63.0 59.0 71.0 82.0</Array>
			</VectorInstance>
			<VectorInstance id="1030">
				<Array type="real">-346.0 -384.0 -381.0 -355.0 -318.0 -281.0 -241.0 -215.0 -192.0 -171.0 -154.0 -136.0 -132.0 -136.0 -157.0 -189.0 -194.0 -198.0 -223.0 -255.0 -281.0 -275.0 -226.0 -183.0 -180.0 -176.0 -162.0 -127.0 -61.0 -25.0 25.0 57.0 79.0 107.0 142.0 163.0 174.0 178.0 170.0 144.0 96.0 18.0 -56.0 -111.0 -119.0 -113.0 -96.0 -71.0 -25.0 15.0 53.0 85.0 125.0 164.0 205.0 233.0 241.0 231.0 212.0 187.0 150.0 121.0 89.0 77.0 65.0 80.0 95.0 127.0 160.0 175.0 179.0 171.0 169.0 164.0 166.0 174.0 167.0 159.0 144.0 136.0 117.0 91.0 57.0 13.0 -46.0 -97.0 -138.0 -171.0 -193.0 -206.0 -203.0 -194.0 -185.0 -173.0 -168.0 -153.0 -132.0 -111.0 -99.0 -93.0 -95.0 -109.0 -111.0 -112.0 -104.0 -102.0 -104.0 -100.0 -107.0 -117.0 -117.0 -121.0 -115.0 -111.0 -102.0 -106.0 -110.0 -106.0 -87.0 -70.0 -48.0 -55.0 -64.0 -70.0 -56.0 -40.0 -32.0 -9.0 -8.0 -6.0 -22.0 -40.0 -70.0 -88.0 -101.0 -112.0 -130.0 -138.0 -132.0 -126.0 -117.0 -106.0 -92.0 -95.0 -104.0 -113.0 -124.0 -133.0 -133.0 -143.0 -154.0 -158.0 -142.0 -117.0 -77.0 -39.0 -6.0 12.0 30.0 43.0 54.0 72.0 92.0 112.0 119.0 120.0 125.0 131.0 137.0 148.0 146.0 138.0 136.0 123.0 97.0 73.0 52.0 47.0</Array>
			</VectorInstance>
			<VectorInstance id="1046">
				<Array type="real">2.0 7.0 -11.0 -15.0 -26.0 -39.0 -57.0 -53.0 -51.0 -13.0 -18.0 -38.0 -56.0 -73.0 -50.0 -46.0 -39.0 26.0 72.0 78.0 45.0 -9.0 -4.0 -19.0 -43.0 -30.0 -32.0 -65.0 -158.0 -112.0 -93.0 -101.0 -68.0 -27.0 -42.0 -54.0 -41.0 -43.0 -101.0 -93.0 -60.0 -51.0 -45.0 2.0 54.0 83.0 80.0 48.0 -49.0 -71.0 -146.0 -139.0 -86.0 -49.0 1.0 41.0 96.0 118.0 132.0 68.0 -20.0 -34.0 -85.0 -32.0 -26.0 -53.0 -40.0 -9.0 -24.0 -32.0 -72.0 -75.0 -66.0 -109.0 -92.0 -75.0 -117.0 -101.0 -73.0 -134.0 -227.0 -255.0 -233.0 -210.0 -168.0 -119.0 -30.0 55.0 118.0 157.0 163.0 137.0 124.0 60.0 -37.0 -83.0 -47.0 -64.0 -78.0 -23.0 27.0 78.0 125.0 134.0 80.0 17.0 -38.0 -77.0 -71.0 -67.0 1.0 78.0 133.0 179.0 185.0 119.0 77.0 -2.0 -94.0 -123.0 -117.0 -62.0 -24.0 19.0 71.0 159.0 146.0 94.0 53.0 -9.0 -62.0 -95.0 -141.0 -91.0 -96.0 -99.0 -62.0 -53.0 -36.0 -64.0 -58.0 -44.0 -25.0 -57.0 18.0 64.0 28.0 -8.0 -8.0 3.0 0.0 -7.0 -52.0 6.0 13.0 51.0 63.0 90.0 104.0 120.0 117.0 71.0 7.0 17.0 -17.0 -52.0 -29.0 12.0 65.0 115.0 112.0 135.0 156.0 115.0 116.0 156.0 157.0 86.0</Array>
			</VectorInstance>
			<VectorInstance id="1051">
				<Array type="real">8.0 3.0 -1.0 4.0 14.0 25.0 29.0 26.0 15.0 3.0 -7.0 -19.0 -26.0 -36.0 -38.0 -41.0 -44.0 -49.0 -59.0 -74.0 -86.0 -93.0 -100.0 -101.0 -102.0 -105.0 -110.0 -116.0 -119.0 -125.0 -129.0 -132.0 -135.0 -138.0 -141.0 -140.0 -135.0 -126.0 -113.0 -97.0 -86.0 -67.0 -48.0 -52.0 -57.0 -58.0 -68.0 -92.0 -131.0 -162.0 -167.0 -157.0 -137.0 -120.0 -106.0 -86.0 -80.0 -73.0 -73.0 -71.0 -72.0 -76.0 -85.0 -101.0 -121.0 -141.0 -156.0 -173.0 -187.0 -200.0 -212.0 -224.0 -237.0 -246.0 -260.0 -272.0 -284.0 -295.0 -301.0 -305.0 -300.0 -295.0 -282.0 -268.0 -252.0 -240.0 -224.0 -202.0 -184.0 -167.0 -155.0 -147.0 -140.0 -128.0 -111.0 -98.0 -84.0 -71.0 -58.0 -45.0 -31.0 -15.0 1.0 20.0 37.0 59.0 71.0 85.0 93.0 98.0 106.0 115.0 124.0 124.0 121.0 111.0 104.0 101.0 111.0 124.0 137.0 153.0 160.0 167.0 172.0 183.0 191.0 191.0 187.0 181.0 176.0 170.0 170.0 164.0 163.0 164.0 163.0 162.0 155.0 151.0 141.0 134.0 126.0 122.0 116.0 114.0 114.0 116.0 123.0 133.0 140.0 142.0 141.0 140.0 138.0 139.0 143.0 146.0 142.0 135.0 123.0 109.0 96.0 88.0 82.0 74.0 66.0 61.0 55.0 56.0 60.0 66.0 67.0 77.0 86.0 104.0 121.0 139.0</Array>
			</VectorInstance>
			<VectorInstance id="1084">
				<Array type="real">-277.0 -292.0 -299.0 -283.0 -280.0 -247.0 -261.0 -241.0 -263.0 -291.0 -358.0 -422.0 -472.0 -434.0 -344.0 -237.0 -121.0 -40.0 6.0 33.0 57.0 66.0 63.0 35.0 -5.0 -42.0 -59.0 -50.0 -35.0 -19.0 7.0 22.0 31.0 31.0 48.0 69.0 93.0 104.0 96.0 82.0 46.0 13.0 -32.0 -82.0 -125.0 -166.0 -213.0 -254.0 -286.0 -331.0 -385.0 -423.0 -472.0 -505.0 -540.0 -552.0 -553.0 -535.0 -509.0 -460.0 -431.0 -418.0 -409.0 -412.0 -405.0 -410.0 -401.0 -403.0 -397.0 -391.0 -418.0 -421.0 -442.0 -430.0 -383.0 -327.0 -276.0 -259.0 -265.0 -271.0 -269.0 -270.0 -250.0 -234.0 -210.0 -197.0 -167.0 -141.0 -116.0 -91.0 -80.0 -79.0 -95.0 -112.0 -150.0 -189.0 -224.0 -257.0 -284.0 -316.0 -338.0 -371.0 -398.0 -412.0 -430.0 -466.0 -513.0 -520.0 -489.0 -420.0 -352.0 -308.0 -283.0 -273.0 -296.0 -363.0 -402.0 -431.0 -442.0 -506.0 -734.0 -738.0 -784.0 -563.0 -351.0 -157.0 -3.0 87.0 125.0 139.0 162.0 190.0 234.0 272.0 313.0 336.0 346.0 355.0 366.0 386.0 387.0 367.0 326.0 273.0 246.0 256.0 275.0 285.0 281.0 264.0 243.0 201.0 172.0 128.0 86.0 56.0 24.0 -1.0 -36.0 -59.0 -83.0 -95.0 -90.0 -80.0 -75.0 -75.0 -54.0 -48.0 -42.0 -51.0 -63.0 -90.0 -122.0 -165.0 -200.0 -226.0 -224.0 -221.0</Array>
			</VectorInstance>
			<VectorInstance id="1119">
				<Array type="real">-26.0 -25.0 -31.0 -37.0 -37.0 -40.0 -44.0 -48.0 -52.0 -61.0 -68.0 -70.0 -71.0 -75.0 -74.0 -69.0 -65.0 -62.0 -59.0 -55.0 -52.0 -42.0 -32.0 -29.0 -24.0 -22.0 -25.0 -26.0 -28.0 -25.0 -31.0 -35.0 -36.0 -40.0 -42.0 -47.0 -48.0 -50.0 -48.0 -50.0 -51.0 -57.0 -60.0 -63.0 -70.0 -75.0 -72.0 -69.0 -68.0 -64.0 -70.0 -70.0 -72.0 -66.0 -63.0 -66.0 -65.0 -69.0 -78.0 -84.0 -88.0 -101.0 -110.0 -117.0 -118.0 -124.0 -131.0 -129.0 -124.0 -106.0 -89.0 -70.0 -57.0 -52.0 -42.0 -40.0 -39.0 -39.0 -40.0 -44.0 -50.0 -57.0 -66.0 -72.0 -74.0 -78.0 -86.0 -98.0 -99.0 -101.0 -94.0 -89.0 -88.0 -92.0 -92.0 -91.0 -94.0 -96.0 -91.0 -84.0 -82.0 -73.0 -60.0 -53.0 -49.0 -43.0 -41.0 -46.0 -50.0 -58.0 -67.0 -69.0 -63.0 -55.0 -49.0 -46.0 -46.0 -48.0 -46.0 -44.0 -41.0 -37.0 -32.0 -35.0 -42.0 -47.0 -49.0 -50.0 -61.0 -64.0 -77.0 -77.0 -70.0 -57.0 -33.0 -20.0 -7.0 2.0 7.0 12.0 15.0 16.0 21.0 27.0 26.0 19.0 10.0 9.0 17.0 58.0 171.0 318.0 466.0 538.0 541.0 501.0 443.0 380.0 308.0 250.0 194.0 156.0 129.0 111.0 95.0 78.0 63.0 50.0 48.0 54.0 74.0 100.0 128.0 148.0 163.0 170.0 176.0 182.0</Array>
			</VectorInstance>
			<VectorInstance id="1151">
				<Array type="real">-94.0 -76.0 -60.0 -28.0 -17.0 -21.0 -44.0 -48.0 -30.0 5.0 49.0 73.0 76.0 53.0 21.0 -13.0 -57.0 -94.0 -124.0 -152.0 -174.0 -175.0 -161.0 -130.0 -105.0 -88.0 -82.0 -79.0 -74.0 -67.0 -67.0 -56.0 -46.0 -39.0 -42.0 -45.0 -57.0 -79.0 -97.0 -92.0 -74.0 -46.0 4.0 54.0 82.0 82.0 58.0 29.0 -19.0 -60.0 -117.0 -163.0 -190.0 -185.0 -147.0 -94.0 -23.0 60.0 129.0 167.0 162.0 113.0 43.0 -3.0 -37.0 -45.0 -48.0 -39.0 -31.0 -8.0 52.0 121.0 167.0 167.0 128.0 63.0 -3.0 -67.0 -124.0 -165.0 -195.0 -205.0 -209.0 -177.0 -114.0 -28.0 36.0 66.0 76.0 59.0 40.0 16.0 -11.0 -41.0 -60.0 -93.0 -127.0 -132.0 -100.0 -49.0 0.0 39.0 62.0 57.0 18.0 -35.0 -89.0 -123.0 -121.0 -97.0 -78.0 -78.0 -65.0 -50.0 -29.0 -8.0 -1.0 7.0 28.0 38.0 41.0 26.0 22.0 14.0 3.0 -17.0 -38.0 -41.0 -27.0 13.0 60.0 86.0 93.0 80.0 29.0 -28.0 -61.0 -78.0 -76.0 -78.0 -83.0 -94.0 -90.0 -76.0 -45.0 -23.0 -11.0 11.0 12.0 21.0 9.0 -19.0 -38.0 -44.0 -38.0 -36.0 -30.0 -23.0 -13.0 -8.0 -2.0 20.0 20.0 -2.0 -32.0 -57.0 -55.0 -45.0 -27.0 -31.0 -42.0 -60.0 -55.0 -35.0 4.0 35.0 46.0 42.0</Array>
			</VectorInstance>
			<VectorInstance id="1176">
				<Array type="real">9.0 27.0 43.0 46.0 57.0 76.0 98.0 97.0 96.0 89.0 77.0 70.0 64.0 52.0 35.0 7.0 -25.0 -79.0 -118.0 -136.0 -133.0 -136.0 -146.0 -163.0 -179.0 -183.0 -170.0 -159.0 -185.0 -150.0 -148.0 -93.0 -65.0 -40.0 -34.0 -40.0 -41.0 -51.0 -38.0 -41.0 -24.0 -11.0 11.0 44.0 70.0 77.0 83.0 88.0 79.0 70.0 60.0 57.0 50.0 43.0 35.0 19.0 0.0 -4.0 -11.0 -25.0 -42.0 -62.0 -75.0 -87.0 -101.0 -104.0 -149.0 -186.0 -227.0 -199.0 -147.0 -73.0 -34.0 -30.0 -44.0 -67.0 -68.0 -41.0 26.0 84.0 128.0 158.0 176.0 175.0 165.0 165.0 159.0 152.0 143.0 129.0 117.0 110.0 117.0 123.0 128.0 134.0 138.0 136.0 131.0 138.0 134.0 126.0 114.0 91.0 63.0 35.0 10.0 -16.0 -30.0 -27.0 -37.0 -50.0 -67.0 -67.0 -62.0 -52.0 -36.0 -27.0 -6.0 0.0 26.0 41.0 61.0 66.0 62.0 43.0 23.0 5.0 -22.0 -32.0 -39.0 -48.0 -66.0 -92.0 -106.0 -114.0 -109.0 -97.0 -81.0 -75.0 -66.0 -63.0 -70.0 -57.0 -56.0 -41.0 -38.0 -32.0 -31.0 -42.0 -68.0 -66.0 -90.0 -84.0 -72.0 -61.0 -43.0 -33.0 -13.0 2.0 20.0 33.0 33.0 22.0 10.0 10.0 21.0 32.0 42.0 35.0 1.0 -103.0 -152.0 -205.0 -180.0 -130.0 -96.0 -82.0</Array>
			</VectorInstance>
			<VectorInstance id="1188">
				<Array type="real">78.0 49.0 20.0 4.0 7.0 33.0 77.0 99.0 88.0 57.0 20.0 11.0 8.0 1.0 2.0 5.0 3.0 51.0 65.0 99.0 61.0 36.0 21.0 15.0 33.0 61.0 119.0 176.0 187.0 173.0 113.0 117.0 97.0 116.0 105.0 90.0 89.0 77.0 79.0 77.0 72.0 59.0 49.0 21.0 21.0 15.0 25.0 -1.0 -40.0 -77.0 -87.0 -129.0 -72.0 -63.0 -34.0 -12.0 -17.0 14.0 16.0 7.0 -30.0 -69.0 -100.0 -103.0 -91.0 -48.0 -1.0 43.0 61.0 49.0 49.0 -5.0 -51.0 -103.0 -143.0 -122.0 -105.0 -49.0 -37.0 -41.0 -21.0 1.0 2.0 10.0 -47.0 -95.0 -131.0 -170.0 -164.0 -136.0 -85.0 -26.0 30.0 30.0 104.0 111.0 125.0 77.0 16.0 -17.0 -55.0 -58.0 -54.0 -25.0 2.0 -10.0 29.0 47.0 71.0 68.0 63.0 98.0 128.0 105.0 49.0 1.0 -60.0 -75.0 -60.0 -41.0 -26.0 -8.0 32.0 90.0 86.0 85.0 44.0 10.0 -1.0 3.0 -30.0 -65.0 -102.0 -105.0 -107.0 -85.0 -96.0 -80.0 -103.0 -117.0 -149.0 -136.0 -121.0 -91.0 -71.0 -78.0 -90.0 -105.0 -120.0 -94.0 -105.0 -123.0 -135.0 -131.0 -120.0 -88.0 -85.0 -88.0 -88.0 -61.0 -23.0 -10.0 -19.0 -29.0 -30.0 -8.0 -47.0 -31.0 -48.0 -26.0 20.0 46.0 72.0 25.0 8.0 -16.0 -21.0 -11.0</Array>
			</VectorInstance>
			<VectorInstance id="1195">
				<Array type="real">-89.0 -72.0 -49.0 -2.0 56.0 110.0 152.0 165.0 153.0 109.0 55.0 9.0 -32.0 -60.0 -85.0 -110.0 -135.0 -135.0 -111.0 -80.0 -34.0 26.0 92.0 143.0 176.0 177.0 147.0 100.0 43.0 -13.0 -70.0 -107.0 -141.0 -165.0 -179.0 -177.0 -155.0 -117.0 -51.0 23.0 103.0 173.0 221.0 238.0 219.0 178.0 103.0 14.0 -74.0 -138.0 -181.0 -196.0 -189.0 -177.0 -154.0 -123.0 -77.0 -33.0 30.0 88.0 134.0 162.0 172.0 161.0 106.0 30.0 -50.0 -104.0 -128.0 -123.0 -109.0 -105.0 -93.0 -71.0 -42.0 -8.0 29.0 74.0 110.0 148.0 162.0 136.0 66.0 -14.0 -87.0 -128.0 -135.0 -123.0 -113.0 -117.0 -108.0 -90.0 -52.0 5.0 67.0 122.0 152.0 158.0 133.0 87.0 27.0 -27.0 -72.0 -104.0 -111.0 -112.0 -101.0 -83.0 -52.0 -21.0 28.0 86.0 138.0 171.0 169.0 138.0 73.0 9.0 -45.0 -88.0 -116.0 -127.0 -118.0 -104.0 -81.0 -55.0 -29.0 6.0 57.0 115.0 145.0 144.0 116.0 71.0 23.0 -13.0 -45.0 -74.0 -93.0 -104.0 -107.0 -108.0 -96.0 -71.0 -41.0 3.0 53.0 102.0 125.0 130.0 93.0 29.0 -31.0 -77.0 -100.0 -118.0 -117.0 -116.0 -111.0 -103.0 -88.0 -67.0 -37.0 14.0 68.0 125.0 170.0 178.0 138.0 56.0 -30.0 -103.0 -149.0 -168.0 -163.0 -149.0 -132.0 -114.0</Array>
			</VectorInstance>
			<VectorInstance id="1240">
				<Array type="real">51.0 61.0 71.0 79.0 84.0 87.0 72.0 64.0 48.0 55.0 57.0 56.0 65.0 53.0 38.0 19.0 4.0 -20.0 -33.0 -61.0 -85.0 -122.0 -143.0 -146.0 -137.0 -123.0 -89.0 -60.0 -31.0 -4.0 5.0 19.0 16.0 4.0 -2.0 -20.0 -20.0 -29.0 -51.0 -60.0 -79.0 -92.0 -130.0 -153.0 -182.0 -195.0 -207.0 -223.0 -229.0 -242.0 -237.0 -244.0 -252.0 -235.0 -214.0 -172.0 -145.0 -105.0 -81.0 -64.0 -57.0 -36.0 -24.0 -39.0 -53.0 -83.0 -98.0 -107.0 -91.0 -76.0 -54.0 -27.0 -15.0 -14.0 4.0 27.0 67.0 104.0 130.0 145.0 138.0 135.0 141.0 146.0 162.0 182.0 185.0 195.0 194.0 187.0 182.0 179.0 184.0 184.0 175.0 162.0 161.0 166.0 164.0 173.0 173.0 153.0 141.0 130.0 132.0 141.0 137.0 120.0 80.0 54.0 22.0 38.0 42.0 79.0 101.0 115.0 143.0 145.0 152.0 147.0 141.0 134.0 103.0 80.0 43.0 27.0 16.0 35.0 34.0 31.0 10.0 -10.0 -26.0 -31.0 -20.0 -5.0 -12.0 5.0 2.0 14.0 13.0 28.0 16.0 7.0 -18.0 -42.0 -73.0 -87.0 -78.0 -59.0 -38.0 -29.0 -28.0 -38.0 -46.0 -31.0 -17.0 4.0 20.0 45.0 40.0 37.0 9.0 9.0 5.0 16.0 14.0 9.0 3.0 0.0 -33.0 -34.0 -35.0 -45.0 -40.0 -41.0 -32.0 -5.0</Array>
			</VectorInstance>
			<VectorInstance id="1250">
				<Array type="real">-197.0 -246.0 -274.0 -261.0 -210.0 -117.0 -7.0 84.0 123.0 91.0 21.0 -56.0 -111.0 -151.0 -146.0 -120.0 -89.0 -53.0 -23.0 -14.0 -37.0 -49.0 -61.0 -59.0 -48.0 -37.0 -39.0 -52.0 -69.0 -67.0 -61.0 -16.0 25.0 32.0 0.0 -45.0 -93.0 -128.0 -142.0 -130.0 -106.0 -74.0 -35.0 3.0 36.0 74.0 111.0 128.0 129.0 106.0 54.0 -9.0 -51.0 -74.0 -77.0 -56.0 -39.0 -16.0 -7.0 -11.0 -26.0 -53.0 -80.0 -101.0 -119.0 -139.0 -161.0 -160.0 -159.0 -122.0 -80.0 -34.0 -5.0 12.0 28.0 42.0 50.0 48.0 18.0 -39.0 -95.0 -137.0 -157.0 -139.0 -102.0 -70.0 -61.0 -64.0 -72.0 -70.0 -54.0 -30.0 -15.0 -1.0 21.0 34.0 40.0 43.0 53.0 66.0 73.0 60.0 25.0 -22.0 -80.0 -137.0 -197.0 -235.0 -234.0 -224.0 -203.0 -175.0 -106.0 -29.0 54.0 103.0 109.0 69.0 26.0 -15.0 -69.0 -114.0 -148.0 -163.0 -155.0 -131.0 -95.0 -77.0 -73.0 -87.0 -110.0 -128.0 -132.0 -125.0 -133.0 -135.0 -126.0 -94.0 -50.0 4.0 41.0 46.0 24.0 -19.0 -66.0 -96.0 -89.0 -75.0 -66.0 -79.0 -97.0 -118.0 -131.0 -130.0 -139.0 -143.0 -142.0 -136.0 -138.0 -141.0 -117.0 -88.0 -60.0 -40.0 -30.0 -46.0 -64.0 -80.0 -95.0 -96.0 -88.0 -54.0 -24.0 -3.0 8.0 18.0 19.0 15.0</Array>
			</VectorInstance>
			<VectorInstance id="1275">
				<Array type="real">-47.0 -46.0 -43.0 -34.0 -35.0 -37.0 -45.0 -48.0 -46.0 -43.0 -60.0 -94.0 -122.0 -139.0 -119.0 -81.0 -36.0 -8.0 -23.0 -89.0 -163.0 -221.0 -209.0 -166.0 -106.0 -67.0 -49.0 -55.0 -50.0 -48.0 -42.0 -50.0 -62.0 -75.0 -79.0 -87.0 -87.0 -87.0 -90.0 -85.0 -81.0 -79.0 -80.0 -77.0 -76.0 -79.0 -83.0 -96.0 -105.0 -111.0 -121.0 -125.0 -134.0 -130.0 -123.0 -124.0 -123.0 -126.0 -125.0 -122.0 -115.0 -108.0 -106.0 -97.0 -88.0 -72.0 -65.0 -60.0 -60.0 -67.0 -64.0 -52.0 -38.0 -16.0 4.0 14.0 34.0 51.0 70.0 69.0 54.0 23.0 1.0 -14.0 -34.0 -48.0 -73.0 -83.0 -75.0 -66.0 -65.0 -64.0 -67.0 -68.0 -67.0 -62.0 -61.0 -69.0 -76.0 -74.0 -67.0 -53.0 -32.0 -14.0 -3.0 7.0 26.0 39.0 62.0 78.0 78.0 68.0 53.0 49.0 46.0 35.0 20.0 -7.0 -34.0 -44.0 3.0 156.0 355.0 524.0 594.0 543.0 443.0 329.0 249.0 220.0 248.0 292.0 323.0 319.0 277.0 215.0 164.0 122.0 111.0 105.0 115.0 118.0 120.0 126.0 134.0 139.0 137.0 136.0 128.0 117.0 103.0 83.0 57.0 34.0 8.0 -14.0 -33.0 -51.0 -55.0 -57.0 -59.0 -63.0 -71.0 -77.0 -83.0 -87.0 -93.0 -95.0 -94.0 -93.0 -101.0 -112.0 -123.0 -129.0 -131.0 -126.0 -127.0 -126.0</Array>
			</VectorInstance>
			<VectorInstance id="1304">
				<Array type="real">-23.0 -24.0 -17.0 -18.0 -18.0 -29.0 -42.0 -59.0 -77.0 -102.0 -129.0 -164.0 -186.0 -198.0 -203.0 -199.0 -188.0 -170.0 -144.0 -113.0 -80.0 -44.0 -10.0 16.0 28.0 33.0 35.0 39.0 41.0 41.0 31.0 10.0 -8.0 -25.0 -34.0 -37.0 -37.0 -36.0 -37.0 -41.0 -43.0 -46.0 -54.0 -62.0 -70.0 -76.0 -90.0 -105.0 -113.0 -119.0 -100.0 -73.0 -45.0 -18.0 6.0 27.0 45.0 52.0 59.0 58.0 52.0 45.0 33.0 24.0 20.0 18.0 19.0 15.0 14.0 13.0 10.0 -1.0 -13.0 -29.0 -41.0 -51.0 -68.0 -91.0 -106.0 -128.0 -150.0 -169.0 -183.0 -188.0 -187.0 -189.0 -183.0 -179.0 -166.0 -145.0 -127.0 -106.0 -92.0 -70.0 -55.0 -42.0 -34.0 -33.0 -26.0 -27.0 -23.0 -21.0 -21.0 -24.0 -23.0 -23.0 -14.0 -12.0 -5.0 -3.0 -5.0 -11.0 -23.0 -34.0 -37.0 -36.0 -25.0 -25.0 -25.0 -35.0 -36.0 -42.0 -39.0 -38.0 -44.0 -50.0 -49.0 -42.0 -40.0 -47.0 -49.0 -46.0 -44.0 -41.0 -43.0 -45.0 -38.0 -35.0 -31.0 -35.0 -33.0 -38.0 -42.0 -49.0 -53.0 -59.0 -64.0 -68.0 -70.0 -72.0 -78.0 -77.0 -75.0 -76.0 -73.0 -69.0 -56.0 -50.0 -37.0 -34.0 -35.0 -24.0 -22.0 -13.0 -13.0 -6.0 -3.0 -4.0 -5.0 -14.0 -14.0 -19.0 -14.0 -15.0 -18.0 -19.0 -17.0 -12.0</Array>
			</VectorInstance>
			<VectorInstance id="1305">
				<Array type="real">-71.0 -92.0 -96.0 -87.0 -71.0 -46.0 -41.0 -32.0 -5.0 18.0 54.0 60.0 43.0 19.0 -40.0 -46.0 -69.0 -46.0 2.0 67.0 74.0 54.0 34.0 17.0 25.0 -11.0 -53.0 -60.0 -59.0 -1.0 40.0 36.0 44.0 41.0 41.0 42.0 27.0 27.0 59.0 105.0 154.0 201.0 192.0 158.0 111.0 30.0 -8.0 -98.0 -166.0 -160.0 -145.0 -99.0 -85.0 -38.0 33.0 74.0 84.0 68.0 38.0 28.0 42.0 73.0 126.0 184.0 262.0 319.0 321.0 275.0 241.0 237.0 272.0 348.0 338.0 345.0 269.0 221.0 188.0 158.0 168.0 150.0 116.0 48.0 -12.0 -63.0 -119.0 -126.0 -146.0 -98.0 -59.0 -5.0 -14.0 4.0 -19.0 -19.0 -2.0 12.0 84.0 107.0 203.0 230.0 224.0 211.0 163.0 140.0 77.0 66.0 42.0 23.0 -12.0 -32.0 -100.0 -140.0 -184.0 -202.0 -183.0 -144.0 -117.0 -67.0 -20.0 -44.0 -36.0 -85.0 -125.0 -127.0 -124.0 -116.0 -68.0 -81.0 -35.0 -42.0 32.0 92.0 161.0 171.0 140.0 148.0 116.0 96.0 95.0 74.0 82.0 79.0 28.0 37.0 46.0 42.0 21.0 -39.0 -122.0 -182.0 -239.0 -193.0 -145.0 -54.0 -5.0 30.0 62.0 105.0 161.0 195.0 233.0 267.0 279.0 258.0 179.0 102.0 37.0 31.0 36.0 59.0 52.0 83.0 81.0 48.0 -14.0 -54.0 -64.0 -83.0</Array>
			</VectorInstance>
			<VectorInstance id="1336">
				<Array type="real">-94.0 -107.0 -116.0 -116.0 -114.0 -112.0 -110.0 -104.0 -96.0 -88.0 -85.0 -73.0 -62.0 -51.0 -45.0 -44.0 -39.0 -22.0 -12.0 -12.0 -7.0 -10.0 -15.0 -19.0 -27.0 -36.0 -43.0 -58.0 -70.0 -85.0 -95.0 -103.0 -102.0 -99.0 -97.0 -89.0 -82.0 -79.0 -70.0 -59.0 -42.0 -33.0 -19.0 -15.0 -12.0 -23.0 -39.0 -67.0 -99.0 -108.0 -117.0 -114.0 -109.0 -100.0 -92.0 -88.0 -80.0 -66.0 -55.0 -40.0 -31.0 -19.0 -9.0 8.0 25.0 46.0 65.0 78.0 81.0 82.0 82.0 77.0 70.0 62.0 50.0 37.0 25.0 15.0 11.0 2.0 -1.0 -4.0 -9.0 -10.0 -5.0 2.0 16.0 23.0 26.0 32.0 33.0 38.0 48.0 49.0 51.0 54.0 54.0 57.0 63.0 60.0 56.0 44.0 29.0 11.0 -9.0 -26.0 -41.0 -55.0 -68.0 -79.0 -89.0 -96.0 -106.0 -116.0 -127.0 -133.0 -135.0 -134.0 -124.0 -108.0 -97.0 -80.0 -60.0 -32.0 -5.0 16.0 31.0 36.0 28.0 8.0 -15.0 -45.0 -71.0 -90.0 -107.0 -115.0 -112.0 -107.0 -98.0 -85.0 -74.0 -54.0 -30.0 -6.0 17.0 38.0 60.0 83.0 99.0 100.0 99.0 88.0 83.0 83.0 87.0 92.0 98.0 99.0 94.0 77.0 58.0 37.0 10.0 -16.0 -42.0 -62.0 -77.0 -84.0 -85.0 -85.0 -75.0 -78.0 -79.0 -81.0 -89.0 -96.0 -107.0 -126.0</Array>
			</VectorInstance>
			<VectorInstance id="1340">
				<Array type="real">-11.0 -8.0 -7.0 -1.0 -9.0 3.0 -11.0 1.0 -14.0 -14.0 -21.0 -11.0 -4.0 -4.0 -3.0 -19.0 -19.0 -28.0 -46.0 -77.0 -97.0 -103.0 -95.0 -81.0 -79.0 -90.0 -116.0 -135.0 -138.0 -123.0 -99.0 -96.0 -111.0 -140.0 -150.0 -136.0 -118.0 -115.0 -65.0 -17.0 53.0 95.0 159.0 205.0 240.0 256.0 187.0 133.0 77.0 51.0 12.0 -18.0 -40.0 -46.0 -50.0 -94.0 -156.0 -224.0 -280.0 -299.0 -281.0 -250.0 -198.0 -172.0 -170.0 -147.0 -154.0 -131.0 -111.0 -87.0 -40.0 -34.0 -20.0 0.0 11.0 43.0 20.0 -1.0 -22.0 -20.0 -18.0 -29.0 -19.0 12.0 39.0 44.0 41.0 34.0 16.0 -2.0 11.0 17.0 30.0 30.0 7.0 -1.0 -35.0 -51.0 -72.0 -70.0 -37.0 -5.0 17.0 16.0 11.0 2.0 -5.0 -22.0 -25.0 -14.0 3.0 26.0 29.0 -5.0 -50.0 -106.0 -157.0 -189.0 -221.0 -242.0 -231.0 -204.0 -171.0 -169.0 -157.0 -145.0 -103.0 -78.0 -48.0 -51.0 -48.0 -37.0 -37.0 -17.0 -20.0 -10.0 -6.0 -39.0 -43.0 -32.0 -6.0 6.0 35.0 42.0 82.0 127.0 188.0 202.0 200.0 184.0 171.0 169.0 161.0 166.0 192.0 212.0 219.0 188.0 155.0 121.0 89.0 22.0 -34.0 -77.0 -102.0 -126.0 -160.0 -173.0 -168.0 -158.0 -98.0 -39.0 32.0 105.0 167.0 191.0 211.0 192.0</Array>
			</VectorInstance>
			<VectorInstance id="1347">
				<Array type="real">109.0 107.0 88.0 85.0 78.0 79.0 70.0 66.0 67.0 60.0 42.0 40.0 38.0 32.0 24.0 18.0 24.0 0.0 0.0 -29.0 -37.0 -48.0 -34.0 -20.0 -6.0 5.0 0.0 -13.0 -32.0 -43.0 -46.0 -52.0 -42.0 -52.0 -56.0 -71.0 -70.0 -59.0 -36.0 -11.0 -4.0 -1.0 -14.0 -19.0 -22.0 -23.0 -15.0 -40.0 -57.0 -87.0 -106.0 -116.0 -116.0 -92.0 -60.0 -39.0 -34.0 -26.0 -50.0 -61.0 -69.0 -64.0 -52.0 -27.0 -1.0 21.0 33.0 41.0 48.0 43.0 33.0 -7.0 -64.0 -112.0 -151.0 -165.0 -156.0 -124.0 -87.0 -76.0 -68.0 -51.0 -28.0 3.0 41.0 62.0 85.0 95.0 115.0 131.0 153.0 171.0 182.0 157.0 152.0 150.0 159.0 167.0 174.0 180.0 188.0 176.0 182.0 176.0 178.0 171.0 153.0 139.0 131.0 141.0 109.0 91.0 62.0 40.0 10.0 -8.0 -11.0 0.0 27.0 48.0 48.0 32.0 22.0 25.0 15.0 -3.0 -16.0 -16.0 -3.0 26.0 36.0 39.0 57.0 69.0 64.0 32.0 -5.0 -25.0 -39.0 -48.0 -55.0 -46.0 -39.0 -27.0 -41.0 -49.0 -58.0 -41.0 -19.0 -3.0 23.0 34.0 33.0 17.0 -5.0 -40.0 -52.0 -49.0 -31.0 -20.0 -1.0 29.0 57.0 70.0 91.0 85.0 97.0 90.0 91.0 75.0 60.0 55.0 59.0 48.0 19.0 6.0 0.0 13.0</Array>
			</VectorInstance>
			<VectorInstance id="1349">
				<Array type="real">29.0 20.0 -8.0 -39.0 -74.0 -97.0 -103.0 -95.0 -68.0 -41.0 -9.0 23.0 50.0 66.0 81.0 90.0 73.0 22.0 -45.0 -111.0 -161.0 -189.0 -187.0 -168.0 -131.0 -68.0 2.0 67.0 121.0 157.0 174.0 183.0 183.0 165.0 111.0 34.0 -55.0 -135.0 -192.0 -209.0 -187.0 -150.0 -106.0 -62.0 -16.0 33.0 102.0 147.0 146.0 89.0 0.0 -97.0 -176.0 -205.0 -209.0 -190.0 -174.0 -154.0 -125.0 -85.0 -29.0 20.0 37.0 37.0 19.0 -12.0 -55.0 -76.0 -113.0 -142.0 -168.0 -160.0 -129.0 -92.0 -68.0 -63.0 -65.0 -36.0 11.0 47.0 80.0 101.0 107.0 88.0 33.0 -44.0 -145.0 -230.0 -290.0 -315.0 -317.0 -291.0 -231.0 -140.0 -21.0 79.0 134.0 124.0 73.0 12.0 12.0 -51.0 -97.0 -129.0 -146.0 -141.0 -114.0 -70.0 -35.0 3.0 36.0 64.0 75.0 59.0 22.0 -25.0 -62.0 -79.0 -81.0 -87.0 -83.0 -86.0 -70.0 -21.0 66.0 152.0 207.0 219.0 181.0 109.0 17.0 -59.0 -109.0 -121.0 -100.0 -79.0 -52.0 -15.0 26.0 60.0 92.0 123.0 154.0 160.0 127.0 54.0 -40.0 -108.0 -126.0 -131.0 -130.0 -133.0 -103.0 -46.0 48.0 135.0 192.0 216.0 210.0 181.0 105.0 2.0 -106.0 -190.0 -237.0 -254.0 -248.0 -222.0 -165.0 -82.0 7.0 83.0 138.0 163.0 139.0 91.0 21.0 -50.0</Array>
			</VectorInstance>
			<VectorInstance id="1382">
				<Array type="real">-105.0 -97.0 -90.0 -87.0 -98.0 -78.0 -89.0 -115.0 -125.0 -111.0 -96.0 -46.0 -19.0 -31.0 -26.0 -9.0 -2.0 -23.0 -69.0 -147.0 -187.0 -198.0 -139.0 -80.0 -43.0 -16.0 -12.0 -40.0 -86.0 -115.0 -171.0 -209.0 -137.0 -110.0 -105.0 -77.0 13.0 64.0 21.0 -64.0 -142.0 -234.0 -286.0 -272.0 -237.0 -176.0 -76.0 -11.0 2.0 33.0 45.0 24.0 -19.0 -48.0 -47.0 -77.0 -56.0 -16.0 -1.0 -1.0 40.0 50.0 28.0 -23.0 -56.0 -116.0 -166.0 -141.0 -111.0 -131.0 -124.0 -82.0 -78.0 -57.0 -24.0 -38.0 -90.0 -98.0 -70.0 -57.0 -23.0 20.0 41.0 39.0 54.0 60.0 37.0 18.0 30.0 50.0 53.0 50.0 57.0 24.0 12.0 35.0 53.0 44.0 58.0 69.0 18.0 -19.0 -23.0 -54.0 -90.0 -52.0 7.0 61.0 95.0 138.0 127.0 100.0 96.0 69.0 10.0 10.0 21.0 -26.0 -42.0 23.0 72.0 90.0 118.0 148.0 115.0 21.0 -14.0 -42.0 -78.0 -74.0 -56.0 -54.0 -71.0 -41.0 -15.0 20.0 101.0 204.0 231.0 193.0 167.0 123.0 55.0 43.0 21.0 -78.0 -129.0 -114.0 -82.0 -51.0 29.0 108.0 133.0 148.0 161.0 156.0 122.0 85.0 42.0 -9.0 -37.0 -14.0 -28.0 -77.0 -87.0 -45.0 -48.0 -46.0 -29.0 -20.0 -30.0 -12.0 17.0 -14.0 -40.0 -54.0 -38.0 -99.0</Array>
			</VectorInstance>
			<VectorInstance id="1444">
				<Array type="real">-65.0 -85.0 -138.0 -241.0 -366.0 -448.0 -523.0 -568.0 -597.0 -570.0 -498.0 -422.0 -355.0 -298.0 -244.0 -203.0 -172.0 -152.0 -138.0 -130.0 -122.0 -111.0 -98.0 -81.0 -58.0 -30.0 -7.0 14.0 19.0 13.0 2.0 -9.0 -3.0 1.0 16.0 17.0 15.0 11.0 4.0 7.0 10.0 24.0 32.0 43.0 51.0 55.0 60.0 61.0 62.0 70.0 75.0 85.0 92.0 97.0 94.0 92.0 77.0 55.0 23.0 -6.0 -30.0 -54.0 -70.0 -89.0 -73.0 -23.0 33.0 60.0 30.0 -16.0 -40.0 -33.0 -11.0 18.0 48.0 74.0 93.0 99.0 98.0 99.0 100.0 98.0 94.0 86.0 80.0 71.0 64.0 57.0 47.0 42.0 36.0 34.0 34.0 38.0 51.0 62.0 81.0 101.0 124.0 140.0 149.0 153.0 153.0 151.0 148.0 145.0 139.0 134.0 125.0 111.0 98.0 84.0 67.0 47.0 30.0 17.0 4.0 -7.0 -13.0 -15.0 -21.0 -15.0 -12.0 -12.0 -3.0 -1.0 7.0 9.0 10.0 21.0 27.0 33.0 36.0 33.0 27.0 24.0 27.0 31.0 37.0 43.0 49.0 55.0 61.0 68.0 71.0 69.0 64.0 57.0 50.0 49.0 47.0 43.0 40.0 30.0 20.0 5.0 -4.0 -12.0 -18.0 -22.0 -30.0 -38.0 -44.0 -47.0 -47.0 -43.0 -33.0 -22.0 -20.0 -23.0 -33.0 -43.0 -59.0 -73.0 -88.0 -100.0 -108.0 -112.0</Array>
			</VectorInstance>
			<VectorInstance id="1458">
				<Array type="real">-63.0 -83.0 -98.0 -99.0 -91.0 -76.0 -63.0 -51.0 -43.0 -43.0 -55.0 -66.0 -79.0 -94.0 -114.0 -133.0 -147.0 -148.0 -135.0 -116.0 -107.0 -87.0 -53.0 -12.0 22.0 47.0 59.0 50.0 35.0 18.0 -4.0 -30.0 -55.0 -74.0 -99.0 -111.0 -112.0 -108.0 -108.0 -107.0 -101.0 -87.0 -62.0 -23.0 11.0 30.0 48.0 48.0 33.0 12.0 -9.0 -19.0 -40.0 -57.0 -81.0 -108.0 -116.0 -103.0 -74.0 -49.0 -14.0 -8.0 -2.0 2.0 6.0 5.0 -1.0 1.0 -4.0 -15.0 -28.0 -29.0 -29.0 -23.0 -16.0 -22.0 -28.0 -33.0 -30.0 -27.0 -28.0 -27.0 -33.0 -40.0 -50.0 -47.0 -42.0 -34.0 -20.0 -22.0 -24.0 -18.0 9.0 33.0 63.0 76.0 65.0 19.0 -48.0 -114.0 -166.0 -188.0 -185.0 -165.0 -131.0 -82.0 -29.0 12.0 53.0 97.0 139.0 170.0 186.0 171.0 118.0 45.0 -28.0 -81.0 -124.0 -143.0 -155.0 -154.0 -128.0 -90.0 -48.0 -18.0 23.0 50.0 70.0 71.0 59.0 23.0 -23.0 -64.0 -102.0 -121.0 -122.0 -102.0 -83.0 -68.0 -58.0 -66.0 -70.0 -53.0 -11.0 43.0 97.0 135.0 136.0 96.0 28.0 -47.0 -116.0 -151.0 -158.0 -149.0 -146.0 -149.0 -156.0 -164.0 -152.0 -113.0 -55.0 0.0 45.0 63.0 41.0 2.0 -60.0 -120.0 -180.0 -201.0 -190.0 -158.0 -114.0 -73.0 -41.0 -25.0</Array>
			</VectorInstance>
			<VectorInstance id="1459">
				<Array type="real">-113.0 -152.0 -172.0 -164.0 -148.0 -107.0 -82.0 -45.0 -12.0 18.0 43.0 60.0 92.0 109.0 125.0 117.0 79.0 47.0 21.0 -17.0 -28.0 -51.0 -55.0 -47.0 -27.0 -3.0 16.0 34.0 63.0 90.0 112.0 129.0 139.0 137.0 141.0 145.0 136.0 116.0 87.0 58.0 27.0 1.0 0.0 -19.0 -20.0 -36.0 -21.0 -28.0 -14.0 7.0 28.0 44.0 46.0 50.0 39.0 39.0 52.0 64.0 78.0 82.0 89.0 85.0 85.0 85.0 77.0 62.0 50.0 37.0 17.0 -1.0 -22.0 -37.0 -33.0 -16.0 -3.0 -9.0 -1.0 -2.0 5.0 24.0 39.0 46.0 53.0 45.0 34.0 22.0 11.0 9.0 -7.0 -36.0 -61.0 -93.0 -111.0 -106.0 -96.0 -79.0 -60.0 -40.0 -3.0 24.0 59.0 99.0 126.0 149.0 159.0 143.0 116.0 80.0 67.0 32.0 1.0 -39.0 -82.0 -106.0 -129.0 -138.0 -144.0 -127.0 -99.0 -61.0 -43.0 -14.0 3.0 40.0 51.0 86.0 99.0 96.0 95.0 81.0 66.0 44.0 31.0 6.0 -9.0 -30.0 -46.0 -61.0 -78.0 -84.0 -87.0 -92.0 -73.0 -62.0 -38.0 -18.0 8.0 16.0 42.0 67.0 88.0 105.0 114.0 123.0 124.0 118.0 112.0 106.0 93.0 74.0 58.0 35.0 20.0 -7.0 -20.0 -32.0 -31.0 -9.0 12.0 35.0 80.0 124.0 138.0 154.0 183.0 198.0 213.0 210.0</Array>
			</VectorInstance>
			<VectorInstance id="1504">
				<Array type="real">-86.0 -157.0 -191.0 -158.0 -74.0 42.0 85.0 66.0 -2.0 -38.0 -87.0 -57.0 -39.0 21.0 55.0 82.0 75.0 52.0 27.0 -21.0 -47.0 -18.0 -51.0 28.0 7.0 2.0 -21.0 13.0 55.0 67.0 40.0 -43.0 -113.0 -148.0 -181.0 -181.0 -119.0 -55.0 -39.0 -5.0 -7.0 16.0 21.0 3.0 17.0 41.0 67.0 67.0 125.0 97.0 143.0 110.0 102.0 83.0 93.0 75.0 132.0 142.0 140.0 98.0 1.0 -53.0 -34.0 3.0 59.0 75.0 106.0 62.0 25.0 -16.0 -48.0 5.0 30.0 50.0 64.0 70.0 65.0 67.0 45.0 75.0 85.0 123.0 144.0 145.0 174.0 172.0 209.0 217.0 195.0 159.0 101.0 44.0 26.0 12.0 39.0 93.0 141.0 141.0 102.0 38.0 -1.0 -54.0 -82.0 -69.0 19.0 97.0 215.0 275.0 272.0 216.0 113.0 37.0 -57.0 -122.0 -153.0 -96.0 -35.0 73.0 54.0 31.0 -3.0 -86.0 -142.0 -200.0 -208.0 -170.0 -109.0 -73.0 -28.0 -31.0 -47.0 -78.0 -66.0 -141.0 -160.0 -192.0 -211.0 -156.0 -95.0 -46.0 44.0 48.0 83.0 84.0 116.0 79.0 76.0 22.0 -25.0 -34.0 -25.0 -6.0 35.0 14.0 69.0 121.0 117.0 77.0 33.0 14.0 17.0 -27.0 -86.0 -101.0 -79.0 -51.0 -48.0 -44.0 -18.0 12.0 62.0 32.0 1.0 -36.0 -43.0 -17.0 18.0 14.0</Array>
			</VectorInstance>
			<VectorInstance id="1513">
